MTP
version = 1.1.0
potential_name = MTP1m
scaling = 2.306459894493005e-01
species_count = 1
potential_tag = 
radial_basis_type = RBChebyshev
	min_dist = 2.449862132759971e+00
	max_dist = 7.000000000000000e+00
	radial_basis_size = 8
	radial_funcs_count = 5
	radial_coeffs
		0-0
			{3.305220198997841e-01, 5.917454954361353e-01, 5.244195370491939e-01, 4.118818806171967e-01, 2.676651843607402e-01, 1.405231420420538e-01, 6.157157235512657e-02, 2.733980399046950e-02}
			{9.135033382461576e-01, -3.253294606582776e-01, -1.044763402946131e-01, -2.567368777115993e-02, -1.236487099998685e-01, -9.900554269078871e-02, -1.887880549087752e-02, 1.505006247525307e-01}
			{1.667715898021921e-01, 6.789786833548781e-01, -3.310628915362763e-01, -5.226214412540887e-01, -3.263966377623922e-01, 1.088344745711098e-01, 8.744520611533867e-02, -4.912232184401055e-02}
			{-2.003675999835669e-02, 2.299361087518071e-01, -7.057713921614758e-02, 2.726220238313045e-01, -2.559398645645980e-01, -7.144216614781560e-01, -5.240866279902913e-01, -1.298217800765569e-01}
			{-1.105699052734918e-03, 1.441447160968908e-01, -7.589680082526276e-01, 5.161081290345622e-01, 2.793933189429481e-01, 9.137116311553438e-02, 1.271212958165867e-01, 1.850726859244902e-01}
alpha_moments_count = 718
alpha_index_basic_count = 201
alpha_index_basic = {{0, 0, 0, 0}, {0, 1, 0, 0}, {0, 0, 1, 0}, {0, 0, 0, 1}, {0, 2, 0, 0}, {0, 1, 1, 0}, {0, 1, 0, 1}, {0, 0, 2, 0}, {0, 0, 1, 1}, {0, 0, 0, 2}, {0, 3, 0, 0}, {0, 2, 1, 0}, {0, 2, 0, 1}, {0, 1, 2, 0}, {0, 1, 1, 1}, {0, 1, 0, 2}, {0, 0, 3, 0}, {0, 0, 2, 1}, {0, 0, 1, 2}, {0, 0, 0, 3}, {0, 4, 0, 0}, {0, 3, 1, 0}, {0, 3, 0, 1}, {0, 2, 2, 0}, {0, 2, 1, 1}, {0, 2, 0, 2}, {0, 1, 3, 0}, {0, 1, 2, 1}, {0, 1, 1, 2}, {0, 1, 0, 3}, {0, 0, 4, 0}, {0, 0, 3, 1}, {0, 0, 2, 2}, {0, 0, 1, 3}, {0, 0, 0, 4}, {0, 5, 0, 0}, {0, 4, 1, 0}, {0, 4, 0, 1}, {0, 3, 2, 0}, {0, 3, 1, 1}, {0, 3, 0, 2}, {0, 2, 3, 0}, {0, 2, 2, 1}, {0, 2, 1, 2}, {0, 2, 0, 3}, {0, 1, 4, 0}, {0, 1, 3, 1}, {0, 1, 2, 2}, {0, 1, 1, 3}, {0, 1, 0, 4}, {0, 0, 5, 0}, {0, 0, 4, 1}, {0, 0, 3, 2}, {0, 0, 2, 3}, {0, 0, 1, 4}, {0, 0, 0, 5}, {0, 6, 0, 0}, {0, 5, 1, 0}, {0, 5, 0, 1}, {0, 4, 2, 0}, {0, 4, 1, 1}, {0, 4, 0, 2}, {0, 3, 3, 0}, {0, 3, 2, 1}, {0, 3, 1, 2}, {0, 3, 0, 3}, {0, 2, 4, 0}, {0, 2, 3, 1}, {0, 2, 2, 2}, {0, 2, 1, 3}, {0, 2, 0, 4}, {0, 1, 5, 0}, {0, 1, 4, 1}, {0, 1, 3, 2}, {0, 1, 2, 3}, {0, 1, 1, 4}, {0, 1, 0, 5}, {0, 0, 6, 0}, {0, 0, 5, 1}, {0, 0, 4, 2}, {0, 0, 3, 3}, {0, 0, 2, 4}, {0, 0, 1, 5}, {0, 0, 0, 6}, {0, 7, 0, 0}, {0, 6, 1, 0}, {0, 6, 0, 1}, {0, 5, 2, 0}, {0, 5, 1, 1}, {0, 5, 0, 2}, {0, 4, 3, 0}, {0, 4, 2, 1}, {0, 4, 1, 2}, {0, 4, 0, 3}, {0, 3, 4, 0}, {0, 3, 3, 1}, {0, 3, 2, 2}, {0, 3, 1, 3}, {0, 3, 0, 4}, {0, 2, 5, 0}, {0, 2, 4, 1}, {0, 2, 3, 2}, {0, 2, 2, 3}, {0, 2, 1, 4}, {0, 2, 0, 5}, {0, 1, 6, 0}, {0, 1, 5, 1}, {0, 1, 4, 2}, {0, 1, 3, 3}, {0, 1, 2, 4}, {0, 1, 1, 5}, {0, 1, 0, 6}, {0, 0, 7, 0}, {0, 0, 6, 1}, {0, 0, 5, 2}, {0, 0, 4, 3}, {0, 0, 3, 4}, {0, 0, 2, 5}, {0, 0, 1, 6}, {0, 0, 0, 7}, {1, 0, 0, 0}, {1, 1, 0, 0}, {1, 0, 1, 0}, {1, 0, 0, 1}, {1, 2, 0, 0}, {1, 1, 1, 0}, {1, 1, 0, 1}, {1, 0, 2, 0}, {1, 0, 1, 1}, {1, 0, 0, 2}, {1, 3, 0, 0}, {1, 2, 1, 0}, {1, 2, 0, 1}, {1, 1, 2, 0}, {1, 1, 1, 1}, {1, 1, 0, 2}, {1, 0, 3, 0}, {1, 0, 2, 1}, {1, 0, 1, 2}, {1, 0, 0, 3}, {1, 4, 0, 0}, {1, 3, 1, 0}, {1, 3, 0, 1}, {1, 2, 2, 0}, {1, 2, 1, 1}, {1, 2, 0, 2}, {1, 1, 3, 0}, {1, 1, 2, 1}, {1, 1, 1, 2}, {1, 1, 0, 3}, {1, 0, 4, 0}, {1, 0, 3, 1}, {1, 0, 2, 2}, {1, 0, 1, 3}, {1, 0, 0, 4}, {1, 5, 0, 0}, {1, 4, 1, 0}, {1, 4, 0, 1}, {1, 3, 2, 0}, {1, 3, 1, 1}, {1, 3, 0, 2}, {1, 2, 3, 0}, {1, 2, 2, 1}, {1, 2, 1, 2}, {1, 2, 0, 3}, {1, 1, 4, 0}, {1, 1, 3, 1}, {1, 1, 2, 2}, {1, 1, 1, 3}, {1, 1, 0, 4}, {1, 0, 5, 0}, {1, 0, 4, 1}, {1, 0, 3, 2}, {1, 0, 2, 3}, {1, 0, 1, 4}, {1, 0, 0, 5}, {2, 0, 0, 0}, {2, 1, 0, 0}, {2, 0, 1, 0}, {2, 0, 0, 1}, {2, 2, 0, 0}, {2, 1, 1, 0}, {2, 1, 0, 1}, {2, 0, 2, 0}, {2, 0, 1, 1}, {2, 0, 0, 2}, {2, 3, 0, 0}, {2, 2, 1, 0}, {2, 2, 0, 1}, {2, 1, 2, 0}, {2, 1, 1, 1}, {2, 1, 0, 2}, {2, 0, 3, 0}, {2, 0, 2, 1}, {2, 0, 1, 2}, {2, 0, 0, 3}, {3, 0, 0, 0}, {3, 1, 0, 0}, {3, 0, 1, 0}, {3, 0, 0, 1}, {4, 0, 0, 0}}
alpha_index_times_count = 2634
alpha_index_times = {{0, 0, 1, 201}, {1, 1, 1, 202}, {2, 2, 1, 202}, {3, 3, 1, 202}, {1, 4, 1, 203}, {2, 5, 1, 203}, {3, 6, 1, 203}, {1, 5, 1, 204}, {2, 7, 1, 204}, {3, 8, 1, 204}, {1, 6, 1, 205}, {2, 8, 1, 205}, {3, 9, 1, 205}, {1, 10, 1, 206}, {2, 11, 1, 206}, {3, 12, 1, 206}, {1, 11, 1, 207}, {2, 13, 1, 207}, {3, 14, 1, 207}, {1, 12, 1, 208}, {2, 14, 1, 208}, {3, 15, 1, 208}, {1, 13, 1, 209}, {2, 16, 1, 209}, {3, 17, 1, 209}, {1, 14, 1, 210}, {2, 17, 1, 210}, {3, 18, 1, 210}, {1, 15, 1, 211}, {2, 18, 1, 211}, {3, 19, 1, 211}, {4, 4, 1, 212}, {5, 5, 1, 212}, {6, 6, 1, 212}, {4, 5, 1, 213}, {5, 7, 1, 213}, {6, 8, 1, 213}, {4, 6, 1, 214}, {5, 8, 1, 214}, {6, 9, 1, 214}, {5, 5, 1, 215}, {7, 7, 1, 215}, {8, 8, 1, 215}, {5, 6, 1, 216}, {7, 8, 1, 216}, {8, 9, 1, 216}, {6, 6, 1, 217}, {8, 8, 1, 217}, {9, 9, 1, 217}, {4, 10, 1, 218}, {5, 11, 1, 218}, {6, 12, 1, 218}, {4, 11, 1, 219}, {5, 13, 1, 219}, {6, 14, 1, 219}, {4, 12, 1, 220}, {5, 14, 1, 220}, {6, 15, 1, 220}, {4, 13, 1, 221}, {5, 16, 1, 221}, {6, 17, 1, 221}, {4, 14, 1, 222}, {5, 17, 1, 222}, {6, 18, 1, 222}, {4, 15, 1, 223}, {5, 18, 1, 223}, {6, 19, 1, 223}, {5, 10, 1, 224}, {7, 11, 1, 224}, {8, 12, 1, 224}, {5, 11, 1, 225}, {7, 13, 1, 225}, {8, 14, 1, 225}, {5, 12, 1, 226}, {7, 14, 1, 226}, {8, 15, 1, 226}, {5, 13, 1, 227}, {7, 16, 1, 227}, {8, 17, 1, 227}, {5, 14, 1, 228}, {7, 17, 1, 228}, {8, 18, 1, 228}, {5, 15, 1, 229}, {7, 18, 1, 229}, {8, 19, 1, 229}, {6, 10, 1, 230}, {8, 11, 1, 230}, {9, 12, 1, 230}, {6, 11, 1, 231}, {8, 13, 1, 231}, {9, 14, 1, 231}, {6, 12, 1, 232}, {8, 14, 1, 232}, {9, 15, 1, 232}, {6, 13, 1, 233}, {8, 16, 1, 233}, {9, 17, 1, 233}, {6, 14, 1, 234}, {8, 17, 1, 234}, {9, 18, 1, 234}, {6, 15, 1, 235}, {8, 18, 1, 235}, {9, 19, 1, 235}, {4, 20, 1, 236}, {5, 21, 1, 236}, {6, 22, 1, 236}, {4, 21, 1, 237}, {5, 23, 1, 237}, {6, 24, 1, 237}, {4, 22, 1, 238}, {5, 24, 1, 238}, {6, 25, 1, 238}, {4, 23, 1, 239}, {5, 26, 1, 239}, {6, 27, 1, 239}, {4, 24, 1, 240}, {5, 27, 1, 240}, {6, 28, 1, 240}, {4, 25, 1, 241}, {5, 28, 1, 241}, {6, 29, 1, 241}, {4, 26, 1, 242}, {5, 30, 1, 242}, {6, 31, 1, 242}, {4, 27, 1, 243}, {5, 31, 1, 243}, {6, 32, 1, 243}, {4, 28, 1, 244}, {5, 32, 1, 244}, {6, 33, 1, 244}, {4, 29, 1, 245}, {5, 33, 1, 245}, {6, 34, 1, 245}, {5, 20, 1, 246}, {7, 21, 1, 246}, {8, 22, 1, 246}, {5, 21, 1, 247}, {7, 23, 1, 247}, {8, 24, 1, 247}, {5, 22, 1, 248}, {7, 24, 1, 248}, {8, 25, 1, 248}, {5, 23, 1, 249}, {7, 26, 1, 249}, {8, 27, 1, 249}, {5, 24, 1, 250}, {7, 27, 1, 250}, {8, 28, 1, 250}, {5, 25, 1, 251}, {7, 28, 1, 251}, {8, 29, 1, 251}, {5, 26, 1, 252}, {7, 30, 1, 252}, {8, 31, 1, 252}, {5, 27, 1, 253}, {7, 31, 1, 253}, {8, 32, 1, 253}, {5, 28, 1, 254}, {7, 32, 1, 254}, {8, 33, 1, 254}, {5, 29, 1, 255}, {7, 33, 1, 255}, {8, 34, 1, 255}, {6, 20, 1, 256}, {8, 21, 1, 256}, {9, 22, 1, 256}, {6, 21, 1, 257}, {8, 23, 1, 257}, {9, 24, 1, 257}, {6, 22, 1, 258}, {8, 24, 1, 258}, {9, 25, 1, 258}, {6, 23, 1, 259}, {8, 26, 1, 259}, {9, 27, 1, 259}, {6, 24, 1, 260}, {8, 27, 1, 260}, {9, 28, 1, 260}, {6, 25, 1, 261}, {8, 28, 1, 261}, {9, 29, 1, 261}, {6, 26, 1, 262}, {8, 30, 1, 262}, {9, 31, 1, 262}, {6, 27, 1, 263}, {8, 31, 1, 263}, {9, 32, 1, 263}, {6, 28, 1, 264}, {8, 32, 1, 264}, {9, 33, 1, 264}, {6, 29, 1, 265}, {8, 33, 1, 265}, {9, 34, 1, 265}, {4, 4, 1, 266}, {5, 5, 2, 266}, {6, 6, 2, 266}, {7, 7, 1, 266}, {8, 8, 2, 266}, {9, 9, 1, 266}, {4, 10, 1, 267}, {5, 11, 2, 267}, {6, 12, 2, 267}, {7, 13, 1, 267}, {8, 14, 2, 267}, {9, 15, 1, 267}, {4, 11, 1, 268}, {5, 13, 2, 268}, {6, 14, 2, 268}, {7, 16, 1, 268}, {8, 17, 2, 268}, {9, 18, 1, 268}, {4, 12, 1, 269}, {5, 14, 2, 269}, {6, 15, 2, 269}, {7, 17, 1, 269}, {8, 18, 2, 269}, {9, 19, 1, 269}, {4, 20, 1, 270}, {5, 21, 2, 270}, {6, 22, 2, 270}, {7, 23, 1, 270}, {8, 24, 2, 270}, {9, 25, 1, 270}, {4, 21, 1, 271}, {5, 23, 2, 271}, {6, 24, 2, 271}, {7, 26, 1, 271}, {8, 27, 2, 271}, {9, 28, 1, 271}, {4, 22, 1, 272}, {5, 24, 2, 272}, {6, 25, 2, 272}, {7, 27, 1, 272}, {8, 28, 2, 272}, {9, 29, 1, 272}, {4, 23, 1, 273}, {5, 26, 2, 273}, {6, 27, 2, 273}, {7, 30, 1, 273}, {8, 31, 2, 273}, {9, 32, 1, 273}, {4, 24, 1, 274}, {5, 27, 2, 274}, {6, 28, 2, 274}, {7, 31, 1, 274}, {8, 32, 2, 274}, {9, 33, 1, 274}, {4, 25, 1, 275}, {5, 28, 2, 275}, {6, 29, 2, 275}, {7, 32, 1, 275}, {8, 33, 2, 275}, {9, 34, 1, 275}, {4, 35, 1, 276}, {5, 36, 2, 276}, {6, 37, 2, 276}, {7, 38, 1, 276}, {8, 39, 2, 276}, {9, 40, 1, 276}, {4, 36, 1, 277}, {5, 38, 2, 277}, {6, 39, 2, 277}, {7, 41, 1, 277}, {8, 42, 2, 277}, {9, 43, 1, 277}, {4, 37, 1, 278}, {5, 39, 2, 278}, {6, 40, 2, 278}, {7, 42, 1, 278}, {8, 43, 2, 278}, {9, 44, 1, 278}, {4, 38, 1, 279}, {5, 41, 2, 279}, {6, 42, 2, 279}, {7, 45, 1, 279}, {8, 46, 2, 279}, {9, 47, 1, 279}, {4, 39, 1, 280}, {5, 42, 2, 280}, {6, 43, 2, 280}, {7, 46, 1, 280}, {8, 47, 2, 280}, {9, 48, 1, 280}, {4, 40, 1, 281}, {5, 43, 2, 281}, {6, 44, 2, 281}, {7, 47, 1, 281}, {8, 48, 2, 281}, {9, 49, 1, 281}, {4, 41, 1, 282}, {5, 45, 2, 282}, {6, 46, 2, 282}, {7, 50, 1, 282}, {8, 51, 2, 282}, {9, 52, 1, 282}, {4, 42, 1, 283}, {5, 46, 2, 283}, {6, 47, 2, 283}, {7, 51, 1, 283}, {8, 52, 2, 283}, {9, 53, 1, 283}, {4, 43, 1, 284}, {5, 47, 2, 284}, {6, 48, 2, 284}, {7, 52, 1, 284}, {8, 53, 2, 284}, {9, 54, 1, 284}, {4, 44, 1, 285}, {5, 48, 2, 285}, {6, 49, 2, 285}, {7, 53, 1, 285}, {8, 54, 2, 285}, {9, 55, 1, 285}, {10, 10, 1, 286}, {11, 11, 1, 286}, {12, 12, 1, 286}, {10, 11, 1, 287}, {11, 13, 1, 287}, {12, 14, 1, 287}, {10, 12, 1, 288}, {11, 14, 1, 288}, {12, 15, 1, 288}, {10, 13, 1, 289}, {11, 16, 1, 289}, {12, 17, 1, 289}, {10, 14, 1, 290}, {11, 17, 1, 290}, {12, 18, 1, 290}, {10, 15, 1, 291}, {11, 18, 1, 291}, {12, 19, 1, 291}, {11, 11, 1, 292}, {13, 13, 1, 292}, {14, 14, 1, 292}, {11, 12, 1, 293}, {13, 14, 1, 293}, {14, 15, 1, 293}, {11, 13, 1, 294}, {13, 16, 1, 294}, {14, 17, 1, 294}, {11, 14, 1, 295}, {13, 17, 1, 295}, {14, 18, 1, 295}, {11, 15, 1, 296}, {13, 18, 1, 296}, {14, 19, 1, 296}, {12, 12, 1, 297}, {14, 14, 1, 297}, {15, 15, 1, 297}, {12, 13, 1, 298}, {14, 16, 1, 298}, {15, 17, 1, 298}, {12, 14, 1, 299}, {14, 17, 1, 299}, {15, 18, 1, 299}, {12, 15, 1, 300}, {14, 18, 1, 300}, {15, 19, 1, 300}, {13, 13, 1, 301}, {16, 16, 1, 301}, {17, 17, 1, 301}, {13, 14, 1, 302}, {16, 17, 1, 302}, {17, 18, 1, 302}, {13, 15, 1, 303}, {16, 18, 1, 303}, {17, 19, 1, 303}, {14, 14, 1, 304}, {17, 17, 1, 304}, {18, 18, 1, 304}, {14, 15, 1, 305}, {17, 18, 1, 305}, {18, 19, 1, 305}, {15, 15, 1, 306}, {18, 18, 1, 306}, {19, 19, 1, 306}, {10, 10, 1, 307}, {11, 11, 2, 307}, {12, 12, 2, 307}, {13, 13, 1, 307}, {14, 14, 2, 307}, {15, 15, 1, 307}, {10, 11, 1, 308}, {11, 13, 2, 308}, {12, 14, 2, 308}, {13, 16, 1, 308}, {14, 17, 2, 308}, {15, 18, 1, 308}, {10, 12, 1, 309}, {11, 14, 2, 309}, {12, 15, 2, 309}, {13, 17, 1, 309}, {14, 18, 2, 309}, {15, 19, 1, 309}, {11, 11, 1, 310}, {13, 13, 2, 310}, {14, 14, 2, 310}, {16, 16, 1, 310}, {17, 17, 2, 310}, {18, 18, 1, 310}, {11, 12, 1, 311}, {13, 14, 2, 311}, {14, 15, 2, 311}, {16, 17, 1, 311}, {17, 18, 2, 311}, {18, 19, 1, 311}, {12, 12, 1, 312}, {14, 14, 2, 312}, {15, 15, 2, 312}, {17, 17, 1, 312}, {18, 18, 2, 312}, {19, 19, 1, 312}, {10, 20, 1, 313}, {11, 21, 2, 313}, {12, 22, 2, 313}, {13, 23, 1, 313}, {14, 24, 2, 313}, {15, 25, 1, 313}, {10, 21, 1, 314}, {11, 23, 2, 314}, {12, 24, 2, 314}, {13, 26, 1, 314}, {14, 27, 2, 314}, {15, 28, 1, 314}, {10, 22, 1, 315}, {11, 24, 2, 315}, {12, 25, 2, 315}, {13, 27, 1, 315}, {14, 28, 2, 315}, {15, 29, 1, 315}, {10, 23, 1, 316}, {11, 26, 2, 316}, {12, 27, 2, 316}, {13, 30, 1, 316}, {14, 31, 2, 316}, {15, 32, 1, 316}, {10, 24, 1, 317}, {11, 27, 2, 317}, {12, 28, 2, 317}, {13, 31, 1, 317}, {14, 32, 2, 317}, {15, 33, 1, 317}, {10, 25, 1, 318}, {11, 28, 2, 318}, {12, 29, 2, 318}, {13, 32, 1, 318}, {14, 33, 2, 318}, {15, 34, 1, 318}, {11, 20, 1, 319}, {13, 21, 2, 319}, {14, 22, 2, 319}, {16, 23, 1, 319}, {17, 24, 2, 319}, {18, 25, 1, 319}, {11, 21, 1, 320}, {13, 23, 2, 320}, {14, 24, 2, 320}, {16, 26, 1, 320}, {17, 27, 2, 320}, {18, 28, 1, 320}, {11, 22, 1, 321}, {13, 24, 2, 321}, {14, 25, 2, 321}, {16, 27, 1, 321}, {17, 28, 2, 321}, {18, 29, 1, 321}, {11, 23, 1, 322}, {13, 26, 2, 322}, {14, 27, 2, 322}, {16, 30, 1, 322}, {17, 31, 2, 322}, {18, 32, 1, 322}, {11, 24, 1, 323}, {13, 27, 2, 323}, {14, 28, 2, 323}, {16, 31, 1, 323}, {17, 32, 2, 323}, {18, 33, 1, 323}, {11, 25, 1, 324}, {13, 28, 2, 324}, {14, 29, 2, 324}, {16, 32, 1, 324}, {17, 33, 2, 324}, {18, 34, 1, 324}, {12, 20, 1, 325}, {14, 21, 2, 325}, {15, 22, 2, 325}, {17, 23, 1, 325}, {18, 24, 2, 325}, {19, 25, 1, 325}, {12, 21, 1, 326}, {14, 23, 2, 326}, {15, 24, 2, 326}, {17, 26, 1, 326}, {18, 27, 2, 326}, {19, 28, 1, 326}, {12, 22, 1, 327}, {14, 24, 2, 327}, {15, 25, 2, 327}, {17, 27, 1, 327}, {18, 28, 2, 327}, {19, 29, 1, 327}, {12, 23, 1, 328}, {14, 26, 2, 328}, {15, 27, 2, 328}, {17, 30, 1, 328}, {18, 31, 2, 328}, {19, 32, 1, 328}, {12, 24, 1, 329}, {14, 27, 2, 329}, {15, 28, 2, 329}, {17, 31, 1, 329}, {18, 32, 2, 329}, {19, 33, 1, 329}, {12, 25, 1, 330}, {14, 28, 2, 330}, {15, 29, 2, 330}, {17, 32, 1, 330}, {18, 33, 2, 330}, {19, 34, 1, 330}, {10, 10, 1, 331}, {11, 11, 3, 331}, {12, 12, 3, 331}, {13, 13, 3, 331}, {14, 14, 6, 331}, {15, 15, 3, 331}, {16, 16, 1, 331}, {17, 17, 3, 331}, {18, 18, 3, 331}, {19, 19, 1, 331}, {10, 20, 1, 332}, {11, 21, 3, 332}, {12, 22, 3, 332}, {13, 23, 3, 332}, {14, 24, 6, 332}, {15, 25, 3, 332}, {16, 26, 1, 332}, {17, 27, 3, 332}, {18, 28, 3, 332}, {19, 29, 1, 332}, {10, 21, 1, 333}, {11, 23, 3, 333}, {12, 24, 3, 333}, {13, 26, 3, 333}, {14, 27, 6, 333}, {15, 28, 3, 333}, {16, 30, 1, 333}, {17, 31, 3, 333}, {18, 32, 3, 333}, {19, 33, 1, 333}, {10, 22, 1, 334}, {11, 24, 3, 334}, {12, 25, 3, 334}, {13, 27, 3, 334}, {14, 28, 6, 334}, {15, 29, 3, 334}, {16, 31, 1, 334}, {17, 32, 3, 334}, {18, 33, 3, 334}, {19, 34, 1, 334}, {10, 35, 1, 335}, {11, 36, 3, 335}, {12, 37, 3, 335}, {13, 38, 3, 335}, {14, 39, 6, 335}, {15, 40, 3, 335}, {16, 41, 1, 335}, {17, 42, 3, 335}, {18, 43, 3, 335}, {19, 44, 1, 335}, {10, 36, 1, 336}, {11, 38, 3, 336}, {12, 39, 3, 336}, {13, 41, 3, 336}, {14, 42, 6, 336}, {15, 43, 3, 336}, {16, 45, 1, 336}, {17, 46, 3, 336}, {18, 47, 3, 336}, {19, 48, 1, 336}, {10, 37, 1, 337}, {11, 39, 3, 337}, {12, 40, 3, 337}, {13, 42, 3, 337}, {14, 43, 6, 337}, {15, 44, 3, 337}, {16, 46, 1, 337}, {17, 47, 3, 337}, {18, 48, 3, 337}, {19, 49, 1, 337}, {10, 38, 1, 338}, {11, 41, 3, 338}, {12, 42, 3, 338}, {13, 45, 3, 338}, {14, 46, 6, 338}, {15, 47, 3, 338}, {16, 50, 1, 338}, {17, 51, 3, 338}, {18, 52, 3, 338}, {19, 53, 1, 338}, {10, 39, 1, 339}, {11, 42, 3, 339}, {12, 43, 3, 339}, {13, 46, 3, 339}, {14, 47, 6, 339}, {15, 48, 3, 339}, {16, 51, 1, 339}, {17, 52, 3, 339}, {18, 53, 3, 339}, {19, 54, 1, 339}, {10, 40, 1, 340}, {11, 43, 3, 340}, {12, 44, 3, 340}, {13, 47, 3, 340}, {14, 48, 6, 340}, {15, 49, 3, 340}, {16, 52, 1, 340}, {17, 53, 3, 340}, {18, 54, 3, 340}, {19, 55, 1, 340}, {10, 56, 1, 341}, {11, 57, 3, 341}, {12, 58, 3, 341}, {13, 59, 3, 341}, {14, 60, 6, 341}, {15, 61, 3, 341}, {16, 62, 1, 341}, {17, 63, 3, 341}, {18, 64, 3, 341}, {19, 65, 1, 341}, {10, 57, 1, 342}, {11, 59, 3, 342}, {12, 60, 3, 342}, {13, 62, 3, 342}, {14, 63, 6, 342}, {15, 64, 3, 342}, {16, 66, 1, 342}, {17, 67, 3, 342}, {18, 68, 3, 342}, {19, 69, 1, 342}, {10, 58, 1, 343}, {11, 60, 3, 343}, {12, 61, 3, 343}, {13, 63, 3, 343}, {14, 64, 6, 343}, {15, 65, 3, 343}, {16, 67, 1, 343}, {17, 68, 3, 343}, {18, 69, 3, 343}, {19, 70, 1, 343}, {10, 59, 1, 344}, {11, 62, 3, 344}, {12, 63, 3, 344}, {13, 66, 3, 344}, {14, 67, 6, 344}, {15, 68, 3, 344}, {16, 71, 1, 344}, {17, 72, 3, 344}, {18, 73, 3, 344}, {19, 74, 1, 344}, {10, 60, 1, 345}, {11, 63, 3, 345}, {12, 64, 3, 345}, {13, 67, 3, 345}, {14, 68, 6, 345}, {15, 69, 3, 345}, {16, 72, 1, 345}, {17, 73, 3, 345}, {18, 74, 3, 345}, {19, 75, 1, 345}, {10, 61, 1, 346}, {11, 64, 3, 346}, {12, 65, 3, 346}, {13, 68, 3, 346}, {14, 69, 6, 346}, {15, 70, 3, 346}, {16, 73, 1, 346}, {17, 74, 3, 346}, {18, 75, 3, 346}, {19, 76, 1, 346}, {10, 62, 1, 347}, {11, 66, 3, 347}, {12, 67, 3, 347}, {13, 71, 3, 347}, {14, 72, 6, 347}, {15, 73, 3, 347}, {16, 77, 1, 347}, {17, 78, 3, 347}, {18, 79, 3, 347}, {19, 80, 1, 347}, {10, 63, 1, 348}, {11, 67, 3, 348}, {12, 68, 3, 348}, {13, 72, 3, 348}, {14, 73, 6, 348}, {15, 74, 3, 348}, {16, 78, 1, 348}, {17, 79, 3, 348}, {18, 80, 3, 348}, {19, 81, 1, 348}, {10, 64, 1, 349}, {11, 68, 3, 349}, {12, 69, 3, 349}, {13, 73, 3, 349}, {14, 74, 6, 349}, {15, 75, 3, 349}, {16, 79, 1, 349}, {17, 80, 3, 349}, {18, 81, 3, 349}, {19, 82, 1, 349}, {10, 65, 1, 350}, {11, 69, 3, 350}, {12, 70, 3, 350}, {13, 74, 3, 350}, {14, 75, 6, 350}, {15, 76, 3, 350}, {16, 80, 1, 350}, {17, 81, 3, 350}, {18, 82, 3, 350}, {19, 83, 1, 350}, {20, 20, 1, 351}, {21, 21, 2, 351}, {22, 22, 2, 351}, {23, 23, 1, 351}, {24, 24, 2, 351}, {25, 25, 1, 351}, {20, 21, 1, 352}, {21, 23, 2, 352}, {22, 24, 2, 352}, {23, 26, 1, 352}, {24, 27, 2, 352}, {25, 28, 1, 352}, {20, 22, 1, 353}, {21, 24, 2, 353}, {22, 25, 2, 353}, {23, 27, 1, 353}, {24, 28, 2, 353}, {25, 29, 1, 353}, {20, 23, 1, 354}, {21, 26, 2, 354}, {22, 27, 2, 354}, {23, 30, 1, 354}, {24, 31, 2, 354}, {25, 32, 1, 354}, {20, 24, 1, 355}, {21, 27, 2, 355}, {22, 28, 2, 355}, {23, 31, 1, 355}, {24, 32, 2, 355}, {25, 33, 1, 355}, {20, 25, 1, 356}, {21, 28, 2, 356}, {22, 29, 2, 356}, {23, 32, 1, 356}, {24, 33, 2, 356}, {25, 34, 1, 356}, {21, 21, 1, 357}, {23, 23, 2, 357}, {24, 24, 2, 357}, {26, 26, 1, 357}, {27, 27, 2, 357}, {28, 28, 1, 357}, {21, 22, 1, 358}, {23, 24, 2, 358}, {24, 25, 2, 358}, {26, 27, 1, 358}, {27, 28, 2, 358}, {28, 29, 1, 358}, {21, 23, 1, 359}, {23, 26, 2, 359}, {24, 27, 2, 359}, {26, 30, 1, 359}, {27, 31, 2, 359}, {28, 32, 1, 359}, {21, 24, 1, 360}, {23, 27, 2, 360}, {24, 28, 2, 360}, {26, 31, 1, 360}, {27, 32, 2, 360}, {28, 33, 1, 360}, {21, 25, 1, 361}, {23, 28, 2, 361}, {24, 29, 2, 361}, {26, 32, 1, 361}, {27, 33, 2, 361}, {28, 34, 1, 361}, {22, 22, 1, 362}, {24, 24, 2, 362}, {25, 25, 2, 362}, {27, 27, 1, 362}, {28, 28, 2, 362}, {29, 29, 1, 362}, {22, 23, 1, 363}, {24, 26, 2, 363}, {25, 27, 2, 363}, {27, 30, 1, 363}, {28, 31, 2, 363}, {29, 32, 1, 363}, {22, 24, 1, 364}, {24, 27, 2, 364}, {25, 28, 2, 364}, {27, 31, 1, 364}, {28, 32, 2, 364}, {29, 33, 1, 364}, {22, 25, 1, 365}, {24, 28, 2, 365}, {25, 29, 2, 365}, {27, 32, 1, 365}, {28, 33, 2, 365}, {29, 34, 1, 365}, {23, 23, 1, 366}, {26, 26, 2, 366}, {27, 27, 2, 366}, {30, 30, 1, 366}, {31, 31, 2, 366}, {32, 32, 1, 366}, {23, 24, 1, 367}, {26, 27, 2, 367}, {27, 28, 2, 367}, {30, 31, 1, 367}, {31, 32, 2, 367}, {32, 33, 1, 367}, {23, 25, 1, 368}, {26, 28, 2, 368}, {27, 29, 2, 368}, {30, 32, 1, 368}, {31, 33, 2, 368}, {32, 34, 1, 368}, {24, 24, 1, 369}, {27, 27, 2, 369}, {28, 28, 2, 369}, {31, 31, 1, 369}, {32, 32, 2, 369}, {33, 33, 1, 369}, {24, 25, 1, 370}, {27, 28, 2, 370}, {28, 29, 2, 370}, {31, 32, 1, 370}, {32, 33, 2, 370}, {33, 34, 1, 370}, {25, 25, 1, 371}, {28, 28, 2, 371}, {29, 29, 2, 371}, {32, 32, 1, 371}, {33, 33, 2, 371}, {34, 34, 1, 371}, {20, 20, 1, 372}, {21, 21, 3, 372}, {22, 22, 3, 372}, {23, 23, 3, 372}, {24, 24, 6, 372}, {25, 25, 3, 372}, {26, 26, 1, 372}, {27, 27, 3, 372}, {28, 28, 3, 372}, {29, 29, 1, 372}, {20, 21, 1, 373}, {21, 23, 3, 373}, {22, 24, 3, 373}, {23, 26, 3, 373}, {24, 27, 6, 373}, {25, 28, 3, 373}, {26, 30, 1, 373}, {27, 31, 3, 373}, {28, 32, 3, 373}, {29, 33, 1, 373}, {20, 22, 1, 374}, {21, 24, 3, 374}, {22, 25, 3, 374}, {23, 27, 3, 374}, {24, 28, 6, 374}, {25, 29, 3, 374}, {26, 31, 1, 374}, {27, 32, 3, 374}, {28, 33, 3, 374}, {29, 34, 1, 374}, {21, 21, 1, 375}, {23, 23, 3, 375}, {24, 24, 3, 375}, {26, 26, 3, 375}, {27, 27, 6, 375}, {28, 28, 3, 375}, {30, 30, 1, 375}, {31, 31, 3, 375}, {32, 32, 3, 375}, {33, 33, 1, 375}, {21, 22, 1, 376}, {23, 24, 3, 376}, {24, 25, 3, 376}, {26, 27, 3, 376}, {27, 28, 6, 376}, {28, 29, 3, 376}, {30, 31, 1, 376}, {31, 32, 3, 376}, {32, 33, 3, 376}, {33, 34, 1, 376}, {22, 22, 1, 377}, {24, 24, 3, 377}, {25, 25, 3, 377}, {27, 27, 3, 377}, {28, 28, 6, 377}, {29, 29, 3, 377}, {31, 31, 1, 377}, {32, 32, 3, 377}, {33, 33, 3, 377}, {34, 34, 1, 377}, {20, 35, 1, 378}, {21, 36, 3, 378}, {22, 37, 3, 378}, {23, 38, 3, 378}, {24, 39, 6, 378}, {25, 40, 3, 378}, {26, 41, 1, 378}, {27, 42, 3, 378}, {28, 43, 3, 378}, {29, 44, 1, 378}, {20, 36, 1, 379}, {21, 38, 3, 379}, {22, 39, 3, 379}, {23, 41, 3, 379}, {24, 42, 6, 379}, {25, 43, 3, 379}, {26, 45, 1, 379}, {27, 46, 3, 379}, {28, 47, 3, 379}, {29, 48, 1, 379}, {20, 37, 1, 380}, {21, 39, 3, 380}, {22, 40, 3, 380}, {23, 42, 3, 380}, {24, 43, 6, 380}, {25, 44, 3, 380}, {26, 46, 1, 380}, {27, 47, 3, 380}, {28, 48, 3, 380}, {29, 49, 1, 380}, {20, 38, 1, 381}, {21, 41, 3, 381}, {22, 42, 3, 381}, {23, 45, 3, 381}, {24, 46, 6, 381}, {25, 47, 3, 381}, {26, 50, 1, 381}, {27, 51, 3, 381}, {28, 52, 3, 381}, {29, 53, 1, 381}, {20, 39, 1, 382}, {21, 42, 3, 382}, {22, 43, 3, 382}, {23, 46, 3, 382}, {24, 47, 6, 382}, {25, 48, 3, 382}, {26, 51, 1, 382}, {27, 52, 3, 382}, {28, 53, 3, 382}, {29, 54, 1, 382}, {20, 40, 1, 383}, {21, 43, 3, 383}, {22, 44, 3, 383}, {23, 47, 3, 383}, {24, 48, 6, 383}, {25, 49, 3, 383}, {26, 52, 1, 383}, {27, 53, 3, 383}, {28, 54, 3, 383}, {29, 55, 1, 383}, {21, 35, 1, 384}, {23, 36, 3, 384}, {24, 37, 3, 384}, {26, 38, 3, 384}, {27, 39, 6, 384}, {28, 40, 3, 384}, {30, 41, 1, 384}, {31, 42, 3, 384}, {32, 43, 3, 384}, {33, 44, 1, 384}, {21, 36, 1, 385}, {23, 38, 3, 385}, {24, 39, 3, 385}, {26, 41, 3, 385}, {27, 42, 6, 385}, {28, 43, 3, 385}, {30, 45, 1, 385}, {31, 46, 3, 385}, {32, 47, 3, 385}, {33, 48, 1, 385}, {21, 37, 1, 386}, {23, 39, 3, 386}, {24, 40, 3, 386}, {26, 42, 3, 386}, {27, 43, 6, 386}, {28, 44, 3, 386}, {30, 46, 1, 386}, {31, 47, 3, 386}, {32, 48, 3, 386}, {33, 49, 1, 386}, {21, 38, 1, 387}, {23, 41, 3, 387}, {24, 42, 3, 387}, {26, 45, 3, 387}, {27, 46, 6, 387}, {28, 47, 3, 387}, {30, 50, 1, 387}, {31, 51, 3, 387}, {32, 52, 3, 387}, {33, 53, 1, 387}, {21, 39, 1, 388}, {23, 42, 3, 388}, {24, 43, 3, 388}, {26, 46, 3, 388}, {27, 47, 6, 388}, {28, 48, 3, 388}, {30, 51, 1, 388}, {31, 52, 3, 388}, {32, 53, 3, 388}, {33, 54, 1, 388}, {21, 40, 1, 389}, {23, 43, 3, 389}, {24, 44, 3, 389}, {26, 47, 3, 389}, {27, 48, 6, 389}, {28, 49, 3, 389}, {30, 52, 1, 389}, {31, 53, 3, 389}, {32, 54, 3, 389}, {33, 55, 1, 389}, {22, 35, 1, 390}, {24, 36, 3, 390}, {25, 37, 3, 390}, {27, 38, 3, 390}, {28, 39, 6, 390}, {29, 40, 3, 390}, {31, 41, 1, 390}, {32, 42, 3, 390}, {33, 43, 3, 390}, {34, 44, 1, 390}, {22, 36, 1, 391}, {24, 38, 3, 391}, {25, 39, 3, 391}, {27, 41, 3, 391}, {28, 42, 6, 391}, {29, 43, 3, 391}, {31, 45, 1, 391}, {32, 46, 3, 391}, {33, 47, 3, 391}, {34, 48, 1, 391}, {22, 37, 1, 392}, {24, 39, 3, 392}, {25, 40, 3, 392}, {27, 42, 3, 392}, {28, 43, 6, 392}, {29, 44, 3, 392}, {31, 46, 1, 392}, {32, 47, 3, 392}, {33, 48, 3, 392}, {34, 49, 1, 392}, {22, 38, 1, 393}, {24, 41, 3, 393}, {25, 42, 3, 393}, {27, 45, 3, 393}, {28, 46, 6, 393}, {29, 47, 3, 393}, {31, 50, 1, 393}, {32, 51, 3, 393}, {33, 52, 3, 393}, {34, 53, 1, 393}, {22, 39, 1, 394}, {24, 42, 3, 394}, {25, 43, 3, 394}, {27, 46, 3, 394}, {28, 47, 6, 394}, {29, 48, 3, 394}, {31, 51, 1, 394}, {32, 52, 3, 394}, {33, 53, 3, 394}, {34, 54, 1, 394}, {22, 40, 1, 395}, {24, 43, 3, 395}, {25, 44, 3, 395}, {27, 47, 3, 395}, {28, 48, 6, 395}, {29, 49, 3, 395}, {31, 52, 1, 395}, {32, 53, 3, 395}, {33, 54, 3, 395}, {34, 55, 1, 395}, {20, 20, 1, 396}, {21, 21, 4, 396}, {22, 22, 4, 396}, {23, 23, 6, 396}, {24, 24, 12, 396}, {25, 25, 6, 396}, {26, 26, 4, 396}, {27, 27, 12, 396}, {28, 28, 12, 396}, {29, 29, 4, 396}, {30, 30, 1, 396}, {31, 31, 4, 396}, {32, 32, 6, 396}, {33, 33, 4, 396}, {34, 34, 1, 396}, {20, 35, 1, 397}, {21, 36, 4, 397}, {22, 37, 4, 397}, {23, 38, 6, 397}, {24, 39, 12, 397}, {25, 40, 6, 397}, {26, 41, 4, 397}, {27, 42, 12, 397}, {28, 43, 12, 397}, {29, 44, 4, 397}, {30, 45, 1, 397}, {31, 46, 4, 397}, {32, 47, 6, 397}, {33, 48, 4, 397}, {34, 49, 1, 397}, {20, 36, 1, 398}, {21, 38, 4, 398}, {22, 39, 4, 398}, {23, 41, 6, 398}, {24, 42, 12, 398}, {25, 43, 6, 398}, {26, 45, 4, 398}, {27, 46, 12, 398}, {28, 47, 12, 398}, {29, 48, 4, 398}, {30, 50, 1, 398}, {31, 51, 4, 398}, {32, 52, 6, 398}, {33, 53, 4, 398}, {34, 54, 1, 398}, {20, 37, 1, 399}, {21, 39, 4, 399}, {22, 40, 4, 399}, {23, 42, 6, 399}, {24, 43, 12, 399}, {25, 44, 6, 399}, {26, 46, 4, 399}, {27, 47, 12, 399}, {28, 48, 12, 399}, {29, 49, 4, 399}, {30, 51, 1, 399}, {31, 52, 4, 399}, {32, 53, 6, 399}, {33, 54, 4, 399}, {34, 55, 1, 399}, {20, 56, 1, 400}, {21, 57, 4, 400}, {22, 58, 4, 400}, {23, 59, 6, 400}, {24, 60, 12, 400}, {25, 61, 6, 400}, {26, 62, 4, 400}, {27, 63, 12, 400}, {28, 64, 12, 400}, {29, 65, 4, 400}, {30, 66, 1, 400}, {31, 67, 4, 400}, {32, 68, 6, 400}, {33, 69, 4, 400}, {34, 70, 1, 400}, {20, 57, 1, 401}, {21, 59, 4, 401}, {22, 60, 4, 401}, {23, 62, 6, 401}, {24, 63, 12, 401}, {25, 64, 6, 401}, {26, 66, 4, 401}, {27, 67, 12, 401}, {28, 68, 12, 401}, {29, 69, 4, 401}, {30, 71, 1, 401}, {31, 72, 4, 401}, {32, 73, 6, 401}, {33, 74, 4, 401}, {34, 75, 1, 401}, {20, 58, 1, 402}, {21, 60, 4, 402}, {22, 61, 4, 402}, {23, 63, 6, 402}, {24, 64, 12, 402}, {25, 65, 6, 402}, {26, 67, 4, 402}, {27, 68, 12, 402}, {28, 69, 12, 402}, {29, 70, 4, 402}, {30, 72, 1, 402}, {31, 73, 4, 402}, {32, 74, 6, 402}, {33, 75, 4, 402}, {34, 76, 1, 402}, {20, 59, 1, 403}, {21, 62, 4, 403}, {22, 63, 4, 403}, {23, 66, 6, 403}, {24, 67, 12, 403}, {25, 68, 6, 403}, {26, 71, 4, 403}, {27, 72, 12, 403}, {28, 73, 12, 403}, {29, 74, 4, 403}, {30, 77, 1, 403}, {31, 78, 4, 403}, {32, 79, 6, 403}, {33, 80, 4, 403}, {34, 81, 1, 403}, {20, 60, 1, 404}, {21, 63, 4, 404}, {22, 64, 4, 404}, {23, 67, 6, 404}, {24, 68, 12, 404}, {25, 69, 6, 404}, {26, 72, 4, 404}, {27, 73, 12, 404}, {28, 74, 12, 404}, {29, 75, 4, 404}, {30, 78, 1, 404}, {31, 79, 4, 404}, {32, 80, 6, 404}, {33, 81, 4, 404}, {34, 82, 1, 404}, {20, 61, 1, 405}, {21, 64, 4, 405}, {22, 65, 4, 405}, {23, 68, 6, 405}, {24, 69, 12, 405}, {25, 70, 6, 405}, {26, 73, 4, 405}, {27, 74, 12, 405}, {28, 75, 12, 405}, {29, 76, 4, 405}, {30, 79, 1, 405}, {31, 80, 4, 405}, {32, 81, 6, 405}, {33, 82, 4, 405}, {34, 83, 1, 405}, {35, 35, 1, 406}, {36, 36, 4, 406}, {37, 37, 4, 406}, {38, 38, 6, 406}, {39, 39, 12, 406}, {40, 40, 6, 406}, {41, 41, 4, 406}, {42, 42, 12, 406}, {43, 43, 12, 406}, {44, 44, 4, 406}, {45, 45, 1, 406}, {46, 46, 4, 406}, {47, 47, 6, 406}, {48, 48, 4, 406}, {49, 49, 1, 406}, {35, 36, 1, 407}, {36, 38, 4, 407}, {37, 39, 4, 407}, {38, 41, 6, 407}, {39, 42, 12, 407}, {40, 43, 6, 407}, {41, 45, 4, 407}, {42, 46, 12, 407}, {43, 47, 12, 407}, {44, 48, 4, 407}, {45, 50, 1, 407}, {46, 51, 4, 407}, {47, 52, 6, 407}, {48, 53, 4, 407}, {49, 54, 1, 407}, {35, 37, 1, 408}, {36, 39, 4, 408}, {37, 40, 4, 408}, {38, 42, 6, 408}, {39, 43, 12, 408}, {40, 44, 6, 408}, {41, 46, 4, 408}, {42, 47, 12, 408}, {43, 48, 12, 408}, {44, 49, 4, 408}, {45, 51, 1, 408}, {46, 52, 4, 408}, {47, 53, 6, 408}, {48, 54, 4, 408}, {49, 55, 1, 408}, {36, 36, 1, 409}, {38, 38, 4, 409}, {39, 39, 4, 409}, {41, 41, 6, 409}, {42, 42, 12, 409}, {43, 43, 6, 409}, {45, 45, 4, 409}, {46, 46, 12, 409}, {47, 47, 12, 409}, {48, 48, 4, 409}, {50, 50, 1, 409}, {51, 51, 4, 409}, {52, 52, 6, 409}, {53, 53, 4, 409}, {54, 54, 1, 409}, {36, 37, 1, 410}, {38, 39, 4, 410}, {39, 40, 4, 410}, {41, 42, 6, 410}, {42, 43, 12, 410}, {43, 44, 6, 410}, {45, 46, 4, 410}, {46, 47, 12, 410}, {47, 48, 12, 410}, {48, 49, 4, 410}, {50, 51, 1, 410}, {51, 52, 4, 410}, {52, 53, 6, 410}, {53, 54, 4, 410}, {54, 55, 1, 410}, {37, 37, 1, 411}, {39, 39, 4, 411}, {40, 40, 4, 411}, {42, 42, 6, 411}, {43, 43, 12, 411}, {44, 44, 6, 411}, {46, 46, 4, 411}, {47, 47, 12, 411}, {48, 48, 12, 411}, {49, 49, 4, 411}, {51, 51, 1, 411}, {52, 52, 4, 411}, {53, 53, 6, 411}, {54, 54, 4, 411}, {55, 55, 1, 411}, {35, 35, 1, 412}, {36, 36, 5, 412}, {37, 37, 5, 412}, {38, 38, 10, 412}, {39, 39, 20, 412}, {40, 40, 10, 412}, {41, 41, 10, 412}, {42, 42, 30, 412}, {43, 43, 30, 412}, {44, 44, 10, 412}, {45, 45, 5, 412}, {46, 46, 20, 412}, {47, 47, 30, 412}, {48, 48, 20, 412}, {49, 49, 5, 412}, {50, 50, 1, 412}, {51, 51, 5, 412}, {52, 52, 10, 412}, {53, 53, 10, 412}, {54, 54, 5, 412}, {55, 55, 1, 412}, {35, 56, 1, 413}, {36, 57, 5, 413}, {37, 58, 5, 413}, {38, 59, 10, 413}, {39, 60, 20, 413}, {40, 61, 10, 413}, {41, 62, 10, 413}, {42, 63, 30, 413}, {43, 64, 30, 413}, {44, 65, 10, 413}, {45, 66, 5, 413}, {46, 67, 20, 413}, {47, 68, 30, 413}, {48, 69, 20, 413}, {49, 70, 5, 413}, {50, 71, 1, 413}, {51, 72, 5, 413}, {52, 73, 10, 413}, {53, 74, 10, 413}, {54, 75, 5, 413}, {55, 76, 1, 413}, {35, 57, 1, 414}, {36, 59, 5, 414}, {37, 60, 5, 414}, {38, 62, 10, 414}, {39, 63, 20, 414}, {40, 64, 10, 414}, {41, 66, 10, 414}, {42, 67, 30, 414}, {43, 68, 30, 414}, {44, 69, 10, 414}, {45, 71, 5, 414}, {46, 72, 20, 414}, {47, 73, 30, 414}, {48, 74, 20, 414}, {49, 75, 5, 414}, {50, 77, 1, 414}, {51, 78, 5, 414}, {52, 79, 10, 414}, {53, 80, 10, 414}, {54, 81, 5, 414}, {55, 82, 1, 414}, {35, 58, 1, 415}, {36, 60, 5, 415}, {37, 61, 5, 415}, {38, 63, 10, 415}, {39, 64, 20, 415}, {40, 65, 10, 415}, {41, 67, 10, 415}, {42, 68, 30, 415}, {43, 69, 30, 415}, {44, 70, 10, 415}, {45, 72, 5, 415}, {46, 73, 20, 415}, {47, 74, 30, 415}, {48, 75, 20, 415}, {49, 76, 5, 415}, {50, 78, 1, 415}, {51, 79, 5, 415}, {52, 80, 10, 415}, {53, 81, 10, 415}, {54, 82, 5, 415}, {55, 83, 1, 415}, {56, 56, 1, 416}, {57, 57, 6, 416}, {58, 58, 6, 416}, {59, 59, 15, 416}, {60, 60, 30, 416}, {61, 61, 15, 416}, {62, 62, 20, 416}, {63, 63, 60, 416}, {64, 64, 60, 416}, {65, 65, 20, 416}, {66, 66, 15, 416}, {67, 67, 60, 416}, {68, 68, 90, 416}, {69, 69, 60, 416}, {70, 70, 15, 416}, {71, 71, 6, 416}, {72, 72, 30, 416}, {73, 73, 60, 416}, {74, 74, 60, 416}, {75, 75, 30, 416}, {76, 76, 6, 416}, {77, 77, 1, 416}, {78, 78, 6, 416}, {79, 79, 15, 416}, {80, 80, 20, 416}, {81, 81, 15, 416}, {82, 82, 6, 416}, {83, 83, 1, 416}, {84, 84, 1, 417}, {85, 85, 7, 417}, {86, 86, 7, 417}, {87, 87, 21, 417}, {88, 88, 42, 417}, {89, 89, 21, 417}, {90, 90, 35, 417}, {91, 91, 105, 417}, {92, 92, 105, 417}, {93, 93, 35, 417}, {94, 94, 35, 417}, {95, 95, 140, 417}, {96, 96, 210, 417}, {97, 97, 140, 417}, {98, 98, 35, 417}, {99, 99, 21, 417}, {100, 100, 105, 417}, {101, 101, 210, 417}, {102, 102, 210, 417}, {103, 103, 105, 417}, {104, 104, 21, 417}, {105, 105, 7, 417}, {106, 106, 42, 417}, {107, 107, 105, 417}, {108, 108, 140, 417}, {109, 109, 105, 417}, {110, 110, 42, 417}, {111, 111, 7, 417}, {112, 112, 1, 417}, {113, 113, 7, 417}, {114, 114, 21, 417}, {115, 115, 35, 417}, {116, 116, 35, 417}, {117, 117, 21, 417}, {118, 118, 7, 417}, {119, 119, 1, 417}, {0, 120, 1, 418}, {1, 121, 1, 419}, {2, 122, 1, 419}, {3, 123, 1, 419}, {1, 124, 1, 420}, {2, 125, 1, 420}, {3, 126, 1, 420}, {1, 125, 1, 421}, {2, 127, 1, 421}, {3, 128, 1, 421}, {1, 126, 1, 422}, {2, 128, 1, 422}, {3, 129, 1, 422}, {1, 130, 1, 423}, {2, 131, 1, 423}, {3, 132, 1, 423}, {1, 131, 1, 424}, {2, 133, 1, 424}, {3, 134, 1, 424}, {1, 132, 1, 425}, {2, 134, 1, 425}, {3, 135, 1, 425}, {1, 133, 1, 426}, {2, 136, 1, 426}, {3, 137, 1, 426}, {1, 134, 1, 427}, {2, 137, 1, 427}, {3, 138, 1, 427}, {1, 135, 1, 428}, {2, 138, 1, 428}, {3, 139, 1, 428}, {4, 121, 1, 429}, {5, 122, 1, 429}, {6, 123, 1, 429}, {5, 121, 1, 430}, {7, 122, 1, 430}, {8, 123, 1, 430}, {6, 121, 1, 431}, {8, 122, 1, 431}, {9, 123, 1, 431}, {4, 124, 1, 432}, {5, 125, 1, 432}, {6, 126, 1, 432}, {4, 125, 1, 433}, {5, 127, 1, 433}, {6, 128, 1, 433}, {4, 126, 1, 434}, {5, 128, 1, 434}, {6, 129, 1, 434}, {5, 124, 1, 435}, {7, 125, 1, 435}, {8, 126, 1, 435}, {5, 125, 1, 436}, {7, 127, 1, 436}, {8, 128, 1, 436}, {5, 126, 1, 437}, {7, 128, 1, 437}, {8, 129, 1, 437}, {6, 124, 1, 438}, {8, 125, 1, 438}, {9, 126, 1, 438}, {6, 125, 1, 439}, {8, 127, 1, 439}, {9, 128, 1, 439}, {6, 126, 1, 440}, {8, 128, 1, 440}, {9, 129, 1, 440}, {4, 124, 1, 441}, {5, 125, 2, 441}, {6, 126, 2, 441}, {7, 127, 1, 441}, {8, 128, 2, 441}, {9, 129, 1, 441}, {4, 130, 1, 442}, {5, 131, 2, 442}, {6, 132, 2, 442}, {7, 133, 1, 442}, {8, 134, 2, 442}, {9, 135, 1, 442}, {4, 131, 1, 443}, {5, 133, 2, 443}, {6, 134, 2, 443}, {7, 136, 1, 443}, {8, 137, 2, 443}, {9, 138, 1, 443}, {4, 132, 1, 444}, {5, 134, 2, 444}, {6, 135, 2, 444}, {7, 137, 1, 444}, {8, 138, 2, 444}, {9, 139, 1, 444}, {4, 140, 1, 445}, {5, 141, 2, 445}, {6, 142, 2, 445}, {7, 143, 1, 445}, {8, 144, 2, 445}, {9, 145, 1, 445}, {4, 141, 1, 446}, {5, 143, 2, 446}, {6, 144, 2, 446}, {7, 146, 1, 446}, {8, 147, 2, 446}, {9, 148, 1, 446}, {4, 142, 1, 447}, {5, 144, 2, 447}, {6, 145, 2, 447}, {7, 147, 1, 447}, {8, 148, 2, 447}, {9, 149, 1, 447}, {4, 143, 1, 448}, {5, 146, 2, 448}, {6, 147, 2, 448}, {7, 150, 1, 448}, {8, 151, 2, 448}, {9, 152, 1, 448}, {4, 144, 1, 449}, {5, 147, 2, 449}, {6, 148, 2, 449}, {7, 151, 1, 449}, {8, 152, 2, 449}, {9, 153, 1, 449}, {4, 145, 1, 450}, {5, 148, 2, 450}, {6, 149, 2, 450}, {7, 152, 1, 450}, {8, 153, 2, 450}, {9, 154, 1, 450}, {10, 121, 1, 451}, {11, 122, 1, 451}, {12, 123, 1, 451}, {11, 121, 1, 452}, {13, 122, 1, 452}, {14, 123, 1, 452}, {12, 121, 1, 453}, {14, 122, 1, 453}, {15, 123, 1, 453}, {13, 121, 1, 454}, {16, 122, 1, 454}, {17, 123, 1, 454}, {14, 121, 1, 455}, {17, 122, 1, 455}, {18, 123, 1, 455}, {15, 121, 1, 456}, {18, 122, 1, 456}, {19, 123, 1, 456}, {10, 124, 1, 457}, {11, 125, 2, 457}, {12, 126, 2, 457}, {13, 127, 1, 457}, {14, 128, 2, 457}, {15, 129, 1, 457}, {11, 124, 1, 458}, {13, 125, 2, 458}, {14, 126, 2, 458}, {16, 127, 1, 458}, {17, 128, 2, 458}, {18, 129, 1, 458}, {12, 124, 1, 459}, {14, 125, 2, 459}, {15, 126, 2, 459}, {17, 127, 1, 459}, {18, 128, 2, 459}, {19, 129, 1, 459}, {10, 130, 1, 460}, {11, 131, 2, 460}, {12, 132, 2, 460}, {13, 133, 1, 460}, {14, 134, 2, 460}, {15, 135, 1, 460}, {10, 131, 1, 461}, {11, 133, 2, 461}, {12, 134, 2, 461}, {13, 136, 1, 461}, {14, 137, 2, 461}, {15, 138, 1, 461}, {10, 132, 1, 462}, {11, 134, 2, 462}, {12, 135, 2, 462}, {13, 137, 1, 462}, {14, 138, 2, 462}, {15, 139, 1, 462}, {11, 130, 1, 463}, {13, 131, 2, 463}, {14, 132, 2, 463}, {16, 133, 1, 463}, {17, 134, 2, 463}, {18, 135, 1, 463}, {11, 131, 1, 464}, {13, 133, 2, 464}, {14, 134, 2, 464}, {16, 136, 1, 464}, {17, 137, 2, 464}, {18, 138, 1, 464}, {11, 132, 1, 465}, {13, 134, 2, 465}, {14, 135, 2, 465}, {16, 137, 1, 465}, {17, 138, 2, 465}, {18, 139, 1, 465}, {12, 130, 1, 466}, {14, 131, 2, 466}, {15, 132, 2, 466}, {17, 133, 1, 466}, {18, 134, 2, 466}, {19, 135, 1, 466}, {12, 131, 1, 467}, {14, 133, 2, 467}, {15, 134, 2, 467}, {17, 136, 1, 467}, {18, 137, 2, 467}, {19, 138, 1, 467}, {12, 132, 1, 468}, {14, 134, 2, 468}, {15, 135, 2, 468}, {17, 137, 1, 468}, {18, 138, 2, 468}, {19, 139, 1, 468}, {10, 130, 1, 469}, {11, 131, 3, 469}, {12, 132, 3, 469}, {13, 133, 3, 469}, {14, 134, 6, 469}, {15, 135, 3, 469}, {16, 136, 1, 469}, {17, 137, 3, 469}, {18, 138, 3, 469}, {19, 139, 1, 469}, {10, 140, 1, 470}, {11, 141, 3, 470}, {12, 142, 3, 470}, {13, 143, 3, 470}, {14, 144, 6, 470}, {15, 145, 3, 470}, {16, 146, 1, 470}, {17, 147, 3, 470}, {18, 148, 3, 470}, {19, 149, 1, 470}, {10, 141, 1, 471}, {11, 143, 3, 471}, {12, 144, 3, 471}, {13, 146, 3, 471}, {14, 147, 6, 471}, {15, 148, 3, 471}, {16, 150, 1, 471}, {17, 151, 3, 471}, {18, 152, 3, 471}, {19, 153, 1, 471}, {10, 142, 1, 472}, {11, 144, 3, 472}, {12, 145, 3, 472}, {13, 147, 3, 472}, {14, 148, 6, 472}, {15, 149, 3, 472}, {16, 151, 1, 472}, {17, 152, 3, 472}, {18, 153, 3, 472}, {19, 154, 1, 472}, {20, 124, 1, 473}, {21, 125, 2, 473}, {22, 126, 2, 473}, {23, 127, 1, 473}, {24, 128, 2, 473}, {25, 129, 1, 473}, {21, 124, 1, 474}, {23, 125, 2, 474}, {24, 126, 2, 474}, {26, 127, 1, 474}, {27, 128, 2, 474}, {28, 129, 1, 474}, {22, 124, 1, 475}, {24, 125, 2, 475}, {25, 126, 2, 475}, {27, 127, 1, 475}, {28, 128, 2, 475}, {29, 129, 1, 475}, {23, 124, 1, 476}, {26, 125, 2, 476}, {27, 126, 2, 476}, {30, 127, 1, 476}, {31, 128, 2, 476}, {32, 129, 1, 476}, {24, 124, 1, 477}, {27, 125, 2, 477}, {28, 126, 2, 477}, {31, 127, 1, 477}, {32, 128, 2, 477}, {33, 129, 1, 477}, {25, 124, 1, 478}, {28, 125, 2, 478}, {29, 126, 2, 478}, {32, 127, 1, 478}, {33, 128, 2, 478}, {34, 129, 1, 478}, {20, 130, 1, 479}, {21, 131, 3, 479}, {22, 132, 3, 479}, {23, 133, 3, 479}, {24, 134, 6, 479}, {25, 135, 3, 479}, {26, 136, 1, 479}, {27, 137, 3, 479}, {28, 138, 3, 479}, {29, 139, 1, 479}, {21, 130, 1, 480}, {23, 131, 3, 480}, {24, 132, 3, 480}, {26, 133, 3, 480}, {27, 134, 6, 480}, {28, 135, 3, 480}, {30, 136, 1, 480}, {31, 137, 3, 480}, {32, 138, 3, 480}, {33, 139, 1, 480}, {22, 130, 1, 481}, {24, 131, 3, 481}, {25, 132, 3, 481}, {27, 133, 3, 481}, {28, 134, 6, 481}, {29, 135, 3, 481}, {31, 136, 1, 481}, {32, 137, 3, 481}, {33, 138, 3, 481}, {34, 139, 1, 481}, {20, 140, 1, 482}, {21, 141, 4, 482}, {22, 142, 4, 482}, {23, 143, 6, 482}, {24, 144, 12, 482}, {25, 145, 6, 482}, {26, 146, 4, 482}, {27, 147, 12, 482}, {28, 148, 12, 482}, {29, 149, 4, 482}, {30, 150, 1, 482}, {31, 151, 4, 482}, {32, 152, 6, 482}, {33, 153, 4, 482}, {34, 154, 1, 482}, {35, 155, 1, 483}, {36, 156, 5, 483}, {37, 157, 5, 483}, {38, 158, 10, 483}, {39, 159, 20, 483}, {40, 160, 10, 483}, {41, 161, 10, 483}, {42, 162, 30, 483}, {43, 163, 30, 483}, {44, 164, 10, 483}, {45, 165, 5, 483}, {46, 166, 20, 483}, {47, 167, 30, 483}, {48, 168, 20, 483}, {49, 169, 5, 483}, {50, 170, 1, 483}, {51, 171, 5, 483}, {52, 172, 10, 483}, {53, 173, 10, 483}, {54, 174, 5, 483}, {55, 175, 1, 483}, {0, 176, 1, 484}, {1, 177, 1, 485}, {2, 178, 1, 485}, {3, 179, 1, 485}, {1, 180, 1, 486}, {2, 181, 1, 486}, {3, 182, 1, 486}, {1, 181, 1, 487}, {2, 183, 1, 487}, {3, 184, 1, 487}, {1, 182, 1, 488}, {2, 184, 1, 488}, {3, 185, 1, 488}, {4, 177, 1, 489}, {5, 178, 1, 489}, {6, 179, 1, 489}, {5, 177, 1, 490}, {7, 178, 1, 490}, {8, 179, 1, 490}, {6, 177, 1, 491}, {8, 178, 1, 491}, {9, 179, 1, 491}, {4, 180, 1, 492}, {5, 181, 2, 492}, {6, 182, 2, 492}, {7, 183, 1, 492}, {8, 184, 2, 492}, {9, 185, 1, 492}, {10, 186, 1, 493}, {11, 187, 3, 493}, {12, 188, 3, 493}, {13, 189, 3, 493}, {14, 190, 6, 493}, {15, 191, 3, 493}, {16, 192, 1, 493}, {17, 193, 3, 493}, {18, 194, 3, 493}, {19, 195, 1, 493}, {0, 196, 1, 494}, {1, 197, 1, 495}, {2, 198, 1, 495}, {3, 199, 1, 495}, {120, 120, 1, 496}, {121, 121, 1, 497}, {122, 122, 1, 497}, {123, 123, 1, 497}, {121, 124, 1, 498}, {122, 125, 1, 498}, {123, 126, 1, 498}, {121, 125, 1, 499}, {122, 127, 1, 499}, {123, 128, 1, 499}, {121, 126, 1, 500}, {122, 128, 1, 500}, {123, 129, 1, 500}, {124, 124, 1, 501}, {125, 125, 2, 501}, {126, 126, 2, 501}, {127, 127, 1, 501}, {128, 128, 2, 501}, {129, 129, 1, 501}, {130, 130, 1, 502}, {131, 131, 3, 502}, {132, 132, 3, 502}, {133, 133, 3, 502}, {134, 134, 6, 502}, {135, 135, 3, 502}, {136, 136, 1, 502}, {137, 137, 3, 502}, {138, 138, 3, 502}, {139, 139, 1, 502}, {120, 176, 1, 503}, {121, 177, 1, 504}, {122, 178, 1, 504}, {123, 179, 1, 504}, {0, 201, 1, 505}, {0, 202, 1, 506}, {0, 266, 1, 507}, {0, 331, 1, 508}, {0, 396, 1, 509}, {0, 412, 1, 510}, {0, 416, 1, 511}, {1, 203, 1, 512}, {2, 204, 1, 512}, {3, 205, 1, 512}, {1, 206, 1, 513}, {2, 207, 1, 513}, {3, 208, 1, 513}, {1, 207, 1, 514}, {2, 209, 1, 514}, {3, 210, 1, 514}, {1, 208, 1, 515}, {2, 210, 1, 515}, {3, 211, 1, 515}, {1, 212, 1, 516}, {2, 213, 1, 516}, {3, 214, 1, 516}, {1, 213, 1, 517}, {2, 215, 1, 517}, {3, 216, 1, 517}, {1, 214, 1, 518}, {2, 216, 1, 518}, {3, 217, 1, 518}, {1, 267, 1, 519}, {2, 268, 1, 519}, {3, 269, 1, 519}, {1, 270, 1, 520}, {2, 271, 1, 520}, {3, 272, 1, 520}, {1, 271, 1, 521}, {2, 273, 1, 521}, {3, 274, 1, 521}, {1, 272, 1, 522}, {2, 274, 1, 522}, {3, 275, 1, 522}, {1, 307, 1, 523}, {2, 308, 1, 523}, {3, 309, 1, 523}, {1, 308, 1, 524}, {2, 310, 1, 524}, {3, 311, 1, 524}, {1, 309, 1, 525}, {2, 311, 1, 525}, {3, 312, 1, 525}, {1, 332, 1, 526}, {2, 333, 1, 526}, {3, 334, 1, 526}, {1, 335, 1, 527}, {2, 336, 1, 527}, {3, 337, 1, 527}, {1, 336, 1, 528}, {2, 338, 1, 528}, {3, 339, 1, 528}, {1, 337, 1, 529}, {2, 339, 1, 529}, {3, 340, 1, 529}, {1, 372, 1, 530}, {2, 373, 1, 530}, {3, 374, 1, 530}, {1, 373, 1, 531}, {2, 375, 1, 531}, {3, 376, 1, 531}, {1, 374, 1, 532}, {2, 376, 1, 532}, {3, 377, 1, 532}, {1, 397, 1, 533}, {2, 398, 1, 533}, {3, 399, 1, 533}, {1, 413, 1, 534}, {2, 414, 1, 534}, {3, 415, 1, 534}, {4, 212, 1, 535}, {5, 213, 1, 535}, {6, 214, 1, 535}, {4, 213, 1, 536}, {5, 215, 1, 536}, {6, 216, 1, 536}, {4, 214, 1, 537}, {5, 216, 1, 537}, {6, 217, 1, 537}, {5, 212, 1, 538}, {7, 213, 1, 538}, {8, 214, 1, 538}, {5, 213, 1, 539}, {7, 215, 1, 539}, {8, 216, 1, 539}, {5, 214, 1, 540}, {7, 216, 1, 540}, {8, 217, 1, 540}, {6, 212, 1, 541}, {8, 213, 1, 541}, {9, 214, 1, 541}, {6, 213, 1, 542}, {8, 215, 1, 542}, {9, 216, 1, 542}, {6, 214, 1, 543}, {8, 216, 1, 543}, {9, 217, 1, 543}, {4, 267, 1, 544}, {5, 268, 1, 544}, {6, 269, 1, 544}, {5, 267, 1, 545}, {7, 268, 1, 545}, {8, 269, 1, 545}, {6, 267, 1, 546}, {8, 268, 1, 546}, {9, 269, 1, 546}, {4, 307, 1, 547}, {5, 308, 1, 547}, {6, 309, 1, 547}, {4, 308, 1, 548}, {5, 310, 1, 548}, {6, 311, 1, 548}, {4, 309, 1, 549}, {5, 311, 1, 549}, {6, 312, 1, 549}, {5, 307, 1, 550}, {7, 308, 1, 550}, {8, 309, 1, 550}, {5, 308, 1, 551}, {7, 310, 1, 551}, {8, 311, 1, 551}, {5, 309, 1, 552}, {7, 311, 1, 552}, {8, 312, 1, 552}, {6, 307, 1, 553}, {8, 308, 1, 553}, {9, 309, 1, 553}, {6, 308, 1, 554}, {8, 310, 1, 554}, {9, 311, 1, 554}, {6, 309, 1, 555}, {8, 311, 1, 555}, {9, 312, 1, 555}, {4, 332, 1, 556}, {5, 333, 1, 556}, {6, 334, 1, 556}, {5, 332, 1, 557}, {7, 333, 1, 557}, {8, 334, 1, 557}, {6, 332, 1, 558}, {8, 333, 1, 558}, {9, 334, 1, 558}, {4, 270, 1, 559}, {5, 271, 2, 559}, {6, 272, 2, 559}, {7, 273, 1, 559}, {8, 274, 2, 559}, {9, 275, 1, 559}, {4, 276, 1, 560}, {5, 277, 2, 560}, {6, 278, 2, 560}, {7, 279, 1, 560}, {8, 280, 2, 560}, {9, 281, 1, 560}, {4, 277, 1, 561}, {5, 279, 2, 561}, {6, 280, 2, 561}, {7, 282, 1, 561}, {8, 283, 2, 561}, {9, 284, 1, 561}, {4, 278, 1, 562}, {5, 280, 2, 562}, {6, 281, 2, 562}, {7, 283, 1, 562}, {8, 284, 2, 562}, {9, 285, 1, 562}, {4, 313, 1, 563}, {5, 314, 2, 563}, {6, 315, 2, 563}, {7, 316, 1, 563}, {8, 317, 2, 563}, {9, 318, 1, 563}, {4, 319, 1, 564}, {5, 320, 2, 564}, {6, 321, 2, 564}, {7, 322, 1, 564}, {8, 323, 2, 564}, {9, 324, 1, 564}, {4, 325, 1, 565}, {5, 326, 2, 565}, {6, 327, 2, 565}, {7, 328, 1, 565}, {8, 329, 2, 565}, {9, 330, 1, 565}, {4, 335, 1, 566}, {5, 336, 2, 566}, {6, 337, 2, 566}, {7, 338, 1, 566}, {8, 339, 2, 566}, {9, 340, 1, 566}, {4, 400, 1, 567}, {5, 401, 2, 567}, {6, 402, 2, 567}, {7, 403, 1, 567}, {8, 404, 2, 567}, {9, 405, 1, 567}, {4, 212, 1, 568}, {5, 213, 2, 568}, {6, 214, 2, 568}, {7, 215, 1, 568}, {8, 216, 2, 568}, {9, 217, 1, 568}, {4, 218, 1, 569}, {5, 219, 1, 569}, {5, 224, 1, 569}, {6, 220, 1, 569}, {6, 230, 1, 569}, {7, 225, 1, 569}, {8, 226, 1, 569}, {8, 231, 1, 569}, {9, 232, 1, 569}, {4, 219, 1, 570}, {5, 221, 1, 570}, {5, 225, 1, 570}, {6, 222, 1, 570}, {6, 231, 1, 570}, {7, 227, 1, 570}, {8, 228, 1, 570}, {8, 233, 1, 570}, {9, 234, 1, 570}, {4, 220, 1, 571}, {5, 222, 1, 571}, {5, 226, 1, 571}, {6, 223, 1, 571}, {6, 232, 1, 571}, {7, 228, 1, 571}, {8, 229, 1, 571}, {8, 234, 1, 571}, {9, 235, 1, 571}, {4, 236, 1, 572}, {5, 237, 1, 572}, {5, 246, 1, 572}, {6, 238, 1, 572}, {6, 256, 1, 572}, {7, 247, 1, 572}, {8, 248, 1, 572}, {8, 257, 1, 572}, {9, 258, 1, 572}, {4, 237, 1, 573}, {5, 239, 1, 573}, {5, 247, 1, 573}, {6, 240, 1, 573}, {6, 257, 1, 573}, {7, 249, 1, 573}, {8, 250, 1, 573}, {8, 259, 1, 573}, {9, 260, 1, 573}, {4, 238, 1, 574}, {5, 240, 1, 574}, {5, 248, 1, 574}, {6, 241, 1, 574}, {6, 258, 1, 574}, {7, 250, 1, 574}, {8, 251, 1, 574}, {8, 260, 1, 574}, {9, 261, 1, 574}, {4, 239, 1, 575}, {5, 242, 1, 575}, {5, 249, 1, 575}, {6, 243, 1, 575}, {6, 259, 1, 575}, {7, 252, 1, 575}, {8, 253, 1, 575}, {8, 262, 1, 575}, {9, 263, 1, 575}, {4, 240, 1, 576}, {5, 243, 1, 576}, {5, 250, 1, 576}, {6, 244, 1, 576}, {6, 260, 1, 576}, {7, 253, 1, 576}, {8, 254, 1, 576}, {8, 263, 1, 576}, {9, 264, 1, 576}, {4, 241, 1, 577}, {5, 244, 1, 577}, {5, 251, 1, 577}, {6, 245, 1, 577}, {6, 261, 1, 577}, {7, 254, 1, 577}, {8, 255, 1, 577}, {8, 264, 1, 577}, {9, 265, 1, 577}, {4, 286, 1, 578}, {5, 287, 2, 578}, {6, 288, 2, 578}, {7, 292, 1, 578}, {8, 293, 2, 578}, {9, 297, 1, 578}, {4, 287, 1, 579}, {5, 289, 1, 579}, {5, 292, 1, 579}, {6, 290, 1, 579}, {6, 293, 1, 579}, {7, 294, 1, 579}, {8, 295, 1, 579}, {8, 298, 1, 579}, {9, 299, 1, 579}, {4, 288, 1, 580}, {5, 290, 1, 580}, {5, 293, 1, 580}, {6, 291, 1, 580}, {6, 297, 1, 580}, {7, 295, 1, 580}, {8, 296, 1, 580}, {8, 299, 1, 580}, {9, 300, 1, 580}, {4, 292, 1, 581}, {5, 294, 2, 581}, {6, 295, 2, 581}, {7, 301, 1, 581}, {8, 302, 2, 581}, {9, 304, 1, 581}, {4, 293, 1, 582}, {5, 295, 1, 582}, {5, 298, 1, 582}, {6, 296, 1, 582}, {6, 299, 1, 582}, {7, 302, 1, 582}, {8, 303, 1, 582}, {8, 304, 1, 582}, {9, 305, 1, 582}, {4, 297, 1, 583}, {5, 299, 2, 583}, {6, 300, 2, 583}, {7, 304, 1, 583}, {8, 305, 2, 583}, {9, 306, 1, 583}, {4, 307, 1, 584}, {5, 308, 2, 584}, {6, 309, 2, 584}, {7, 310, 1, 584}, {8, 311, 2, 584}, {9, 312, 1, 584}, {4, 313, 1, 585}, {5, 314, 1, 585}, {5, 319, 1, 585}, {6, 315, 1, 585}, {6, 325, 1, 585}, {7, 320, 1, 585}, {8, 321, 1, 585}, {8, 326, 1, 585}, {9, 327, 1, 585}, {4, 314, 1, 586}, {5, 316, 1, 586}, {5, 320, 1, 586}, {6, 317, 1, 586}, {6, 326, 1, 586}, {7, 322, 1, 586}, {8, 323, 1, 586}, {8, 328, 1, 586}, {9, 329, 1, 586}, {4, 315, 1, 587}, {5, 317, 1, 587}, {5, 321, 1, 587}, {6, 318, 1, 587}, {6, 327, 1, 587}, {7, 323, 1, 587}, {8, 324, 1, 587}, {8, 329, 1, 587}, {9, 330, 1, 587}, {4, 372, 1, 588}, {5, 373, 2, 588}, {6, 374, 2, 588}, {7, 375, 1, 588}, {8, 376, 2, 588}, {9, 377, 1, 588}, {4, 406, 1, 589}, {5, 407, 2, 589}, {6, 408, 2, 589}, {7, 409, 1, 589}, {8, 410, 2, 589}, {9, 411, 1, 589}, {10, 341, 1, 590}, {11, 342, 3, 590}, {12, 343, 3, 590}, {13, 344, 3, 590}, {14, 345, 6, 590}, {15, 346, 3, 590}, {16, 347, 1, 590}, {17, 348, 3, 590}, {18, 349, 3, 590}, {19, 350, 1, 590}, {10, 307, 1, 591}, {11, 308, 2, 591}, {12, 309, 2, 591}, {13, 310, 1, 591}, {14, 311, 2, 591}, {15, 312, 1, 591}, {11, 307, 1, 592}, {13, 308, 2, 592}, {14, 309, 2, 592}, {16, 310, 1, 592}, {17, 311, 2, 592}, {18, 312, 1, 592}, {12, 307, 1, 593}, {14, 308, 2, 593}, {15, 309, 2, 593}, {17, 310, 1, 593}, {18, 311, 2, 593}, {19, 312, 1, 593}, {10, 313, 1, 594}, {11, 314, 2, 594}, {11, 319, 1, 594}, {12, 315, 2, 594}, {12, 325, 1, 594}, {13, 316, 1, 594}, {13, 320, 2, 594}, {14, 317, 2, 594}, {14, 321, 2, 594}, {14, 326, 2, 594}, {15, 318, 1, 594}, {15, 327, 2, 594}, {16, 322, 1, 594}, {17, 323, 2, 594}, {17, 328, 1, 594}, {18, 324, 1, 594}, {18, 329, 2, 594}, {19, 330, 1, 594}, {10, 378, 1, 595}, {11, 379, 2, 595}, {11, 384, 1, 595}, {12, 380, 2, 595}, {12, 390, 1, 595}, {13, 381, 1, 595}, {13, 385, 2, 595}, {14, 382, 2, 595}, {14, 386, 2, 595}, {14, 391, 2, 595}, {15, 383, 1, 595}, {15, 392, 2, 595}, {16, 387, 1, 595}, {17, 388, 2, 595}, {17, 393, 1, 595}, {18, 389, 1, 595}, {18, 394, 2, 595}, {19, 395, 1, 595}, {20, 351, 1, 596}, {21, 352, 4, 596}, {22, 353, 4, 596}, {23, 354, 2, 596}, {23, 357, 4, 596}, {24, 355, 4, 596}, {24, 358, 8, 596}, {25, 356, 2, 596}, {25, 362, 4, 596}, {26, 359, 4, 596}, {27, 360, 8, 596}, {27, 363, 4, 596}, {28, 361, 4, 596}, {28, 364, 8, 596}, {29, 365, 4, 596}, {30, 366, 1, 596}, {31, 367, 4, 596}, {32, 368, 2, 596}, {32, 369, 4, 596}, {33, 370, 4, 596}, {34, 371, 1, 596}, {0, 418, 1, 597}, {0, 419, 1, 598}, {0, 441, 1, 599}, {0, 469, 1, 600}, {0, 482, 1, 601}, {1, 420, 1, 602}, {2, 421, 1, 602}, {3, 422, 1, 602}, {1, 423, 1, 603}, {2, 424, 1, 603}, {3, 425, 1, 603}, {1, 424, 1, 604}, {2, 426, 1, 604}, {3, 427, 1, 604}, {1, 425, 1, 605}, {2, 427, 1, 605}, {3, 428, 1, 605}, {1, 442, 1, 606}, {2, 443, 1, 606}, {3, 444, 1, 606}, {1, 470, 1, 607}, {2, 471, 1, 607}, {3, 472, 1, 607}, {120, 202, 1, 608}, {1, 429, 1, 609}, {2, 430, 1, 609}, {3, 431, 1, 609}, {1, 432, 1, 610}, {2, 435, 1, 610}, {3, 438, 1, 610}, {1, 433, 1, 611}, {2, 436, 1, 611}, {3, 439, 1, 611}, {1, 434, 1, 612}, {2, 437, 1, 612}, {3, 440, 1, 612}, {1, 451, 1, 613}, {2, 452, 1, 613}, {3, 453, 1, 613}, {1, 452, 1, 614}, {2, 454, 1, 614}, {3, 455, 1, 614}, {1, 453, 1, 615}, {2, 455, 1, 615}, {3, 456, 1, 615}, {1, 457, 1, 616}, {2, 458, 1, 616}, {3, 459, 1, 616}, {1, 479, 1, 617}, {2, 480, 1, 617}, {3, 481, 1, 617}, {4, 445, 1, 618}, {5, 446, 2, 618}, {6, 447, 2, 618}, {7, 448, 1, 618}, {8, 449, 2, 618}, {9, 450, 1, 618}, {4, 429, 1, 619}, {5, 430, 1, 619}, {6, 431, 1, 619}, {5, 429, 1, 620}, {7, 430, 1, 620}, {8, 431, 1, 620}, {6, 429, 1, 621}, {8, 430, 1, 621}, {9, 431, 1, 621}, {4, 432, 1, 622}, {5, 433, 1, 622}, {5, 435, 1, 622}, {6, 434, 1, 622}, {6, 438, 1, 622}, {7, 436, 1, 622}, {8, 437, 1, 622}, {8, 439, 1, 622}, {9, 440, 1, 622}, {4, 460, 1, 623}, {5, 461, 1, 623}, {5, 463, 1, 623}, {6, 462, 1, 623}, {6, 466, 1, 623}, {7, 464, 1, 623}, {8, 465, 1, 623}, {8, 467, 1, 623}, {9, 468, 1, 623}, {120, 266, 1, 624}, {121, 267, 1, 625}, {122, 268, 1, 625}, {123, 269, 1, 625}, {4, 473, 1, 626}, {5, 474, 2, 626}, {6, 475, 2, 626}, {7, 476, 1, 626}, {8, 477, 2, 626}, {9, 478, 1, 626}, {124, 307, 1, 627}, {125, 308, 2, 627}, {126, 309, 2, 627}, {127, 310, 1, 627}, {128, 311, 2, 627}, {129, 312, 1, 627}, {120, 331, 1, 628}, {121, 332, 1, 629}, {122, 333, 1, 629}, {123, 334, 1, 629}, {120, 396, 1, 630}, {0, 484, 1, 631}, {0, 485, 1, 632}, {0, 492, 1, 633}, {1, 486, 1, 634}, {2, 487, 1, 634}, {3, 488, 1, 634}, {176, 202, 1, 635}, {1, 489, 1, 636}, {2, 490, 1, 636}, {3, 491, 1, 636}, {176, 266, 1, 637}, {0, 494, 1, 638}, {0, 496, 1, 639}, {0, 497, 1, 640}, {0, 501, 1, 641}, {120, 419, 1, 642}, {1, 498, 1, 643}, {2, 499, 1, 643}, {3, 500, 1, 643}, {120, 441, 1, 644}, {121, 429, 1, 645}, {122, 430, 1, 645}, {123, 431, 1, 645}, {0, 503, 1, 646}, {120, 496, 1, 647}, {202, 202, 1, 648}, {202, 266, 1, 649}, {202, 331, 1, 650}, {202, 396, 1, 651}, {266, 266, 1, 652}, {267, 267, 1, 653}, {268, 268, 1, 653}, {269, 269, 1, 653}, {266, 331, 1, 654}, {202, 419, 1, 655}, {266, 419, 1, 656}, {202, 441, 1, 657}, {0, 505, 1, 658}, {0, 506, 1, 659}, {0, 507, 1, 660}, {0, 508, 1, 661}, {0, 509, 1, 662}, {0, 510, 1, 663}, {0, 512, 1, 664}, {0, 519, 1, 665}, {0, 526, 1, 666}, {0, 533, 1, 667}, {0, 559, 1, 668}, {0, 566, 1, 669}, {0, 568, 1, 670}, {0, 584, 1, 671}, {0, 588, 1, 672}, {0, 594, 1, 673}, {1, 513, 1, 674}, {2, 514, 1, 674}, {3, 515, 1, 674}, {1, 520, 1, 675}, {2, 521, 1, 675}, {3, 522, 1, 675}, {1, 527, 1, 676}, {2, 528, 1, 676}, {3, 529, 1, 676}, {1, 516, 1, 677}, {2, 517, 1, 677}, {3, 518, 1, 677}, {1, 523, 1, 678}, {2, 524, 1, 678}, {3, 525, 1, 678}, {1, 530, 1, 679}, {2, 531, 1, 679}, {3, 532, 1, 679}, {1, 560, 1, 680}, {2, 561, 1, 680}, {3, 562, 1, 680}, {1, 569, 1, 681}, {2, 570, 1, 681}, {3, 571, 1, 681}, {1, 585, 1, 682}, {2, 586, 1, 682}, {3, 587, 1, 682}, {1, 544, 1, 683}, {2, 545, 1, 683}, {3, 546, 1, 683}, {1, 563, 1, 684}, {2, 564, 1, 684}, {3, 565, 1, 684}, {1, 591, 1, 685}, {2, 592, 1, 685}, {3, 593, 1, 685}, {1, 556, 1, 686}, {2, 557, 1, 686}, {3, 558, 1, 686}, {4, 572, 1, 687}, {5, 573, 2, 687}, {6, 574, 2, 687}, {7, 575, 1, 687}, {8, 576, 2, 687}, {9, 577, 1, 687}, {4, 535, 1, 688}, {5, 536, 1, 688}, {5, 538, 1, 688}, {6, 537, 1, 688}, {6, 541, 1, 688}, {7, 539, 1, 688}, {8, 540, 1, 688}, {8, 542, 1, 688}, {9, 543, 1, 688}, {4, 578, 1, 689}, {5, 579, 2, 689}, {6, 580, 2, 689}, {7, 581, 1, 689}, {8, 582, 2, 689}, {9, 583, 1, 689}, {4, 547, 1, 690}, {5, 548, 1, 690}, {5, 550, 1, 690}, {6, 549, 1, 690}, {6, 553, 1, 690}, {7, 551, 1, 690}, {8, 552, 1, 690}, {8, 554, 1, 690}, {9, 555, 1, 690}, {0, 597, 1, 691}, {0, 598, 1, 692}, {0, 599, 1, 693}, {0, 600, 1, 694}, {0, 602, 1, 695}, {0, 606, 1, 696}, {0, 608, 1, 697}, {0, 609, 1, 698}, {0, 616, 1, 699}, {0, 622, 1, 700}, {0, 624, 1, 701}, {0, 625, 1, 702}, {0, 628, 1, 703}, {1, 603, 1, 704}, {2, 604, 1, 704}, {3, 605, 1, 704}, {1, 610, 1, 705}, {2, 611, 1, 705}, {3, 612, 1, 705}, {120, 512, 1, 706}, {1, 613, 1, 707}, {2, 614, 1, 707}, {3, 615, 1, 707}, {1, 619, 1, 708}, {2, 620, 1, 708}, {3, 621, 1, 708}, {120, 519, 1, 709}, {120, 568, 1, 710}, {0, 631, 1, 711}, {0, 632, 1, 712}, {0, 635, 1, 713}, {0, 639, 1, 714}, {0, 640, 1, 715}, {0, 642, 1, 716}, {120, 608, 1, 717}}
alpha_scalar_moments = 163
alpha_moment_mapping = {0, 120, 176, 196, 200, 201, 202, 266, 331, 396, 412, 416, 417, 418, 419, 441, 469, 482, 483, 484, 485, 492, 493, 494, 495, 496, 497, 501, 502, 503, 504, 505, 506, 507, 508, 509, 510, 511, 512, 519, 526, 533, 534, 559, 566, 567, 568, 584, 588, 589, 590, 594, 595, 596, 597, 598, 599, 600, 601, 602, 606, 607, 608, 609, 616, 617, 618, 622, 623, 624, 625, 626, 627, 628, 629, 630, 631, 632, 633, 634, 635, 636, 637, 638, 639, 640, 641, 642, 643, 644, 645, 646, 647, 658, 659, 660, 661, 662, 663, 664, 665, 666, 667, 668, 669, 670, 671, 672, 673, 674, 675, 676, 648, 677, 678, 679, 680, 681, 682, 649, 683, 684, 685, 650, 686, 651, 687, 652, 653, 654, 688, 689, 690, 691, 692, 693, 694, 695, 696, 697, 698, 699, 700, 701, 702, 703, 704, 655, 705, 656, 706, 707, 657, 708, 709, 710, 711, 712, 713, 714, 715, 716, 717}
species_coeffs = {-1.330186261374797e+01}
moment_coeffs = {-7.387313638383072e-01, -3.428456554838712e-02, -7.841573241265805e-02, -1.847839326307468e-02, -3.094606780703446e-02, -3.745258363810821e-01, -9.241592746785208e-01, 5.165920004996212e-01, 1.003593104133678e-01, 1.575987380224869e+00, 1.469533737462484e+00, -9.436942456733191e-01, -9.856903711751113e-01, 8.610846728786480e-02, -2.616325527788169e-02, -3.578778258910068e-02, 9.803789131633706e-02, 5.598064506809205e-02, -2.173495825371444e-03, 3.959819293164167e-02, -2.383973159638201e-02, 2.987301725393040e-02, 9.316642095466567e-02, -5.220750168739078e-03, -7.330105185849837e-03, 1.348196467775517e-03, 3.105729196463970e-05, 2.209464863939570e-03, 1.328158014496008e-03, 2.399499243730755e-03, 1.386139651134933e-04, 3.745157554232368e-01, 3.548893498560156e+00, -2.507430225938771e+00, 3.301264704856660e-01, 1.232775102470730e+00, 6.017053513621944e-01, 1.701876520819843e+00, -6.575484686053108e+00, -8.324314526467743e-01, 7.560645623139846e+00, 7.161422138065864e+00, -5.234143794087615e+00, 1.915291843580593e+00, 1.204522710991595e+01, -4.986069719492075e+00, 2.952190234698560e+00, 1.240015625698097e+00, 1.927658863768045e+00, -3.579576681929104e-01, -4.972942608481627e+00, 3.186303501011663e+00, -2.019820090710581e+01, -4.554872091685882e+00, 8.004713185411656e-02, 3.014288389248543e-01, -1.600148563456611e-01, -3.142070440251669e-01, -2.335060161288330e-02, 1.818915808181965e-01, -4.178817950844449e-01, -2.932286301756403e-02, -3.243376930055324e-02, 1.278355505531109e-02, 3.803046514084577e-02, 1.479616875884563e-01, -8.421201759868532e-02, 2.832938759055675e-02, 1.973673942637928e-01, -4.016855598205920e-02, 8.260389921873669e-02, 7.777550314991002e-02, 9.424591950289735e-03, -3.362173606518764e-02, -9.494947085510465e-02, -4.129745007594022e-02, 1.095218977411531e-01, 2.957524701405624e-02, -1.524981684557230e-02, -2.013833625671411e-02, 1.488189964773999e-01, 6.571155887362677e-02, -3.466950362994498e-02, 1.971438578032056e-02, -3.232564209765577e-03, -7.208014393995135e-04, -1.087383439998912e-03, -1.609672353616669e-03, -3.915927133801075e-03, -1.231520836309663e-04, 2.408142796774707e-03, -5.393405939595795e-03, -2.763077045739385e-05, 5.183887101732128e+00, 9.907783262666277e-01, 6.111334106374786e+00, 1.763546693326693e+00, -6.804138782897206e+00, -3.930029382092873e-01, 3.903844912494470e+00, -7.878842910856624e+00, 4.661696689451005e+00, -3.379154430002731e+00, -1.893163065333427e+01, -1.186347012667866e+01, -8.983259891352875e+00, -1.236561818341440e+01, 1.591563117456775e+01, 9.905502750571699e+00, 6.817883238843638e+00, -2.408177792603819e+00, 5.011249472753085e+00, 1.019816421120799e+00, 1.795932280960279e+00, -2.283278954356638e+01, 1.495131458640628e+01, 1.192561886169285e+01, 1.309676948069965e+01, -9.514294278660956e-01, -1.317846679080000e+01, 1.978413735633950e+01, -1.444838394303691e+01, 2.316413628807356e+01, -1.788005366019821e+00, -7.567706706912983e+00, -2.500790347456638e-01, 2.831025689032194e+01, -5.281573934681110e+00, -2.983029990741763e+01, 5.311047630622549e+00, -6.983534843823124e+00, 2.332137553997513e+01, -1.353646557705633e+01, -4.656906439490221e-01, -2.994736288374729e-01, 1.844170884475842e-01, 2.605918553756327e-01, -1.740487315782898e-01, 6.430722551957760e-01, -2.616547340940754e-01, -3.436281539588068e-01, 2.120530461071279e-01, 1.618560698541685e-01, 3.789414531901030e-01, -1.550740173548241e-02, 5.679909332776639e-02, -1.062648428891812e-01, -1.771684526944137e-03, -3.528275868715199e-01, 1.516707984284276e-01, 1.155391929490706e-01, -1.436394082621935e-01, 3.123037878469755e-01, 1.115549186924788e-02, 2.653138125775023e-02, -2.825980440680210e-01, 6.429440492101520e-03, -1.355510662019920e-01, -3.036207096449816e-01, 6.662526470218626e-03, -1.320671395668006e-03, 9.699039537337253e-04, 1.828678843719130e-03}
#MVS_v1.1
energy_weight 1.0000000000000000e+00
force_weight 0.0000000000000000e+00
stress_weight 0.0000000000000000e+00
site_en_weight 0.0000000000000000e+00
weight_scaling 2
#D5#@P7k@ Kz6@$sOrVz!@K]0 3p@l	 R?.0n#/NmS]S?gK.g?,tWsy?%hi?l?c't?;eW?nk?sz8j?[0+,}<\&?HX5?B?<[?xz?      ?y?e	PE@#d)@dT6;@$+?   A9w&?  b91"? `)en`9Y? t=]9 5I@   W0@   $@rA!!#@  #-|   dJ}2}   u0~94Fa@    jpHGBe@   nd9x@  sO9{k   Le9~A?G3"E9|+f?OW3f9`65?78>Wc9g?!L-,9Ju
8)Z85W!+iKV>u2?Rn*9$1G?su2?Fr`M91G?:I9= ifq49@J;9f!9wVM?[tM@~ ,;<p3@P6uDb('@)9KbgH89	49p0_q+A9D1\3Q@KA@|Q@KA@zb+=p3@3]MZyQ@KA@9B69lS@"s(@A6}g$hm(_oOvgFlO!,$hz`U!@m@v+z9I@C9@~HS*TI@E9PNypp(@KX?n?H9`<{?`!j9|Y?
cP4^f9kL09<ZE880bi$yoN?#.9{N?)kQ9;?k*J@9  G;v29bw2 $]%219@22%
9:_N\8Hl))8	09\8 T\8-E2X)2
)8j7$9nW4?4N?>D!9"kQ9%eW4?m-|:79WKn-|:79I;=~bQ@YmyY-7@Z,H9tte8)l	'9e$uD|QrD9@-7@Qw_W9 4t \ii9m-<$u69 w[9Q1\(1D9@>nZQ"!w*k:k_G@2!9fi09?#dX?^?uB#Iy?/bPZa?1uF{?}Ii2+g?uWu?lM+[Gl\?3q2s6E??>o4A{?{a4}?`E:sb?=K?;6ZE?j92?24MS6k#?a?p?.?-cb[?      ?9-?Q'+@ @7f>#@oZ{?SM?<?a
?N?Q? `?y7C'?3P@lC?<[?=U?}:?zz?\~?!@/c!t` 	PI`=%8?;/h@Yy>@R@:;J-{@VqXA@5~Ey?~-^?SPr?w_?v?tc?$Fmw?eCN4J>I?hL>e9ooH?D!?Xi5yc?M?Dg?m^d?C_}i4D?sh?qgP?[G$?
8:?ZsqldF?}7{j?zpTPf?]?zJ?aZ&?xi?NYS?6?Fk?0?q,v4KX?'%^Yl?R+?G53?ffC?z?:C?Z|V?j#?UK?hR?tp?l H?>be$y N  ?qcQ? hz?YC?.28A@ gg?BPv+@Dn#@"?|C1@Knn@d@JS?.EXe/6?#BeK?pT6?e#P?$<?
3=EQ"?Y^>Ht"?fL<?A'&?>?7s?PB?Gd?um>CN>NgL>]R?&>!}Z?8]>VBIM?a?wDa>4trM/?Urq(4i6?D1?[Z?Y%d3?[+?ce1?yC?_S?M|0?iIm2?c>J ?E[x?~-v?&iJv?e[C'?X|t81n?0qp?i?!f dP7?tEw[?Uv?sc?q?+56=t1zZ?+COwYp?qN4?jr$?:1"?*Yf?`?r?*?}~r?Tm@}?E??9/I=cD?4?|\7_?Ex?8n~?>A.JCZ<"?9	?e'h*l?y6?+kf?2Fc?NTo',k?--?	?q`r2?7?%\?g=I*[*zex?&UH?M.T$5LIp?8$zb?JJvrplJ!?9OfyAmZ      ?_?*~4@Em?mk @lea+@`=?Gq?<s>?cP]i?<l??zH?A?*VV"@#?G
@@y?@yzj?Eb0+Z7Zk,D7,?_x@#Y?iL{@TgW%!@>Zc@,vY0@:%	FH|?as?vu?
D}??eR*x?\?=]?O{Z?CR?y[Q?;{P?Dz?@0f?`^?j?zDwe?u5?+l?oU?%k+RZ?>B}_?W?b,@mq#	?#?uR/q?"V?U#?D4?8?BisT?0a
?]f?r	>?,y"?aFd~s?^)Q?!j	n?Cc?|mi?!b?2zj?^?[*t?
]}PofzYE?Owq?0 t!HUemST?j@>w%	@1X.;R@X4@ze?raR@2+0?OH<@rd?o$b?`k?j?B?GxRq?=J?G?9G??iI<?"B~?/[BT?mD?k48S?x?@2F?q:g#?=Y<5?% ?o<+?za'p5?01&.$?u.?GrUv0? `\2?'?VL?T?tJ1?@bmKk2?`Wm#?.H.?]5(?juocTE?fiw0k?ojbF}?lN
2?Zc4`U?D^6xKm?`IM3<?/C@? W7@`8L?ZnM?)?${fA|?=-?y?OgH?"e
=?& A@?.{?r2Kfg?sQQ?:Fk?*,s?xF!?yN?dsn?N5i?T"?n}?F?-O?@4<jYm][U1Y@5)?1p @L\@Nc]Zj?I{?j_?j(bk3?Ww1Kt^?j|}^:C\X9!?W?+YKm?9^?B$bXX/??bd@?\^^R ??(?/~' u?SV`?&?&++K??6E{z!G?W'?bS~#mhF?LN?v_q      ??c~Ig4@FF	@s*@(?iO?g?,.-?Jp?g?]?(;?jo"?#h*?y+N"@o?n^qp
@MS?w;@~@Ej?^ :(v2!Q&^[;vtUg'?rQ'c?M3Py@eokl"@K9]a@n$)@zj&k E?yF?2H:IQ?\?m5?J?M iC?vMp?h	_l?4N#d?nbuMc?p0`?0?B&m?Q?+@D	?}l?)L?co?b8_?2 c?c?dc?l-;v@@C?M:?Hp5u$?#U?.V?b?*&?=Y? ?+^N?fDwY?:|&?t2x^?I? ;?#4q	o?F??{k?du?)r#?2 Jb(&[m@JEv9>lk)!gMF\?LG~g@'+@lPy:WP@V. @v@GMP@?B/3O1@;MY?Wu?UaO?B2t?WA?kv?JBQ`?_C]?bBT? NS?}?93]?|t?R$9\\?S/ v?cJ?S?5?>;H?w1?kC?}/J?x?f3?!T]?A?C?E_9E?j6>?UMc_?eF?{vhE?Ou]1??V:B?7@?"!U?Rj?8q'~?3(wD?fuu_?]Vl?)x!BD?<\}E?!\@`C(?>XV?(Tu?Z1y?N?z1|\?J!Nl?wI?=T?)5*n_?wX?+?K&w?.{?zB]]?>T?G}?:z?wy:?L~F?}?yub?:->" L@AC>V@QL"@6@N_!@QOO\I*^Xk?
]^?pWI2Zay?eni?1l	{z?A ?>|2	e?$?ft[enh?\S?$l.7)Rf-?PlGf{^lJ?o2?@D>&xAr?$Hhk&fkH~?,k!?9jrw/ 8+?9j      ?KP?/?.@?5@&+j(@
m_/?kQ?.x*f?x	!MR?tU?XI?gt a?*ET?rR@+lu?8@to7?Dby?
~?^\]/jnkwD}?"@?zn@k*@tt.nYU@"rd)0@*MG :r3 ;( ?5X?
?8?lp?e ?sw5?L^yrq?8r?ki?rz@ki?2#e?SF;?q?0\`?4?2lY$q?Z]?oE41q?k,d?Ing?w[g?4iny?CHx#@xNXa?g?!}?;??bC?uF"v?M?e<?]#=?~{oZ???f4?^?<tR?rN?+[?^]?aP>U?B?Q`\?7$I,46,92<T}~HD!KT?Z@N^t@s CK3B@Ww$@&@X~B@=?_?Zy@>1?Vx?~w?1Srw?O^y?K#lA
w?mX_?!a?V?g#V?!v?Yt6`?tqTjw?.q_?^o?'/bU?OG?`G?dsh.A?Vh*W?D,][G? PD?,Y??TH?8J?u)@?'!b?X2;G?N6B\I?!A?RHS?3??YY?tb? u?W/H?a?Gd?~pF?DG??gV?i?utW?*?v'x?X?@}?`:Va?]\?\:??Mo?B?8BFUG?~,S?N?p/?5?$?r?F:I?%?ZTz\L BmJE
FH@s@sOh@(e]f!@zL??Ekir?Kr@Vl.??j~_.?2?jbs3v$o?+qOis?=T?c{OLa<  '?7O~{v??*M,4?!'?3m84R+{!?EGQA/y?Q|iGC?<Wm?#*xcnJ ??      ?`tyN? q0@-P%I@~%(@!v@$?E?@o/?a\?3+?/ec?SFt?-h?z'&+@$>y{b?i?.2?\?)M?ke$&9PL*1D?q@(?,T<IZ@?}FG@S?k?0%?sJ?AP:?Echn?AYlpB?}?H"U?Z\\6?n>;?\?aG?!v?0+?Z0~ %x?86bu?`&?[Gx?l0?"#?K]?s}J($?;a}ry?9R9?Z!([FG?"*b}?)j2?R%'06r?_QO#5.>Pf??K'?>UR,](r?<LRa!? O?Ac?J?Z"C:E5?Q3?Y?d(Q<?-E?wH=?'+eSroEFX?E#W~&u?&1WP@/"c?	D8@M/ar2 2>@[&3?{g:X%@Gj@h?zA?Ua?3?\ERbc?b'"?	>tx>ZQ>y#A+>rT?+i@L
?x>S?8/?S7V?e%>({>,>{><%>X9yI>{X >cz{9>-;>DY>9o>S(>c!>8F>z}>%%>2>N>"I?^lY?,)`H>Tf?X mq>I?v>a\Q>z	_0?&e>s$?pg]?rP_R?PnLC\g?Az3Y&S?d3?HH[k?3e!''m'|?I>K1#j#AE?211Y?W?vwzT?OG:5&>W?C[?|m??(KE0]d8??.@r[?FED?_(	Z2-?Fh3?*Gtly5+?PZ?9<m1X<?b;h?eP;L?2t+;Qr+?f;L/?y^ |iXr?xAI'g?$?YT)N^?:*S?nD>oMf?o$?Z{?Qp/+;E?y?{Tjp%/,-	x?ZlF?
]."?      ?}%?6k;6@K*@>'l[,@]8?@fJ:?+6?"?+3U*?[)n?<gu?Bl?t(@LnE?Jo@Hsd?bT@@/?1?W1Fn24aR@~:?'#@|q`I!@=%f@*:+@s=X`Q)r?W?rx?Bq?{1A?Z.?(}^?iBm?
Ijt$k?mb?`?R?\?0}5?6?Xgj?Y?]*{?05"i? T9&?*n?R9^Z?qn!`?}`?"H]?*oX@m?=@mb??"?-o$?lwEs??B/3?tL?!??9
J0?!I?a@+9?e*l?l+3a?5??j!R+?2<i"bSA^}$4!w^?3ur@O<@RZ@@(@E<LZ@sbe^]@;&&7F(\@U	?2t?X?h}r?(?Dv?CT`?iU]?*6k	S??j=_WR?-I?0[?er?bd"[?B6?nt=Q?H}y1?b9DiJ?f<,?0;av:?M?_/?a{xB?z<E?5gDG?c??}4`?l~rH?F?FM,?l47?&@?0e7V?y??{E?%h]?[{?4D?}V6	&+F?2:0&@w?u}?1	87?/u?zn?-=?]*?&z?~x?(Kq?nE?}Pwm?9r?d!CU{?i?_m?6:/?le%rp?oj??;@th	?D?B(?eDeJ
_{N"g@	_iW@G"#@)-!@lJT^"{ %@A=O@  m>%B?$b@sv#?^Q?X%wnvM-=?7*Y?J9aZL/w/*%F0?4N?6'j;ZhZ5?M""?qHM"5V?AB?S0j-2B ?ViP(?uM\cA?27$GgL?oVkvE}K?cT?      ?D:N@u@nfU@u@+?@7^E9kylq?V899zV/f?u 90,b?z7_29-r+EiCj`FG#%./	GP@Fy~xX`F0<'q9
m1DD(?@rLAB@A9W*)@)%w9dZ(n@E@tO%bXA@)S  CC4{u} nd0x!89F8)78X8Uw#%!Qn8jfY|#%$NiY{-xvT[:J5dmBHjT?t'9uCxV?z8a?3U9n8$c% Syip9O48}>Ljx8QL9?mUL9?=8V?:TVL9?JprH9%bo{b9MDmt	? 
0?2V?-?{eX9zr9h]$	?tm =OD5EnSZTC[5I0r5oOil@}-F&?"(8m?_pw8[N?_8Q89!8j{wRC*`>";1>>.8~8>za8<'i8T2G;2N. 8k>t2I^8_57pK8{4nV*v}e8bg2':N8O#f>1><8QK(8[#f>8Iq8=5wKmh0RL#{#o1|H=S	Wmv9rfePTh08S0726@#gw
d#'Xmt#@g{:9tPFZ"9G@I~?9;9AV#59                                                                >                                                                                                                                                                                                                                                                                                                                                                                                                                                                                                                                                                                                                                                                                                                                                                                                                                                                                                                                                                                                                                                                                                                                                                                                                                                                                                                                                                                                                                                                                                                                                                                                                        Z9`(`VO9.??
m?bGY#p?2r?5^UQ	?/"?2N`l?684^.?y'8?K!SJF(j(?]hM	?uY?\#?1?3l0>An?M%?:Jt)eK!-?h5D?&($I.#6?i?O"Mf      ?VS"?ht3@C?@+Wm*@m?F?dev?}qs?)~?ATDR?52F?8:WW?~[vsk5?8a@i?Lv@"KQ?V\NJ?	?#d?13*c/)0@?E
)_??x@X@5ca@BD,$@WgU#@#`Z2=7?/;9t?(EpJ?NT<Ot?J?8Lv?*?yO^?b]?HYW?J'T?<0~|DT?e]6?o^?}?>e?l*'^?b<g~?_`?@09ByS?i eU?n
1V? 81y?VG8@!?`:D?)EI/?)?t`hC?6/?}??%?vS?A?wL"?*/?P"?V3c?pg?'lg?^;J?_m?
[?vAzE??J8'?$6p&T&?7?FTJ?$Ko?!ma@|@B5gI@!s@Yt?)euvJ@24?A>D?R&|@z?]]?}'?{%D-^?n@2wz?97@x`?$G?u_E?4-A?MP=?	!l?"IF?X_n?DQ1-F?SUd:g?|??B?fY>;4?^3?,t+?iFc6?ta?w0?+S1?uC3?4rx.?v&H?%a{2?12?	?Is?)? '/?C?IlZ?,I?k?)V0?'B_H?P48D]?A>1?W}k3??T/?|-X?-fR?R{$+G?x?d???`'9s?on&?X[?wq*C6?E'?	\[?y\^\?X/4ro?2rU?v}(?E?]
CGb?Y0q?f]a~?!O_a?N?B;
YQGZ:L^?'WaK@ \JW?xn.:?I@3=|Bv(R??e\q$?{	S6?^Q%IGf^L?Hw%	&,:?_?V]b?Te?^_AhL?OZO?SCDhtT%~?6.?+e
27?r?Z8;G(?j?AKi<ns0Y?L? ]GP9?L$?D5      ?	?L;Y3@!'at@d{)@z?SY?A<?K;?v?%Hf?i0W?NX?l
W,("@6x%9?^x
@X?;ZC$@+R?i#`s4]X.Qn~?J1??cH>y@tT#@i0a@2+@*!CnO
[9)?x]E?u$?>D$7? y?4,?8.?-o?a{Jc
l?d?h7ac?m`?  ce?U.dn??|?4qO?wm?L*?=p?+G`?;=8c?jCd?x1|?($W#@|7?+@?5\H?{rF?@#k?D/?I?&'?Q"?GL?NzE#?Y?Y^N?t?>??+(?-"?|?31m3?KIba?oi:hR0Cz~@!S1g_! ?)`?Ag@B/V @\mP@ @N:e@yDP@ o_.?x'?I^"@X?+(t?$F?\Yut?g/?Ov?up_?#_\?GE/T?%PQtS?x,9?K^?
$?y]?8v?DS?}k6?/H?Gt2?WlB? $9-J?KO/4?2A?dx-C?e2cE?'nL??NT, _?-4JyF?o">~E?3?({?%B?*h@?X+U?.ak?_~?q'D?`?GZm?`8xE?dJJF?7 @7r?y??%)?/?$^?7?hFL?
=z$?]XE?-@?6h_?Z/X]?i2y?|??waUX?P1D?| #|?#E?Z2tX?1E<?4?I7 282O=V@<@kb=z@s!@TB?R"?\Yk[-Q? >*?gp	B? &Sy7`}D@Cv?bA?Ta"6sI$?8px+	?;w?**hzd?/{?A<xrPT5?0}?R@URo?j? 'zF^*?X.?8U^6by(f4j?J!y`?w$v      ?*i?S*6@)3EdF>A@51@2?J2?l3?@w#n:?8d??&[t^?AlK?X2'@dw8?@"":U?z@'v('?r'z XF6	 )$a
@Z3J
L@F  @tf@2C(@A&GW 7?' v?FL9?5|?*7?k;?_?9l^?cX]]?M7uX?">W?pZSW?`B?	!c? ? &.xG?*qsc?!YBB?.Ra'Ui?d4(X?9uh[?]h^?L?p|@CI(?f[@z?hmO#?,?};<?.?L vs??^?Q? =Tw?p"T?n}\}?iw7?$-$@9CD?C(?pl6?4hg? qe??%vwi5{cl%
TzzRh2Hbue*r Eu?>ST#q@>9f@#vW@!\@($N@VW@?>`:p	@@$?hGf??a|n?IK?Lyms?ArO?'eo=N? `J?yVfH??uU?]SA?1:U??qvN?14?/7?vFAe?68%?c*7?1	D?*H2?xs N5?^t<6?G3?:B 0P?q
C6?<cm6?:]?Vo(?7DY3?4G?0@3rp?2?V_%5?U?/:q?muJ>?2kN&??1do@"I?Su?a^?VE??w5?`{^?#%?q
)?2A?h13?xd?|lf?:Cr?,e?H^L?%@ ?2!e?=J8)J?Z ?r`?$tIy?hcg'A?a:"
b@|](@F
@\U@;u c
?ux?DL;%*?(9l)]hKs2)?G4`y1Sgvq?: Pg	?W1?#LF*9|e/TWM?L6a h?z}2em"xQ?.? {3|r?(Pg?pA*.B=M@A9)?T?+)o??b5np_W	mbXg?> ?      ?,?.9	3@)U?d0?5'@>W?{??]??{W?OH%?Z^?'&?q@?V)@k1B?Ec??7q?QwY{EQ^u/6C?\k?x@	@ha@\o'@*Z,@
VE(?~0?2E?2"z?IC=b?6A7|?tJ?U<[?	&ee?!R?]%`?J/fXP?XLlS?t3b?.8{?$eq?`?Pm{?J*d?CK? 1	U?^,X?Q8w?87BI@ >OB?Ez?9?;EK?1?7?T?d#?I?:?.S?SS?5c?.?#?Y[_?RS)??l6b_?C@|_?Zw?\J?d#W&X?f?DvM&LK!?rW?8%b@yqh?'CdK@d;h_!@N~m?-K@!!;?lTS@n@7+?Gi?ucN?d?T[c_Z{?*2f?{vmE?Q6Q?RD'=?oRgI?p3a7l?V3]M?Jnm?Ow_-J?2ye?Dm}8@?q=D ?hE+?D?9?h<%?=k!?^9yK?_9?jp,:?U[|#?4BR?d#/?"Q*9?:nd?2sB5? Bh?6K?	 V?/Xk?N}s8?FzN?&!?W?d$0 1? s:n3?C?
(>xL?7?td*x?5Bl?$-?tb(3?h/dwJy?-?~n`&?<?JX=_?|L?:~TnYxr?8
?kU?D?^/V?j ?Q?nH%??@A?l-^2R)v?	eM@R*?L ?ps@?_?lV4J4)88?w*):?Hj?ho!qDc?7u%b?PT[Yj@F?!|N^G21?'?K1YT[[?Ue	?Nv%gK? D?N$?GnN?8Ds?~E,H)?I}c?q]dK?nbTuoQ?      ?~?[)3@A?>'hf<6@m,@,X ??9?V9:;?8n1?.?A*y?j?12)!@U]oj?2j	@}@I?i`[@ A?AFz"0y@nyB?=V?l1y@0Q| @5a@:8%@qCK@pu	mD?~Vv?>w`eay?	^%v?(?5f^z?z?a?T}^?BU?~V?;e<,R?!H Ae?
1|`?WG&e?T]?w_?_K?r#c?d	6}P?S?6r^U?\?Yw@LG?"#A?#0d?NjUbv?|KG?J^5?3t?^[?.Ag??:?,?@v??N'K?Dx ?y?x?e+?!Ep?3]B?m"Z?O4z;%H	oH?$'.cNu8: H?hDlf@$_@nA:AO@I@ jh?NbXP@z3(?2 =1CO'@S?e?FC?r)d?JI?T^i?hGBNQ?8F7M?,gHTD?VD?b<}?OsM?r~?|kM?3y1&nv?%MA?q6H#??*pUf<?/tb?OKn/?_cV??S
$	!?u5?H7n4?>7?xo|0?k?}P?@V8?6??*)?x@2?t+bH?%rj?X|2}?N|4?urP?lQ1m?dO;5?Jy7?r ?<1? `?5s7&r?8eu??l?{w.:?
EO?{u?8?#Q?]?9f?wTlKs?jC?\;j?<.6?Fh?(L ?$c? }?k.~?ARiLgF9m!ogQU@x??!0F @<(H@J6(QGk8?*Q?VP	Oq4 }?@Kh?AaMqE8Lzl?K?XSE^?r~?|;c_?{J_)?2@6 6C.-64?r+</-?prR?h?K@zq.!(BL?5d\ybyZ??ea`?1,R      ?vxA?|3@l<Bznp@:S/@Ek?A-?d+\4?Wi$?zG-yj?h=s???:u?f'}@c#@T*zk?uTvt
@J?bM@n"?OG%T
mXO4O@!(?>}y@NNIR8@aa@a_GD3@QQH4^[I*>C$?p?s/?|%
?K&q?hd>?3?^m1~?IJJRx?&D	Xr?P .@-p?d,Ln?w2? +#q?<|?"
?	]/Ur?n6?SQq?v|<h?|Ek?l9	i?8>=?2*D@dU?YG?w/"Z>?P@??K0?2?P?6?6C
?7Oi?&LXw?;$p?e)?xlg ?8?qL?dd?B?RiS?J{O?C3i?p:?~rX Sx^?`p+nV?G"mLj)w)?C-j@ [!@+Q@
E0@m@hR@'Z@)
W)1o7L@w?qK	Sv?jPc?3r?1?\}!>s?{$e?@_6a?ryZ?>ei.W?\?mZ(|o\?"r&x?J^;T]?JEy?s7 T?sMG]?R?Q-R?h?hWT?FU?\iK?x<L?ZN?tB%G?z `;a?=P?^JsRL? N?Y}_?me=I?}&==X?Ak?$Fp.?K?Y3][?m?n'6H?KQ`I?`wD@
eO?\B\?kv@?\W	:?z\K1?"{?x`b?(E"?H-,J?;tZ?"n?%U?!?aP?^?h;;)C?B?+lS?TE?QC?.88?k,?u*XL2a?sHs]@4!@@:os(@Fd5,YH?Y~O?O&--Mg?_mJ1%u?cB*o\dPUI?G`m?Y%?S?;B?r?~TT,^wK?5lur*z
2QyP?7H7?mO*,/?m5Z@H,X-EH^|?o?<	?s2/?`<r@3      ?,Ig\?5@N&[6EB@Ea0@"IW?s7b???.?&3?e-?9P??wU'@d ?=IB@X@DkS?rT+@4VL?WL.4L01Io&@1@X{I?@1~@1?!e@ L@DG417cD=9P?FNq?*>6?fNj|4x?9&?W	B?M/Q?m*U?7I4wV?|,}|I?fAHK?EZC?'i?*v`?#5j?DX?;]?&G?if?C-l@E?tP?)%S?o*?qq+i@LC?Fdc@/+? dp?2w?mR%9e?ADA?&lvvc??k?>_?8\?.R)?.G?6F?)d_
@7C,?U??@?KEg=?);\c?'p?"s'>~z+}X&OI?h=u0#raM$0qf?VGp@k/?-W@i?)ovS)?JlW@]r%M?xiDc,k	{@@W-?f}9b?A{HXI?amCPi?fq?NR{kq?IPF?G?L6 B:?<?8L?Q?Ge?qqtO?qB?6:A? M?.LoH1?HSU	?~l  ?7<21?wD?.ju6(?>/?2?{_Ov#?A_9N?6,?3P_2?uLH?VP??V+$?tUE?h{Aa5y?0X?O0?+,T?{?}W>.4?.}s8?o'@? #?DR?kVQa?a?xW?TXs_?D]?AYz?XnYX??.kq?/:?6:?|j6A?4.I?uq?vDf?<P6?$H&?+R-+*??$lo? D9qSwdJb@Q@??^?^i@                                                                                                                                >                                                                                                                                                                                                                                                                                                                                                                                                                                                                                                                                                                                                                                                                                                                                                                                                                                                                                                                                                                                                                                                                                                                                                                                                                                                                                                                                                                                                                                                                                                                                                                                                                                                                                                >                                                                                                                                                                                                                                                                                                                                                                                                                                                                                                                                                                                                                                                                                                                                                                                                                                                                                                                                                                                                                                                                                                                                                                                                                                                                                                                                                                                                                                                                                                                                                QLRyP?/-?W
C-~|h?xLQvY)?:D#9JlB?w?-% ?}njPqi^?W`?^F>,|]FQa?&u?x?_m~V&z?qP1?vt'Ez(.;???m V|R?;h?8Gna,tc?C?DN?      ?mh?d5@(L~zQn@@v-@&?>	J+?bg?}X?v?A?RE???*46%@ocVF?H{k@)?,!@`/J?x[j@BJk%g||4?mTm?2v wO@"{x@Snse@SqW/@O'EkWSL#=Mb?QAw? ??V}?24?y%?|9!?mZua?C<`?Y\T?Zk~7T?%1^P?&w?Fe?q?[_?(1e?
?.{+k?glT|;R?&QX?Ax\?rP?rfVm@D?Yx?@9?1?g?Z?q_?eipi? v?R;?9Z?yl(3?2/7?^?Il?GQb?q8?!1?tT?l ?X?N\||fQ0)
ryPcy,)qjJn?qUo@b@}a"@oU@M>@])	?0bU@xF?w$m@ /p?R8Mi?~W5?VSQ*wm?Fem?*br?R?	@Q?=oHE?q=kTF?xM?|?U?
?T?w?=iH?+$?<?aK<7G!?0>`-?78>?FuU#?
5A
4?XRg9?B:?0?1R?!;?_9?Po	!?f T,?,pzE1?&HjI?&Ti?,?X9?npSU?RTj?=?,9	??Xj@??8?jU	A?k,?m}?,*?"Q?@ ?e?E	n?E,LP?5]X?+g?cA;d?_SX?	v?tya?*?OU|?3u;?E[?t1+2 pePTF`@P-9?W :%@b%2&@                                                                                                                                                        >                                                                                                                                                                                                                                                                                                                                                                                                                                                                                                                                                                                                                                                                                                                                                                                                                                                                                                                                                                                                                                                                                                                                                                                                                                                                                                                                                                                                                                                                                                                                O
h?R?f:`2+?r?p]Z?"$3"G?I7:[N?KX").R?n?!:{|?B^?p^#f?Z?Ko?FF?ac?~IrV	=	??SvE?xyT? 24fq??5|QJhnL?`(Vp?y?      ?O$?^436@Nk=@B~,@L?ufK?\sU?p5u}?Iul?YEL*?yP?jeX?*|%@s?b@d}?Hg\@!S?,m7LjXR)t
oP]?>?]-	@,`<@};f@	C1@G,-FR?+4p?9>y_Z?iL/#?jq?hb?~?piwZ?M{X?]n$N?(-DN?MGH?4^1'?dh?]X?^F?f1g?u3>?9n?6YCR?QFv@Y?`?)!YV?pg@$g?v @{?Jj?2i~m???,QfL?a
e?YLvKy?k?6H?a6	?3B9N?PZ @?Z0?F7@7?l	?=WN
?O?`D
ABL&BtpuuXcQA9D{V?*np@J@|V@/b^o@QYC?ah:W@JXp?\?z#)2@=P(@?93ja? )?	Do?Md?t?WF\$K?NI?m+??v5>?3X?QnEKX?PE*?W?uX)|?dH?*"?H6?nvE?^~?{*B8?X2?eG+0?E>3?S4?j)?}J?~d4?w3?r2z
?R!?@bU2*?C	AWC?^ap??v	Os4?RC2W?H9q?v	A?ygB?}iQqF@N?2!?nwIX?'f?]?XB?p=?R=G?3?=?~e>G?'?A\lW?G`?X-z:?Lk?54?.M0]?]*+_?Q|?0?L  ?dmUfL;![m$}a@t^l?5Y"?6N@y$8\K?g?@(r -Bo?P, 	f?rG,|I?l?Jk29jY?|7`R?I Lk8?*
?[w1%z[?x(RBnAca'AOI#?)GC?8go!G)G'??_2jEj.x*+xre?g?CZH84FM4?5`Tl      ?Mzy?Kk.@`Oi?X.>?2KP'@?/zV
?Vg?>y?d'l e? s?P3"39?% 	]?<Zg@
`?R?6NRQ?3-
?Q.7?e#?&)%C%? vY?V?-!6/m@Azf?0p8U@Z5c@xW5@ u[}<?f?r!?2b"f?3w~?#i?7{?	G?;J?>?|F?L@"=?!On?\?y|L?h0o?x:Nn?.a^K?o?#WgEP?P=?(=m@?}&0E?F/p?F5?,}n=?PP[?_N?$`A?vA?)3?9XD?.V{+?Z?8HZ?B0|?z?|;G?m;\?	TE?N?Yu?N???\6Pz?>"Jx8?J??<iBHW?`|?ra.?[Ha'i?A-??!P@Z-?rp58@K3?$ ?>8@1 ?vfH{@>@"v|?l1%/J?.w!3f?H?J}rmg?-hK?=)?Pt.?  ?F2 ^(?yR?ym/?&X&R?)	Wr-?@]S?Y!?:r}9?fy}?xtF?gw?2{<?x6jo?f	j+?n?[Rc?\B?GG,3?y2?E(??g?K9?4?`n3N>?o/7~*Q?
[?{ll2?J>?
)?Q2?cs?U?m?T7?1ljB?p;e?s?M!d?	?l?y~e\?+C.h?Mn?`7Y#V?
B@i?x,p?[a?M<?F(++?5q"2I?.Lq?0V6%?:=?C|TVVo?&k03@F|GDN??@}p@`k_P)/S7?*?z??R\?!92#_
w?XVa?#0?$v	?/1TBc?BAp?'c	3P2[^h?z/d?SaA?r1n(?IxH=S6?

DZ ?dl?fTa"6
Q?%Aw      ?N#	?X.@q\@/Q?%j&@]V	?e9?&Ef?QF?f^?PEY??*?yJK@$/&?,"/?0j?[??z](N=YD	ldcw(}:?w$<?``o@``##/@[%V@eM%@(NY!3@nG:q^j?VRr?lQd?-1/l?	?`2l?{?HY?>Y?AP?-S??L
P?lgs?nvR?,tSr?+ct?ie2S?s?d3S?MifMH?t^vFL?01L?eXq?QB`??jX?zo?^Y?a?Xc	?tk?"q s?<C?drn?urej?T/?2K	?OU<I?@?P!p?h?<eS?TDj?>\?lZ?
J?:kI
UM#W?,K&?g?Fj0i?#;i?x:T@[b@n(=@}S!@7<@}i^=@szxS?ZmyF.DqQ@vUPB?K6;.U?t?7-BP?$s?a@{zP?XcQ"<?LZ<?2x2?NA5?Iu__?XNq5?y2a?_85?
Tm_? >/?1?$?z<l%?;Gz.C?].%?N#-?+7x?Q%v#?'T4$?5gV?Y
>?#?&
/#?@7%?S;?j6u?QO:B;?n"J?DY"`?igP7#?	6?1M?FM|?87?i?C?V?J?h;ap?-s?OW?|)-=i?Az?g?h??RE*?r??	?8AH?;%?t?aU?j?m*[s?,D)8?du?vH+ B}?&>@XO?AlYX@7@^D.[\Zf|??H\aQkA|sJ?y?F?0\1F}RL&n?M?eeb0S,~?H<:!r?UiM,q*f?poV_?B/ G9?x??mjq? ? mqSEz?0C?,G*?*A
0<{?JR{?#}' eNC?+!?	3)?      ?Bw?8u2A?2@WI?ag}]?RY	(@?6D0n?b?&P?&X?}(d?w1?O?GY @_@@x*?N@<BX ?Hq?@	J?u[c?tc) A@9G,{]Chy?2?EAw@p)@
LpH`@iY@-@,-&@/#:*(??m?dE?<q?BI?/_|v??&2<uX?-}5pU?Jk-OQ?8bP?jkt/uIO?+{?@XX?$ou?=q<	}?HX>
X?4nv?o_?*HjL?LwP?V`q?R?QMr?32l@/(? *?=W?jt??D^(?u?tfa?i;o?QG?Bo`?DfE?h?a@,v?]I?H)?AE?.?8?E?Ux?]?cx?#h:.~@O4+?n)7?J4+_?Ha@lz&Q@SH@T *@j6@?HG3I@\HS @.G?Yw@%^{?-O@iV?M|k ~?M]Z?w?6+a?u(@??N??{68?h+~7?gp*f?|N-kB?"rg?RE)B?/[b?18?H':?W+?K?b/:'?j#q,?e?Q s4x%?B&?;CYJ(?lG#?-@?K(?0%'?aL?yS%?Hk($?Q)E:?Df7Q?m=Se?S~~&?!C?tbS?`)? +?f6?,*???pr?0Q>*?5K~9?A?D6"&U?B?=|%?m3@?T`?6qh?z.Vu?l^e? u??h7?Dg?T!?TBu
|?0e?h?*P~TL@{O?%;M@i"?E?L	@                                                                                                                                                                                                >                                                                                                                                                                                                                                                                                                                                                                                                                                                                                                                                                                                                                                                                                                                                                                                                                                                                                                                                                                                                                                                                                                                                                                                                                                                                                                                                                                                                                                                                                                                                                                                                                                                                                                >                                                                                                                                                                                                                                                                                                                                                                                                                                                                                                                                                                                                                                                                                                                                                                                                                                                                                                                                                                                                                                                                                                                                                                                                                                                                                                                                                                                                                                                                                HXD.O??r-Ps}vu0!?>Jd?4"?noy87_t?SCy?mm4?L|?zw0&]V[:?.;?m<;K?:8Dt,j?$6HBg?u"	a_?-o
u??	6lJE`S#l5Ov?*y'D?$F??hH7-WCHk?_ ?      ?eHf?G`%v(@+?Ot@apLb,xP@2n^z??? 'z?~v$?v[1	o?|2.?l?D?Nj?G1$?y$wf?3WI?8D?`"t?~?;=NAr?o'ty`X"!L&?G_c@L@K@jo\%@$(J@#7dfV?AR?fH?XT?q'#P?)KU?bR?7[l"72?mA?+JcA??2xC?/|C?fZa8?ns`C?R&@?F:?A?p@?xC?6LE?:5N/D?l#WE?@A?JB}?C6?JH?v;?^$M?A+?$I&??*0?11[xD?|w?^Z?9wu?Ex?EV?ZZ?%K?2:r?3C0?4c?-^?Q$? ^Y?3?e4~'?
?cp?d'u	|?yE4j6+@
`.?f&@vPs
@sKz?M{a}@
O?E@-Ko@i:"(?tR)#?m?@O%?LkDs"?^jv&?J3Lt]?K?gzp/`?_vIO?yW 
?
?Iym?S(?|*g??y?xIHw>X?n%(?A6&>n*?dA`b?aI>DLz?ksW>7P?OM>'`?6?d!bO(?i>4A ?vL>?>s?&?|aV ?8>!?pZ?Q[	f?#2M}?QN}?)o?%/"!q?/B(U?py?WE?}8v?p?o)?' S?p8U?W?n?@_V?rQK[?/q.:m?m]?Hssx?m7?P;|?u?hA9b?t?}[f$)q?|;q?]uAg?wy.??                                                                                                                                                                                                                        >                                                                                                                                                                                                                                                                                                                                                                                                                                                                                                                                                                                                                                                                                                                                                                                                                                                                                                                                                                                                                                                                                                                                                                                                                                                                                                                                                                                                                                                                y(N6@ZR:?E:AX?0)a&M??+ .L?E}'iJG
?PF].{"?g"%H`Q[?M?f;D<
H|?ouLG ?z6Md\?$w?[{g-td(\An?lg E?&?&z?hcn?lP
?qJf>&?      ?#}h.?
&69N4@@Q.??**@%?rM?~.(?A?4?3?*->k|?Yq?=wM @2r?#C@|]?: B @	?gJ4?e<K@B:LkN7
( R?\ ?bEiz@zK+@@>b@o4%2@_H@fn)8?go{Qm?Gb8?6v?Et?ko}?XBH?CX?F`OZS?6lk_N?}l~M?Ab9K?:\?U'`?~MF?@tSE?pz^?FD?"&Je?3M? fR?
V?d){?s	b@6t?:Y5?Ad1?xs?BW??7Wm?sK]~l?8y?dH?IzI?e0B?$ ?s?KS?l?rQ?Wix?RA?hz?yAY??R UXlM*>,\aao?h>#?`v<?CCf@\@DnqO@p^5@%g @B8P@@Z0_@'R@|O?qU?g?T6b?j?
Qh?JFvB?<fr;?M5TpT6?}|{J^5?AKxr?`zI?2Ks?}?Hr)H?"ul?w}^<?T[J_?3.?8^?:l%?mrkO1?tR-?|Uj(?X9W#?K\n:&?lJ-!?k/aA?6p(?0 &?9?H6)?IJw%?';?(X_?2tq?*i#?TewzL?6Iaa?O:aW0?ly*(3?;J?5"?4^WXp?B?PW?@m,?u"?sU?9?I[?a=?%yh?1a?2%nc?v?()?97?H?Ze?H!|?edVw?;.ud??/`A,6M 'n?hS@s @e V @X @                                                                                                                                                                                                                                        >                                                                                                                                                                                                                                                                                                                                                                                                                                                                                                                                                                                                                                                                                                                                                                                                                                                                                                                                                                                                                                                                                                                                                                                                                                                                                                                                                                                                                                                +@PI?*?pg|_V?X?VAtsmpF@?*?zY52yD5?|7g?.p1?;xp?c030?_?
|b9M;?}H-?0>@?j-{?:x0?ILo,'lms?&ZS?vZ+g?yR{iB?D	?*ArxZ/bEAv?rW?a|?*^?      ?%k|?T&6@oMAf @RX0@%r?6Qv,?cG?^ wXw?Ki2%?2	qJ?gP?={?Q&@!C?:C.4@* ?yP@xv3'l?Sw@LUE%0nlh"9@V?!&f@"F2@~	a(@e@D1@lV;3]$&u)?;? 3?)cn? ?,m^`?3?L	6<w?M(cv?@A@l?Vq0n?Jsg?'[?N91nr???;r?
m?3s?&7c?Xoh?5`iTh?x W?%@cS?V @>[%R?r5z"?q?0$m?9/z????t.?V2m?f?`Mc?07o? *	k@7ADX?K@@?`?x-Wf?Y?T?R?zSb6&[Z"jf}?2?u78m)a|C?$jp@L @qV@P)/@z0@kV@^TW@R3@:?3{??keMy?tl:q?5{?OQc?oac?0#,{X?70Y?zE?xca?.-FfV?J_a?i}?(U?V7S? RrL?
nH?R>`Zb?84AM?0 wN?*C?:	K?(<V*L?sIaB?gc?z@Q.bL?}{+K?mE?UfX?AMB?n[?Z7Jn?mc?(eNK?wJa?`<9o?COH?
+ I?&u@
G?@?k[?A[x?>jA?=Qk?.L?r?|}%?16??%n?A? ^?:8 ?6!? o!?|l?HGV?Cc?u:?.ba1?DP_{@}?A%b@Lu::#@JAEL@xY+@OeV?H7Z]?Xu\Nw?O@{U2Oai3?!>2XEF?D^ 5[?!hv#F]L?b(?WT0?;?s1F#kVe,z + }??x^6jr}*v\?^H?>m1w*)?
a?[.#}306(?[|?"
^lu|x{?Z'?hZ      ?cKx/?Ms_6@5h X@2@"?XK:uF?uA?[_Y|?iB?\	??2?j+@!D#?!Z@G=?;Aw@V'?tPdib]^mf-^EOML@\{?*l}@C@Wrf@,@6J(Q?f)?c?-\?p? 6(5`?5mu?ulf?'Vg?*y\?=U]?oV?X2o?7f?X?`u?Q
f?hJ?8k?4oS?b"qZ?[??L-]!@*eI?S@zyQC?q%?n?%fE	f?a6)?>x?%?8)?`IB@?a!tm^?eEu?qE?r~F<@ep4:?@x?r94?qqGX?}$R(?AAg @raqrw|HF^XN@({@St@42@0*4\@@a!y?asuB\@y?ACB@	0?n*iv?^J?Lpt?hl?}Y
y?8JQ\?X]?qQ?srR?^?SM[?;/?6{'[?X+?:b6P?]C6+?
$JC?:N$?2Zs5?CWoC?@}$7)?[Z:?C?aM0D?\K7?hP)_?1oB?nD?6h&?S2?mSl7?1tz}FU?
U]z?WAS1?lBC?^)!L\?;O{?KA?T*@B?yZc@@	g&?
QM?*?uH?-]?]	Y.? fgK?OZ?:EB?}#??5hA??{n?7[7s?*+?@v?Ls3?f#Bl?<YUL??U;;e?Z5&?o6|TUVvF,yj@6\5? 	@
Q @                                                                                                                                                                                                                                                                >                                                                                                                                                                                                                                                                                                                                                                                                                                                                                                                                                                                                                                                                                                                                                                                                                                                                                                                                                                                                                                                                                                                                                                                                                                                                                                                                                                                                                                                                                                                                                                                                                                                                                                >                                                                                                                                                                                                                                                                                                                                                                                                                                                                                                                                                                                                                                                                                                                                                                                                                                                                                                                                                                                                                                                                                                                                                                                                                                                                                                                                                                                                                                                                                                                                                                                                                                                                                                >                                                                                                                                                                                                                                                                                                                                                                                                                                                                                                                                                                                                                                                                                                                                                                                                                                                                                                                                                                                                                                                                                                                                                                                                                                                                                                                                                                                                                                                                                                                                                                                                                                                                                                >                                                                                                                                                                                                                                                                                                                                                                                                                                                                                                                                                                                                                                                                                                                                                                                                                                                                                                                                                                                                                                                                                                                                                                                                                                                                                                                                                                                                %l8O8u?+?0p??a$P*@?E 8+e]Vk]?Fc |l`?U$nlQ8t(	~?-o|?Om?=YA%~}J Z?PES?g$D}?6?	^?!Q7^;xp@?n?:[?I#Y|]??j[+j9tD?xP[? L      ?s?Hz5@2zboF@Q+@\[9d?J?F=??_^??Y?K}?/ec#@(?> P@L\<?G1@tMF?dyV*y@9XQRvt?F?1jo2}@}Ja@Y_jd@l>%@NR)2/3Eb?[Yp?k&?A]u?Jl?\{?*T:?JTW?^R?RN?)}F?F%
I?>?:J6Z?"nIe?
$6?X?|E1?O a?!iKH?e2]M?Dv(Q?k7&?Fm"@,0d?Nl/??\'ca?$$?
?>v?"/s?!oz?Qo?</o?cO?vkv t?**?&gm?8:#?~ ?YE?(?|?XqH?--EG`i< ;?	Oqh%bYWK&y0?zaMj@&@]stR@XoO@M?bNN2S@{	?F&Tl&@+?+h_?eqw?LXM2d?VF~?WLJi?`E?Pp@?j~-<?kwl3?A}?<IH?4>?fG?~_w?i;?Z7V?AUo0? w?h o ?1?;?oK(?40	*#?Ze
^&?{$I%?hG?z
+?mwm(?>F?$k%!? tTt&?n<A?3i?f()XC}?55S*&?VA"O?gk?I|r-?O)*.0?4;3 @	Z5?rb:X?c'.?Zj?}?eZ2X??/AW?U2\8?j1{?m$W?0?tCM? DO?z|.c?B?T?=?>N?O6@Jh?|{?~]?~Y6?`Xd)XgQ:YBdX@m5 ?@Q"P-?#m@                                                                                                                                                                                                                                                                                                        >                                                                                                                                                                                                                                                                                                                                                                                                                                                                                                                                                                                                                                                                                                                                                                                                                                                                                                                                                                                                                                                                                                                                                                                                                                                                                                                                                                                \)>?Iy?[5Kz!nK'~<S?\%~(<2?ot>Ahmv?@@?+)Q?>?B?tAJf?vf?]1gD],T?$n}fiA&	!j?o[=({g:?94?YeTBAO ?jd|jx$joF? M?z^J+?;X.\A      ?jj@?f6@Q>#+M@
0@\&?BZ/?L5?j|?av?7	y?5?M?VeYa)@s;?^@ b?R@}I!o?A>]mNZ'%K>c@85i?Y@z.0@-FQ|g@60@[Ams?U}A?$T?N~5?{^y?? (?
