MTP
version = 1.1.0
potential_name = MTP1m
scaling = 4.544885447791561e-02
species_count = 1
potential_tag = 
radial_basis_type = RBChebyshev
	min_dist = 2.357687107864201e+00
	max_dist = 7.000000000000000e+00
	radial_basis_size = 8
	radial_funcs_count = 5
	radial_coeffs
		0-0
			{2.890941638609891e-01, 5.699876413449007e-01, 5.328611904362590e-01, 4.557212304978870e-01, 2.754609109187982e-01, 1.446700483221741e-01, 5.024712714598653e-02, 2.414236988694185e-02}
			{-7.799316411754516e-01, -2.905747286262809e-01, 2.910104174951030e-01, 3.616015767380292e-01, 1.330823892119649e-01, 2.572009008414787e-01, -7.531904558858435e-02, 4.789586252087733e-02}
			{-3.950450945340261e-02, 9.620550460765959e-02, 8.581933238286278e-02, -5.440905168511724e-01, 1.273525563394995e-01, 7.044328377498471e-01, 4.142693837734715e-01, 4.148525809797798e-02}
			{4.334573780258179e-01, -7.320518757533313e-01, 3.234385610212555e-01, 6.169929093671652e-02, 3.269689610373142e-01, -5.203362128018887e-02, 2.226286216357816e-01, -9.282103310467847e-02}
			{7.796787164781940e-02, -8.418127877266315e-02, 6.325701850465563e-01, -3.360280424101593e-01, -5.187287382848003e-01, 1.290663712481457e-02, -4.237046116355508e-01, 1.581232274949662e-01}
alpha_moments_count = 1352
alpha_index_basic_count = 295
alpha_index_basic = {{0, 0, 0, 0}, {0, 1, 0, 0}, {0, 0, 1, 0}, {0, 0, 0, 1}, {0, 2, 0, 0}, {0, 1, 1, 0}, {0, 1, 0, 1}, {0, 0, 2, 0}, {0, 0, 1, 1}, {0, 0, 0, 2}, {0, 3, 0, 0}, {0, 2, 1, 0}, {0, 2, 0, 1}, {0, 1, 2, 0}, {0, 1, 1, 1}, {0, 1, 0, 2}, {0, 0, 3, 0}, {0, 0, 2, 1}, {0, 0, 1, 2}, {0, 0, 0, 3}, {0, 4, 0, 0}, {0, 3, 1, 0}, {0, 3, 0, 1}, {0, 2, 2, 0}, {0, 2, 1, 1}, {0, 2, 0, 2}, {0, 1, 3, 0}, {0, 1, 2, 1}, {0, 1, 1, 2}, {0, 1, 0, 3}, {0, 0, 4, 0}, {0, 0, 3, 1}, {0, 0, 2, 2}, {0, 0, 1, 3}, {0, 0, 0, 4}, {0, 5, 0, 0}, {0, 4, 1, 0}, {0, 4, 0, 1}, {0, 3, 2, 0}, {0, 3, 1, 1}, {0, 3, 0, 2}, {0, 2, 3, 0}, {0, 2, 2, 1}, {0, 2, 1, 2}, {0, 2, 0, 3}, {0, 1, 4, 0}, {0, 1, 3, 1}, {0, 1, 2, 2}, {0, 1, 1, 3}, {0, 1, 0, 4}, {0, 0, 5, 0}, {0, 0, 4, 1}, {0, 0, 3, 2}, {0, 0, 2, 3}, {0, 0, 1, 4}, {0, 0, 0, 5}, {0, 6, 0, 0}, {0, 5, 1, 0}, {0, 5, 0, 1}, {0, 4, 2, 0}, {0, 4, 1, 1}, {0, 4, 0, 2}, {0, 3, 3, 0}, {0, 3, 2, 1}, {0, 3, 1, 2}, {0, 3, 0, 3}, {0, 2, 4, 0}, {0, 2, 3, 1}, {0, 2, 2, 2}, {0, 2, 1, 3}, {0, 2, 0, 4}, {0, 1, 5, 0}, {0, 1, 4, 1}, {0, 1, 3, 2}, {0, 1, 2, 3}, {0, 1, 1, 4}, {0, 1, 0, 5}, {0, 0, 6, 0}, {0, 0, 5, 1}, {0, 0, 4, 2}, {0, 0, 3, 3}, {0, 0, 2, 4}, {0, 0, 1, 5}, {0, 0, 0, 6}, {0, 7, 0, 0}, {0, 6, 1, 0}, {0, 6, 0, 1}, {0, 5, 2, 0}, {0, 5, 1, 1}, {0, 5, 0, 2}, {0, 4, 3, 0}, {0, 4, 2, 1}, {0, 4, 1, 2}, {0, 4, 0, 3}, {0, 3, 4, 0}, {0, 3, 3, 1}, {0, 3, 2, 2}, {0, 3, 1, 3}, {0, 3, 0, 4}, {0, 2, 5, 0}, {0, 2, 4, 1}, {0, 2, 3, 2}, {0, 2, 2, 3}, {0, 2, 1, 4}, {0, 2, 0, 5}, {0, 1, 6, 0}, {0, 1, 5, 1}, {0, 1, 4, 2}, {0, 1, 3, 3}, {0, 1, 2, 4}, {0, 1, 1, 5}, {0, 1, 0, 6}, {0, 0, 7, 0}, {0, 0, 6, 1}, {0, 0, 5, 2}, {0, 0, 4, 3}, {0, 0, 3, 4}, {0, 0, 2, 5}, {0, 0, 1, 6}, {0, 0, 0, 7}, {0, 8, 0, 0}, {0, 7, 1, 0}, {0, 7, 0, 1}, {0, 6, 2, 0}, {0, 6, 1, 1}, {0, 6, 0, 2}, {0, 5, 3, 0}, {0, 5, 2, 1}, {0, 5, 1, 2}, {0, 5, 0, 3}, {0, 4, 4, 0}, {0, 4, 3, 1}, {0, 4, 2, 2}, {0, 4, 1, 3}, {0, 4, 0, 4}, {0, 3, 5, 0}, {0, 3, 4, 1}, {0, 3, 3, 2}, {0, 3, 2, 3}, {0, 3, 1, 4}, {0, 3, 0, 5}, {0, 2, 6, 0}, {0, 2, 5, 1}, {0, 2, 4, 2}, {0, 2, 3, 3}, {0, 2, 2, 4}, {0, 2, 1, 5}, {0, 2, 0, 6}, {0, 1, 7, 0}, {0, 1, 6, 1}, {0, 1, 5, 2}, {0, 1, 4, 3}, {0, 1, 3, 4}, {0, 1, 2, 5}, {0, 1, 1, 6}, {0, 1, 0, 7}, {0, 0, 8, 0}, {0, 0, 7, 1}, {0, 0, 6, 2}, {0, 0, 5, 3}, {0, 0, 4, 4}, {0, 0, 3, 5}, {0, 0, 2, 6}, {0, 0, 1, 7}, {0, 0, 0, 8}, {1, 0, 0, 0}, {1, 1, 0, 0}, {1, 0, 1, 0}, {1, 0, 0, 1}, {1, 2, 0, 0}, {1, 1, 1, 0}, {1, 1, 0, 1}, {1, 0, 2, 0}, {1, 0, 1, 1}, {1, 0, 0, 2}, {1, 3, 0, 0}, {1, 2, 1, 0}, {1, 2, 0, 1}, {1, 1, 2, 0}, {1, 1, 1, 1}, {1, 1, 0, 2}, {1, 0, 3, 0}, {1, 0, 2, 1}, {1, 0, 1, 2}, {1, 0, 0, 3}, {1, 4, 0, 0}, {1, 3, 1, 0}, {1, 3, 0, 1}, {1, 2, 2, 0}, {1, 2, 1, 1}, {1, 2, 0, 2}, {1, 1, 3, 0}, {1, 1, 2, 1}, {1, 1, 1, 2}, {1, 1, 0, 3}, {1, 0, 4, 0}, {1, 0, 3, 1}, {1, 0, 2, 2}, {1, 0, 1, 3}, {1, 0, 0, 4}, {1, 5, 0, 0}, {1, 4, 1, 0}, {1, 4, 0, 1}, {1, 3, 2, 0}, {1, 3, 1, 1}, {1, 3, 0, 2}, {1, 2, 3, 0}, {1, 2, 2, 1}, {1, 2, 1, 2}, {1, 2, 0, 3}, {1, 1, 4, 0}, {1, 1, 3, 1}, {1, 1, 2, 2}, {1, 1, 1, 3}, {1, 1, 0, 4}, {1, 0, 5, 0}, {1, 0, 4, 1}, {1, 0, 3, 2}, {1, 0, 2, 3}, {1, 0, 1, 4}, {1, 0, 0, 5}, {1, 6, 0, 0}, {1, 5, 1, 0}, {1, 5, 0, 1}, {1, 4, 2, 0}, {1, 4, 1, 1}, {1, 4, 0, 2}, {1, 3, 3, 0}, {1, 3, 2, 1}, {1, 3, 1, 2}, {1, 3, 0, 3}, {1, 2, 4, 0}, {1, 2, 3, 1}, {1, 2, 2, 2}, {1, 2, 1, 3}, {1, 2, 0, 4}, {1, 1, 5, 0}, {1, 1, 4, 1}, {1, 1, 3, 2}, {1, 1, 2, 3}, {1, 1, 1, 4}, {1, 1, 0, 5}, {1, 0, 6, 0}, {1, 0, 5, 1}, {1, 0, 4, 2}, {1, 0, 3, 3}, {1, 0, 2, 4}, {1, 0, 1, 5}, {1, 0, 0, 6}, {2, 0, 0, 0}, {2, 1, 0, 0}, {2, 0, 1, 0}, {2, 0, 0, 1}, {2, 2, 0, 0}, {2, 1, 1, 0}, {2, 1, 0, 1}, {2, 0, 2, 0}, {2, 0, 1, 1}, {2, 0, 0, 2}, {2, 3, 0, 0}, {2, 2, 1, 0}, {2, 2, 0, 1}, {2, 1, 2, 0}, {2, 1, 1, 1}, {2, 1, 0, 2}, {2, 0, 3, 0}, {2, 0, 2, 1}, {2, 0, 1, 2}, {2, 0, 0, 3}, {2, 4, 0, 0}, {2, 3, 1, 0}, {2, 3, 0, 1}, {2, 2, 2, 0}, {2, 2, 1, 1}, {2, 2, 0, 2}, {2, 1, 3, 0}, {2, 1, 2, 1}, {2, 1, 1, 2}, {2, 1, 0, 3}, {2, 0, 4, 0}, {2, 0, 3, 1}, {2, 0, 2, 2}, {2, 0, 1, 3}, {2, 0, 0, 4}, {3, 0, 0, 0}, {3, 1, 0, 0}, {3, 0, 1, 0}, {3, 0, 0, 1}, {3, 2, 0, 0}, {3, 1, 1, 0}, {3, 1, 0, 1}, {3, 0, 2, 0}, {3, 0, 1, 1}, {3, 0, 0, 2}, {4, 0, 0, 0}}
alpha_index_times_count = 6349
alpha_index_times = {{0, 0, 1, 295}, {1, 1, 1, 296}, {2, 2, 1, 296}, {3, 3, 1, 296}, {1, 4, 1, 297}, {2, 5, 1, 297}, {3, 6, 1, 297}, {1, 5, 1, 298}, {2, 7, 1, 298}, {3, 8, 1, 298}, {1, 6, 1, 299}, {2, 8, 1, 299}, {3, 9, 1, 299}, {1, 10, 1, 300}, {2, 11, 1, 300}, {3, 12, 1, 300}, {1, 11, 1, 301}, {2, 13, 1, 301}, {3, 14, 1, 301}, {1, 12, 1, 302}, {2, 14, 1, 302}, {3, 15, 1, 302}, {1, 13, 1, 303}, {2, 16, 1, 303}, {3, 17, 1, 303}, {1, 14, 1, 304}, {2, 17, 1, 304}, {3, 18, 1, 304}, {1, 15, 1, 305}, {2, 18, 1, 305}, {3, 19, 1, 305}, {4, 4, 1, 306}, {5, 5, 1, 306}, {6, 6, 1, 306}, {4, 5, 1, 307}, {5, 7, 1, 307}, {6, 8, 1, 307}, {4, 6, 1, 308}, {5, 8, 1, 308}, {6, 9, 1, 308}, {5, 5, 1, 309}, {7, 7, 1, 309}, {8, 8, 1, 309}, {5, 6, 1, 310}, {7, 8, 1, 310}, {8, 9, 1, 310}, {6, 6, 1, 311}, {8, 8, 1, 311}, {9, 9, 1, 311}, {4, 10, 1, 312}, {5, 11, 1, 312}, {6, 12, 1, 312}, {4, 11, 1, 313}, {5, 13, 1, 313}, {6, 14, 1, 313}, {4, 12, 1, 314}, {5, 14, 1, 314}, {6, 15, 1, 314}, {4, 13, 1, 315}, {5, 16, 1, 315}, {6, 17, 1, 315}, {4, 14, 1, 316}, {5, 17, 1, 316}, {6, 18, 1, 316}, {4, 15, 1, 317}, {5, 18, 1, 317}, {6, 19, 1, 317}, {5, 10, 1, 318}, {7, 11, 1, 318}, {8, 12, 1, 318}, {5, 11, 1, 319}, {7, 13, 1, 319}, {8, 14, 1, 319}, {5, 12, 1, 320}, {7, 14, 1, 320}, {8, 15, 1, 320}, {5, 13, 1, 321}, {7, 16, 1, 321}, {8, 17, 1, 321}, {5, 14, 1, 322}, {7, 17, 1, 322}, {8, 18, 1, 322}, {5, 15, 1, 323}, {7, 18, 1, 323}, {8, 19, 1, 323}, {6, 10, 1, 324}, {8, 11, 1, 324}, {9, 12, 1, 324}, {6, 11, 1, 325}, {8, 13, 1, 325}, {9, 14, 1, 325}, {6, 12, 1, 326}, {8, 14, 1, 326}, {9, 15, 1, 326}, {6, 13, 1, 327}, {8, 16, 1, 327}, {9, 17, 1, 327}, {6, 14, 1, 328}, {8, 17, 1, 328}, {9, 18, 1, 328}, {6, 15, 1, 329}, {8, 18, 1, 329}, {9, 19, 1, 329}, {4, 20, 1, 330}, {5, 21, 1, 330}, {6, 22, 1, 330}, {4, 21, 1, 331}, {5, 23, 1, 331}, {6, 24, 1, 331}, {4, 22, 1, 332}, {5, 24, 1, 332}, {6, 25, 1, 332}, {4, 23, 1, 333}, {5, 26, 1, 333}, {6, 27, 1, 333}, {4, 24, 1, 334}, {5, 27, 1, 334}, {6, 28, 1, 334}, {4, 25, 1, 335}, {5, 28, 1, 335}, {6, 29, 1, 335}, {4, 26, 1, 336}, {5, 30, 1, 336}, {6, 31, 1, 336}, {4, 27, 1, 337}, {5, 31, 1, 337}, {6, 32, 1, 337}, {4, 28, 1, 338}, {5, 32, 1, 338}, {6, 33, 1, 338}, {4, 29, 1, 339}, {5, 33, 1, 339}, {6, 34, 1, 339}, {5, 20, 1, 340}, {7, 21, 1, 340}, {8, 22, 1, 340}, {5, 21, 1, 341}, {7, 23, 1, 341}, {8, 24, 1, 341}, {5, 22, 1, 342}, {7, 24, 1, 342}, {8, 25, 1, 342}, {5, 23, 1, 343}, {7, 26, 1, 343}, {8, 27, 1, 343}, {5, 24, 1, 344}, {7, 27, 1, 344}, {8, 28, 1, 344}, {5, 25, 1, 345}, {7, 28, 1, 345}, {8, 29, 1, 345}, {5, 26, 1, 346}, {7, 30, 1, 346}, {8, 31, 1, 346}, {5, 27, 1, 347}, {7, 31, 1, 347}, {8, 32, 1, 347}, {5, 28, 1, 348}, {7, 32, 1, 348}, {8, 33, 1, 348}, {5, 29, 1, 349}, {7, 33, 1, 349}, {8, 34, 1, 349}, {6, 20, 1, 350}, {8, 21, 1, 350}, {9, 22, 1, 350}, {6, 21, 1, 351}, {8, 23, 1, 351}, {9, 24, 1, 351}, {6, 22, 1, 352}, {8, 24, 1, 352}, {9, 25, 1, 352}, {6, 23, 1, 353}, {8, 26, 1, 353}, {9, 27, 1, 353}, {6, 24, 1, 354}, {8, 27, 1, 354}, {9, 28, 1, 354}, {6, 25, 1, 355}, {8, 28, 1, 355}, {9, 29, 1, 355}, {6, 26, 1, 356}, {8, 30, 1, 356}, {9, 31, 1, 356}, {6, 27, 1, 357}, {8, 31, 1, 357}, {9, 32, 1, 357}, {6, 28, 1, 358}, {8, 32, 1, 358}, {9, 33, 1, 358}, {6, 29, 1, 359}, {8, 33, 1, 359}, {9, 34, 1, 359}, {4, 4, 1, 360}, {5, 5, 2, 360}, {6, 6, 2, 360}, {7, 7, 1, 360}, {8, 8, 2, 360}, {9, 9, 1, 360}, {4, 10, 1, 361}, {5, 11, 2, 361}, {6, 12, 2, 361}, {7, 13, 1, 361}, {8, 14, 2, 361}, {9, 15, 1, 361}, {4, 11, 1, 362}, {5, 13, 2, 362}, {6, 14, 2, 362}, {7, 16, 1, 362}, {8, 17, 2, 362}, {9, 18, 1, 362}, {4, 12, 1, 363}, {5, 14, 2, 363}, {6, 15, 2, 363}, {7, 17, 1, 363}, {8, 18, 2, 363}, {9, 19, 1, 363}, {4, 20, 1, 364}, {5, 21, 2, 364}, {6, 22, 2, 364}, {7, 23, 1, 364}, {8, 24, 2, 364}, {9, 25, 1, 364}, {4, 21, 1, 365}, {5, 23, 2, 365}, {6, 24, 2, 365}, {7, 26, 1, 365}, {8, 27, 2, 365}, {9, 28, 1, 365}, {4, 22, 1, 366}, {5, 24, 2, 366}, {6, 25, 2, 366}, {7, 27, 1, 366}, {8, 28, 2, 366}, {9, 29, 1, 366}, {4, 23, 1, 367}, {5, 26, 2, 367}, {6, 27, 2, 367}, {7, 30, 1, 367}, {8, 31, 2, 367}, {9, 32, 1, 367}, {4, 24, 1, 368}, {5, 27, 2, 368}, {6, 28, 2, 368}, {7, 31, 1, 368}, {8, 32, 2, 368}, {9, 33, 1, 368}, {4, 25, 1, 369}, {5, 28, 2, 369}, {6, 29, 2, 369}, {7, 32, 1, 369}, {8, 33, 2, 369}, {9, 34, 1, 369}, {4, 35, 1, 370}, {5, 36, 2, 370}, {6, 37, 2, 370}, {7, 38, 1, 370}, {8, 39, 2, 370}, {9, 40, 1, 370}, {4, 36, 1, 371}, {5, 38, 2, 371}, {6, 39, 2, 371}, {7, 41, 1, 371}, {8, 42, 2, 371}, {9, 43, 1, 371}, {4, 37, 1, 372}, {5, 39, 2, 372}, {6, 40, 2, 372}, {7, 42, 1, 372}, {8, 43, 2, 372}, {9, 44, 1, 372}, {4, 38, 1, 373}, {5, 41, 2, 373}, {6, 42, 2, 373}, {7, 45, 1, 373}, {8, 46, 2, 373}, {9, 47, 1, 373}, {4, 39, 1, 374}, {5, 42, 2, 374}, {6, 43, 2, 374}, {7, 46, 1, 374}, {8, 47, 2, 374}, {9, 48, 1, 374}, {4, 40, 1, 375}, {5, 43, 2, 375}, {6, 44, 2, 375}, {7, 47, 1, 375}, {8, 48, 2, 375}, {9, 49, 1, 375}, {4, 41, 1, 376}, {5, 45, 2, 376}, {6, 46, 2, 376}, {7, 50, 1, 376}, {8, 51, 2, 376}, {9, 52, 1, 376}, {4, 42, 1, 377}, {5, 46, 2, 377}, {6, 47, 2, 377}, {7, 51, 1, 377}, {8, 52, 2, 377}, {9, 53, 1, 377}, {4, 43, 1, 378}, {5, 47, 2, 378}, {6, 48, 2, 378}, {7, 52, 1, 378}, {8, 53, 2, 378}, {9, 54, 1, 378}, {4, 44, 1, 379}, {5, 48, 2, 379}, {6, 49, 2, 379}, {7, 53, 1, 379}, {8, 54, 2, 379}, {9, 55, 1, 379}, {4, 56, 1, 380}, {5, 57, 2, 380}, {6, 58, 2, 380}, {7, 59, 1, 380}, {8, 60, 2, 380}, {9, 61, 1, 380}, {4, 57, 1, 381}, {5, 59, 2, 381}, {6, 60, 2, 381}, {7, 62, 1, 381}, {8, 63, 2, 381}, {9, 64, 1, 381}, {4, 58, 1, 382}, {5, 60, 2, 382}, {6, 61, 2, 382}, {7, 63, 1, 382}, {8, 64, 2, 382}, {9, 65, 1, 382}, {4, 59, 1, 383}, {5, 62, 2, 383}, {6, 63, 2, 383}, {7, 66, 1, 383}, {8, 67, 2, 383}, {9, 68, 1, 383}, {4, 60, 1, 384}, {5, 63, 2, 384}, {6, 64, 2, 384}, {7, 67, 1, 384}, {8, 68, 2, 384}, {9, 69, 1, 384}, {4, 61, 1, 385}, {5, 64, 2, 385}, {6, 65, 2, 385}, {7, 68, 1, 385}, {8, 69, 2, 385}, {9, 70, 1, 385}, {4, 62, 1, 386}, {5, 66, 2, 386}, {6, 67, 2, 386}, {7, 71, 1, 386}, {8, 72, 2, 386}, {9, 73, 1, 386}, {4, 63, 1, 387}, {5, 67, 2, 387}, {6, 68, 2, 387}, {7, 72, 1, 387}, {8, 73, 2, 387}, {9, 74, 1, 387}, {4, 64, 1, 388}, {5, 68, 2, 388}, {6, 69, 2, 388}, {7, 73, 1, 388}, {8, 74, 2, 388}, {9, 75, 1, 388}, {4, 65, 1, 389}, {5, 69, 2, 389}, {6, 70, 2, 389}, {7, 74, 1, 389}, {8, 75, 2, 389}, {9, 76, 1, 389}, {4, 66, 1, 390}, {5, 71, 2, 390}, {6, 72, 2, 390}, {7, 77, 1, 390}, {8, 78, 2, 390}, {9, 79, 1, 390}, {4, 67, 1, 391}, {5, 72, 2, 391}, {6, 73, 2, 391}, {7, 78, 1, 391}, {8, 79, 2, 391}, {9, 80, 1, 391}, {4, 68, 1, 392}, {5, 73, 2, 392}, {6, 74, 2, 392}, {7, 79, 1, 392}, {8, 80, 2, 392}, {9, 81, 1, 392}, {4, 69, 1, 393}, {5, 74, 2, 393}, {6, 75, 2, 393}, {7, 80, 1, 393}, {8, 81, 2, 393}, {9, 82, 1, 393}, {4, 70, 1, 394}, {5, 75, 2, 394}, {6, 76, 2, 394}, {7, 81, 1, 394}, {8, 82, 2, 394}, {9, 83, 1, 394}, {10, 10, 1, 395}, {11, 11, 1, 395}, {12, 12, 1, 395}, {10, 11, 1, 396}, {11, 13, 1, 396}, {12, 14, 1, 396}, {10, 12, 1, 397}, {11, 14, 1, 397}, {12, 15, 1, 397}, {10, 13, 1, 398}, {11, 16, 1, 398}, {12, 17, 1, 398}, {10, 14, 1, 399}, {11, 17, 1, 399}, {12, 18, 1, 399}, {10, 15, 1, 400}, {11, 18, 1, 400}, {12, 19, 1, 400}, {11, 11, 1, 401}, {13, 13, 1, 401}, {14, 14, 1, 401}, {11, 12, 1, 402}, {13, 14, 1, 402}, {14, 15, 1, 402}, {11, 13, 1, 403}, {13, 16, 1, 403}, {14, 17, 1, 403}, {11, 14, 1, 404}, {13, 17, 1, 404}, {14, 18, 1, 404}, {11, 15, 1, 405}, {13, 18, 1, 405}, {14, 19, 1, 405}, {12, 12, 1, 406}, {14, 14, 1, 406}, {15, 15, 1, 406}, {12, 13, 1, 407}, {14, 16, 1, 407}, {15, 17, 1, 407}, {12, 14, 1, 408}, {14, 17, 1, 408}, {15, 18, 1, 408}, {12, 15, 1, 409}, {14, 18, 1, 409}, {15, 19, 1, 409}, {13, 13, 1, 410}, {16, 16, 1, 410}, {17, 17, 1, 410}, {13, 14, 1, 411}, {16, 17, 1, 411}, {17, 18, 1, 411}, {13, 15, 1, 412}, {16, 18, 1, 412}, {17, 19, 1, 412}, {14, 14, 1, 413}, {17, 17, 1, 413}, {18, 18, 1, 413}, {14, 15, 1, 414}, {17, 18, 1, 414}, {18, 19, 1, 414}, {15, 15, 1, 415}, {18, 18, 1, 415}, {19, 19, 1, 415}, {10, 10, 1, 416}, {11, 11, 2, 416}, {12, 12, 2, 416}, {13, 13, 1, 416}, {14, 14, 2, 416}, {15, 15, 1, 416}, {10, 11, 1, 417}, {11, 13, 2, 417}, {12, 14, 2, 417}, {13, 16, 1, 417}, {14, 17, 2, 417}, {15, 18, 1, 417}, {10, 12, 1, 418}, {11, 14, 2, 418}, {12, 15, 2, 418}, {13, 17, 1, 418}, {14, 18, 2, 418}, {15, 19, 1, 418}, {11, 11, 1, 419}, {13, 13, 2, 419}, {14, 14, 2, 419}, {16, 16, 1, 419}, {17, 17, 2, 419}, {18, 18, 1, 419}, {11, 12, 1, 420}, {13, 14, 2, 420}, {14, 15, 2, 420}, {16, 17, 1, 420}, {17, 18, 2, 420}, {18, 19, 1, 420}, {12, 12, 1, 421}, {14, 14, 2, 421}, {15, 15, 2, 421}, {17, 17, 1, 421}, {18, 18, 2, 421}, {19, 19, 1, 421}, {10, 20, 1, 422}, {11, 21, 2, 422}, {12, 22, 2, 422}, {13, 23, 1, 422}, {14, 24, 2, 422}, {15, 25, 1, 422}, {10, 21, 1, 423}, {11, 23, 2, 423}, {12, 24, 2, 423}, {13, 26, 1, 423}, {14, 27, 2, 423}, {15, 28, 1, 423}, {10, 22, 1, 424}, {11, 24, 2, 424}, {12, 25, 2, 424}, {13, 27, 1, 424}, {14, 28, 2, 424}, {15, 29, 1, 424}, {10, 23, 1, 425}, {11, 26, 2, 425}, {12, 27, 2, 425}, {13, 30, 1, 425}, {14, 31, 2, 425}, {15, 32, 1, 425}, {10, 24, 1, 426}, {11, 27, 2, 426}, {12, 28, 2, 426}, {13, 31, 1, 426}, {14, 32, 2, 426}, {15, 33, 1, 426}, {10, 25, 1, 427}, {11, 28, 2, 427}, {12, 29, 2, 427}, {13, 32, 1, 427}, {14, 33, 2, 427}, {15, 34, 1, 427}, {11, 20, 1, 428}, {13, 21, 2, 428}, {14, 22, 2, 428}, {16, 23, 1, 428}, {17, 24, 2, 428}, {18, 25, 1, 428}, {11, 21, 1, 429}, {13, 23, 2, 429}, {14, 24, 2, 429}, {16, 26, 1, 429}, {17, 27, 2, 429}, {18, 28, 1, 429}, {11, 22, 1, 430}, {13, 24, 2, 430}, {14, 25, 2, 430}, {16, 27, 1, 430}, {17, 28, 2, 430}, {18, 29, 1, 430}, {11, 23, 1, 431}, {13, 26, 2, 431}, {14, 27, 2, 431}, {16, 30, 1, 431}, {17, 31, 2, 431}, {18, 32, 1, 431}, {11, 24, 1, 432}, {13, 27, 2, 432}, {14, 28, 2, 432}, {16, 31, 1, 432}, {17, 32, 2, 432}, {18, 33, 1, 432}, {11, 25, 1, 433}, {13, 28, 2, 433}, {14, 29, 2, 433}, {16, 32, 1, 433}, {17, 33, 2, 433}, {18, 34, 1, 433}, {12, 20, 1, 434}, {14, 21, 2, 434}, {15, 22, 2, 434}, {17, 23, 1, 434}, {18, 24, 2, 434}, {19, 25, 1, 434}, {12, 21, 1, 435}, {14, 23, 2, 435}, {15, 24, 2, 435}, {17, 26, 1, 435}, {18, 27, 2, 435}, {19, 28, 1, 435}, {12, 22, 1, 436}, {14, 24, 2, 436}, {15, 25, 2, 436}, {17, 27, 1, 436}, {18, 28, 2, 436}, {19, 29, 1, 436}, {12, 23, 1, 437}, {14, 26, 2, 437}, {15, 27, 2, 437}, {17, 30, 1, 437}, {18, 31, 2, 437}, {19, 32, 1, 437}, {12, 24, 1, 438}, {14, 27, 2, 438}, {15, 28, 2, 438}, {17, 31, 1, 438}, {18, 32, 2, 438}, {19, 33, 1, 438}, {12, 25, 1, 439}, {14, 28, 2, 439}, {15, 29, 2, 439}, {17, 32, 1, 439}, {18, 33, 2, 439}, {19, 34, 1, 439}, {10, 35, 1, 440}, {11, 36, 2, 440}, {12, 37, 2, 440}, {13, 38, 1, 440}, {14, 39, 2, 440}, {15, 40, 1, 440}, {10, 36, 1, 441}, {11, 38, 2, 441}, {12, 39, 2, 441}, {13, 41, 1, 441}, {14, 42, 2, 441}, {15, 43, 1, 441}, {10, 37, 1, 442}, {11, 39, 2, 442}, {12, 40, 2, 442}, {13, 42, 1, 442}, {14, 43, 2, 442}, {15, 44, 1, 442}, {10, 38, 1, 443}, {11, 41, 2, 443}, {12, 42, 2, 443}, {13, 45, 1, 443}, {14, 46, 2, 443}, {15, 47, 1, 443}, {10, 39, 1, 444}, {11, 42, 2, 444}, {12, 43, 2, 444}, {13, 46, 1, 444}, {14, 47, 2, 444}, {15, 48, 1, 444}, {10, 40, 1, 445}, {11, 43, 2, 445}, {12, 44, 2, 445}, {13, 47, 1, 445}, {14, 48, 2, 445}, {15, 49, 1, 445}, {10, 41, 1, 446}, {11, 45, 2, 446}, {12, 46, 2, 446}, {13, 50, 1, 446}, {14, 51, 2, 446}, {15, 52, 1, 446}, {10, 42, 1, 447}, {11, 46, 2, 447}, {12, 47, 2, 447}, {13, 51, 1, 447}, {14, 52, 2, 447}, {15, 53, 1, 447}, {10, 43, 1, 448}, {11, 47, 2, 448}, {12, 48, 2, 448}, {13, 52, 1, 448}, {14, 53, 2, 448}, {15, 54, 1, 448}, {10, 44, 1, 449}, {11, 48, 2, 449}, {12, 49, 2, 449}, {13, 53, 1, 449}, {14, 54, 2, 449}, {15, 55, 1, 449}, {11, 35, 1, 450}, {13, 36, 2, 450}, {14, 37, 2, 450}, {16, 38, 1, 450}, {17, 39, 2, 450}, {18, 40, 1, 450}, {11, 36, 1, 451}, {13, 38, 2, 451}, {14, 39, 2, 451}, {16, 41, 1, 451}, {17, 42, 2, 451}, {18, 43, 1, 451}, {11, 37, 1, 452}, {13, 39, 2, 452}, {14, 40, 2, 452}, {16, 42, 1, 452}, {17, 43, 2, 452}, {18, 44, 1, 452}, {11, 38, 1, 453}, {13, 41, 2, 453}, {14, 42, 2, 453}, {16, 45, 1, 453}, {17, 46, 2, 453}, {18, 47, 1, 453}, {11, 39, 1, 454}, {13, 42, 2, 454}, {14, 43, 2, 454}, {16, 46, 1, 454}, {17, 47, 2, 454}, {18, 48, 1, 454}, {11, 40, 1, 455}, {13, 43, 2, 455}, {14, 44, 2, 455}, {16, 47, 1, 455}, {17, 48, 2, 455}, {18, 49, 1, 455}, {11, 41, 1, 456}, {13, 45, 2, 456}, {14, 46, 2, 456}, {16, 50, 1, 456}, {17, 51, 2, 456}, {18, 52, 1, 456}, {11, 42, 1, 457}, {13, 46, 2, 457}, {14, 47, 2, 457}, {16, 51, 1, 457}, {17, 52, 2, 457}, {18, 53, 1, 457}, {11, 43, 1, 458}, {13, 47, 2, 458}, {14, 48, 2, 458}, {16, 52, 1, 458}, {17, 53, 2, 458}, {18, 54, 1, 458}, {11, 44, 1, 459}, {13, 48, 2, 459}, {14, 49, 2, 459}, {16, 53, 1, 459}, {17, 54, 2, 459}, {18, 55, 1, 459}, {12, 35, 1, 460}, {14, 36, 2, 460}, {15, 37, 2, 460}, {17, 38, 1, 460}, {18, 39, 2, 460}, {19, 40, 1, 460}, {12, 36, 1, 461}, {14, 38, 2, 461}, {15, 39, 2, 461}, {17, 41, 1, 461}, {18, 42, 2, 461}, {19, 43, 1, 461}, {12, 37, 1, 462}, {14, 39, 2, 462}, {15, 40, 2, 462}, {17, 42, 1, 462}, {18, 43, 2, 462}, {19, 44, 1, 462}, {12, 38, 1, 463}, {14, 41, 2, 463}, {15, 42, 2, 463}, {17, 45, 1, 463}, {18, 46, 2, 463}, {19, 47, 1, 463}, {12, 39, 1, 464}, {14, 42, 2, 464}, {15, 43, 2, 464}, {17, 46, 1, 464}, {18, 47, 2, 464}, {19, 48, 1, 464}, {12, 40, 1, 465}, {14, 43, 2, 465}, {15, 44, 2, 465}, {17, 47, 1, 465}, {18, 48, 2, 465}, {19, 49, 1, 465}, {12, 41, 1, 466}, {14, 45, 2, 466}, {15, 46, 2, 466}, {17, 50, 1, 466}, {18, 51, 2, 466}, {19, 52, 1, 466}, {12, 42, 1, 467}, {14, 46, 2, 467}, {15, 47, 2, 467}, {17, 51, 1, 467}, {18, 52, 2, 467}, {19, 53, 1, 467}, {12, 43, 1, 468}, {14, 47, 2, 468}, {15, 48, 2, 468}, {17, 52, 1, 468}, {18, 53, 2, 468}, {19, 54, 1, 468}, {12, 44, 1, 469}, {14, 48, 2, 469}, {15, 49, 2, 469}, {17, 53, 1, 469}, {18, 54, 2, 469}, {19, 55, 1, 469}, {10, 10, 1, 470}, {11, 11, 3, 470}, {12, 12, 3, 470}, {13, 13, 3, 470}, {14, 14, 6, 470}, {15, 15, 3, 470}, {16, 16, 1, 470}, {17, 17, 3, 470}, {18, 18, 3, 470}, {19, 19, 1, 470}, {10, 20, 1, 471}, {11, 21, 3, 471}, {12, 22, 3, 471}, {13, 23, 3, 471}, {14, 24, 6, 471}, {15, 25, 3, 471}, {16, 26, 1, 471}, {17, 27, 3, 471}, {18, 28, 3, 471}, {19, 29, 1, 471}, {10, 21, 1, 472}, {11, 23, 3, 472}, {12, 24, 3, 472}, {13, 26, 3, 472}, {14, 27, 6, 472}, {15, 28, 3, 472}, {16, 30, 1, 472}, {17, 31, 3, 472}, {18, 32, 3, 472}, {19, 33, 1, 472}, {10, 22, 1, 473}, {11, 24, 3, 473}, {12, 25, 3, 473}, {13, 27, 3, 473}, {14, 28, 6, 473}, {15, 29, 3, 473}, {16, 31, 1, 473}, {17, 32, 3, 473}, {18, 33, 3, 473}, {19, 34, 1, 473}, {10, 35, 1, 474}, {11, 36, 3, 474}, {12, 37, 3, 474}, {13, 38, 3, 474}, {14, 39, 6, 474}, {15, 40, 3, 474}, {16, 41, 1, 474}, {17, 42, 3, 474}, {18, 43, 3, 474}, {19, 44, 1, 474}, {10, 36, 1, 475}, {11, 38, 3, 475}, {12, 39, 3, 475}, {13, 41, 3, 475}, {14, 42, 6, 475}, {15, 43, 3, 475}, {16, 45, 1, 475}, {17, 46, 3, 475}, {18, 47, 3, 475}, {19, 48, 1, 475}, {10, 37, 1, 476}, {11, 39, 3, 476}, {12, 40, 3, 476}, {13, 42, 3, 476}, {14, 43, 6, 476}, {15, 44, 3, 476}, {16, 46, 1, 476}, {17, 47, 3, 476}, {18, 48, 3, 476}, {19, 49, 1, 476}, {10, 38, 1, 477}, {11, 41, 3, 477}, {12, 42, 3, 477}, {13, 45, 3, 477}, {14, 46, 6, 477}, {15, 47, 3, 477}, {16, 50, 1, 477}, {17, 51, 3, 477}, {18, 52, 3, 477}, {19, 53, 1, 477}, {10, 39, 1, 478}, {11, 42, 3, 478}, {12, 43, 3, 478}, {13, 46, 3, 478}, {14, 47, 6, 478}, {15, 48, 3, 478}, {16, 51, 1, 478}, {17, 52, 3, 478}, {18, 53, 3, 478}, {19, 54, 1, 478}, {10, 40, 1, 479}, {11, 43, 3, 479}, {12, 44, 3, 479}, {13, 47, 3, 479}, {14, 48, 6, 479}, {15, 49, 3, 479}, {16, 52, 1, 479}, {17, 53, 3, 479}, {18, 54, 3, 479}, {19, 55, 1, 479}, {10, 56, 1, 480}, {11, 57, 3, 480}, {12, 58, 3, 480}, {13, 59, 3, 480}, {14, 60, 6, 480}, {15, 61, 3, 480}, {16, 62, 1, 480}, {17, 63, 3, 480}, {18, 64, 3, 480}, {19, 65, 1, 480}, {10, 57, 1, 481}, {11, 59, 3, 481}, {12, 60, 3, 481}, {13, 62, 3, 481}, {14, 63, 6, 481}, {15, 64, 3, 481}, {16, 66, 1, 481}, {17, 67, 3, 481}, {18, 68, 3, 481}, {19, 69, 1, 481}, {10, 58, 1, 482}, {11, 60, 3, 482}, {12, 61, 3, 482}, {13, 63, 3, 482}, {14, 64, 6, 482}, {15, 65, 3, 482}, {16, 67, 1, 482}, {17, 68, 3, 482}, {18, 69, 3, 482}, {19, 70, 1, 482}, {10, 59, 1, 483}, {11, 62, 3, 483}, {12, 63, 3, 483}, {13, 66, 3, 483}, {14, 67, 6, 483}, {15, 68, 3, 483}, {16, 71, 1, 483}, {17, 72, 3, 483}, {18, 73, 3, 483}, {19, 74, 1, 483}, {10, 60, 1, 484}, {11, 63, 3, 484}, {12, 64, 3, 484}, {13, 67, 3, 484}, {14, 68, 6, 484}, {15, 69, 3, 484}, {16, 72, 1, 484}, {17, 73, 3, 484}, {18, 74, 3, 484}, {19, 75, 1, 484}, {10, 61, 1, 485}, {11, 64, 3, 485}, {12, 65, 3, 485}, {13, 68, 3, 485}, {14, 69, 6, 485}, {15, 70, 3, 485}, {16, 73, 1, 485}, {17, 74, 3, 485}, {18, 75, 3, 485}, {19, 76, 1, 485}, {10, 62, 1, 486}, {11, 66, 3, 486}, {12, 67, 3, 486}, {13, 71, 3, 486}, {14, 72, 6, 486}, {15, 73, 3, 486}, {16, 77, 1, 486}, {17, 78, 3, 486}, {18, 79, 3, 486}, {19, 80, 1, 486}, {10, 63, 1, 487}, {11, 67, 3, 487}, {12, 68, 3, 487}, {13, 72, 3, 487}, {14, 73, 6, 487}, {15, 74, 3, 487}, {16, 78, 1, 487}, {17, 79, 3, 487}, {18, 80, 3, 487}, {19, 81, 1, 487}, {10, 64, 1, 488}, {11, 68, 3, 488}, {12, 69, 3, 488}, {13, 73, 3, 488}, {14, 74, 6, 488}, {15, 75, 3, 488}, {16, 79, 1, 488}, {17, 80, 3, 488}, {18, 81, 3, 488}, {19, 82, 1, 488}, {10, 65, 1, 489}, {11, 69, 3, 489}, {12, 70, 3, 489}, {13, 74, 3, 489}, {14, 75, 6, 489}, {15, 76, 3, 489}, {16, 80, 1, 489}, {17, 81, 3, 489}, {18, 82, 3, 489}, {19, 83, 1, 489}, {20, 20, 1, 490}, {21, 21, 2, 490}, {22, 22, 2, 490}, {23, 23, 1, 490}, {24, 24, 2, 490}, {25, 25, 1, 490}, {20, 21, 1, 491}, {21, 23, 2, 491}, {22, 24, 2, 491}, {23, 26, 1, 491}, {24, 27, 2, 491}, {25, 28, 1, 491}, {20, 22, 1, 492}, {21, 24, 2, 492}, {22, 25, 2, 492}, {23, 27, 1, 492}, {24, 28, 2, 492}, {25, 29, 1, 492}, {20, 23, 1, 493}, {21, 26, 2, 493}, {22, 27, 2, 493}, {23, 30, 1, 493}, {24, 31, 2, 493}, {25, 32, 1, 493}, {20, 24, 1, 494}, {21, 27, 2, 494}, {22, 28, 2, 494}, {23, 31, 1, 494}, {24, 32, 2, 494}, {25, 33, 1, 494}, {20, 25, 1, 495}, {21, 28, 2, 495}, {22, 29, 2, 495}, {23, 32, 1, 495}, {24, 33, 2, 495}, {25, 34, 1, 495}, {21, 21, 1, 496}, {23, 23, 2, 496}, {24, 24, 2, 496}, {26, 26, 1, 496}, {27, 27, 2, 496}, {28, 28, 1, 496}, {21, 22, 1, 497}, {23, 24, 2, 497}, {24, 25, 2, 497}, {26, 27, 1, 497}, {27, 28, 2, 497}, {28, 29, 1, 497}, {21, 23, 1, 498}, {23, 26, 2, 498}, {24, 27, 2, 498}, {26, 30, 1, 498}, {27, 31, 2, 498}, {28, 32, 1, 498}, {21, 24, 1, 499}, {23, 27, 2, 499}, {24, 28, 2, 499}, {26, 31, 1, 499}, {27, 32, 2, 499}, {28, 33, 1, 499}, {21, 25, 1, 500}, {23, 28, 2, 500}, {24, 29, 2, 500}, {26, 32, 1, 500}, {27, 33, 2, 500}, {28, 34, 1, 500}, {22, 22, 1, 501}, {24, 24, 2, 501}, {25, 25, 2, 501}, {27, 27, 1, 501}, {28, 28, 2, 501}, {29, 29, 1, 501}, {22, 23, 1, 502}, {24, 26, 2, 502}, {25, 27, 2, 502}, {27, 30, 1, 502}, {28, 31, 2, 502}, {29, 32, 1, 502}, {22, 24, 1, 503}, {24, 27, 2, 503}, {25, 28, 2, 503}, {27, 31, 1, 503}, {28, 32, 2, 503}, {29, 33, 1, 503}, {22, 25, 1, 504}, {24, 28, 2, 504}, {25, 29, 2, 504}, {27, 32, 1, 504}, {28, 33, 2, 504}, {29, 34, 1, 504}, {23, 23, 1, 505}, {26, 26, 2, 505}, {27, 27, 2, 505}, {30, 30, 1, 505}, {31, 31, 2, 505}, {32, 32, 1, 505}, {23, 24, 1, 506}, {26, 27, 2, 506}, {27, 28, 2, 506}, {30, 31, 1, 506}, {31, 32, 2, 506}, {32, 33, 1, 506}, {23, 25, 1, 507}, {26, 28, 2, 507}, {27, 29, 2, 507}, {30, 32, 1, 507}, {31, 33, 2, 507}, {32, 34, 1, 507}, {24, 24, 1, 508}, {27, 27, 2, 508}, {28, 28, 2, 508}, {31, 31, 1, 508}, {32, 32, 2, 508}, {33, 33, 1, 508}, {24, 25, 1, 509}, {27, 28, 2, 509}, {28, 29, 2, 509}, {31, 32, 1, 509}, {32, 33, 2, 509}, {33, 34, 1, 509}, {25, 25, 1, 510}, {28, 28, 2, 510}, {29, 29, 2, 510}, {32, 32, 1, 510}, {33, 33, 2, 510}, {34, 34, 1, 510}, {20, 20, 1, 511}, {21, 21, 3, 511}, {22, 22, 3, 511}, {23, 23, 3, 511}, {24, 24, 6, 511}, {25, 25, 3, 511}, {26, 26, 1, 511}, {27, 27, 3, 511}, {28, 28, 3, 511}, {29, 29, 1, 511}, {20, 21, 1, 512}, {21, 23, 3, 512}, {22, 24, 3, 512}, {23, 26, 3, 512}, {24, 27, 6, 512}, {25, 28, 3, 512}, {26, 30, 1, 512}, {27, 31, 3, 512}, {28, 32, 3, 512}, {29, 33, 1, 512}, {20, 22, 1, 513}, {21, 24, 3, 513}, {22, 25, 3, 513}, {23, 27, 3, 513}, {24, 28, 6, 513}, {25, 29, 3, 513}, {26, 31, 1, 513}, {27, 32, 3, 513}, {28, 33, 3, 513}, {29, 34, 1, 513}, {21, 21, 1, 514}, {23, 23, 3, 514}, {24, 24, 3, 514}, {26, 26, 3, 514}, {27, 27, 6, 514}, {28, 28, 3, 514}, {30, 30, 1, 514}, {31, 31, 3, 514}, {32, 32, 3, 514}, {33, 33, 1, 514}, {21, 22, 1, 515}, {23, 24, 3, 515}, {24, 25, 3, 515}, {26, 27, 3, 515}, {27, 28, 6, 515}, {28, 29, 3, 515}, {30, 31, 1, 515}, {31, 32, 3, 515}, {32, 33, 3, 515}, {33, 34, 1, 515}, {22, 22, 1, 516}, {24, 24, 3, 516}, {25, 25, 3, 516}, {27, 27, 3, 516}, {28, 28, 6, 516}, {29, 29, 3, 516}, {31, 31, 1, 516}, {32, 32, 3, 516}, {33, 33, 3, 516}, {34, 34, 1, 516}, {20, 35, 1, 517}, {21, 36, 3, 517}, {22, 37, 3, 517}, {23, 38, 3, 517}, {24, 39, 6, 517}, {25, 40, 3, 517}, {26, 41, 1, 517}, {27, 42, 3, 517}, {28, 43, 3, 517}, {29, 44, 1, 517}, {20, 36, 1, 518}, {21, 38, 3, 518}, {22, 39, 3, 518}, {23, 41, 3, 518}, {24, 42, 6, 518}, {25, 43, 3, 518}, {26, 45, 1, 518}, {27, 46, 3, 518}, {28, 47, 3, 518}, {29, 48, 1, 518}, {20, 37, 1, 519}, {21, 39, 3, 519}, {22, 40, 3, 519}, {23, 42, 3, 519}, {24, 43, 6, 519}, {25, 44, 3, 519}, {26, 46, 1, 519}, {27, 47, 3, 519}, {28, 48, 3, 519}, {29, 49, 1, 519}, {20, 38, 1, 520}, {21, 41, 3, 520}, {22, 42, 3, 520}, {23, 45, 3, 520}, {24, 46, 6, 520}, {25, 47, 3, 520}, {26, 50, 1, 520}, {27, 51, 3, 520}, {28, 52, 3, 520}, {29, 53, 1, 520}, {20, 39, 1, 521}, {21, 42, 3, 521}, {22, 43, 3, 521}, {23, 46, 3, 521}, {24, 47, 6, 521}, {25, 48, 3, 521}, {26, 51, 1, 521}, {27, 52, 3, 521}, {28, 53, 3, 521}, {29, 54, 1, 521}, {20, 40, 1, 522}, {21, 43, 3, 522}, {22, 44, 3, 522}, {23, 47, 3, 522}, {24, 48, 6, 522}, {25, 49, 3, 522}, {26, 52, 1, 522}, {27, 53, 3, 522}, {28, 54, 3, 522}, {29, 55, 1, 522}, {21, 35, 1, 523}, {23, 36, 3, 523}, {24, 37, 3, 523}, {26, 38, 3, 523}, {27, 39, 6, 523}, {28, 40, 3, 523}, {30, 41, 1, 523}, {31, 42, 3, 523}, {32, 43, 3, 523}, {33, 44, 1, 523}, {21, 36, 1, 524}, {23, 38, 3, 524}, {24, 39, 3, 524}, {26, 41, 3, 524}, {27, 42, 6, 524}, {28, 43, 3, 524}, {30, 45, 1, 524}, {31, 46, 3, 524}, {32, 47, 3, 524}, {33, 48, 1, 524}, {21, 37, 1, 525}, {23, 39, 3, 525}, {24, 40, 3, 525}, {26, 42, 3, 525}, {27, 43, 6, 525}, {28, 44, 3, 525}, {30, 46, 1, 525}, {31, 47, 3, 525}, {32, 48, 3, 525}, {33, 49, 1, 525}, {21, 38, 1, 526}, {23, 41, 3, 526}, {24, 42, 3, 526}, {26, 45, 3, 526}, {27, 46, 6, 526}, {28, 47, 3, 526}, {30, 50, 1, 526}, {31, 51, 3, 526}, {32, 52, 3, 526}, {33, 53, 1, 526}, {21, 39, 1, 527}, {23, 42, 3, 527}, {24, 43, 3, 527}, {26, 46, 3, 527}, {27, 47, 6, 527}, {28, 48, 3, 527}, {30, 51, 1, 527}, {31, 52, 3, 527}, {32, 53, 3, 527}, {33, 54, 1, 527}, {21, 40, 1, 528}, {23, 43, 3, 528}, {24, 44, 3, 528}, {26, 47, 3, 528}, {27, 48, 6, 528}, {28, 49, 3, 528}, {30, 52, 1, 528}, {31, 53, 3, 528}, {32, 54, 3, 528}, {33, 55, 1, 528}, {22, 35, 1, 529}, {24, 36, 3, 529}, {25, 37, 3, 529}, {27, 38, 3, 529}, {28, 39, 6, 529}, {29, 40, 3, 529}, {31, 41, 1, 529}, {32, 42, 3, 529}, {33, 43, 3, 529}, {34, 44, 1, 529}, {22, 36, 1, 530}, {24, 38, 3, 530}, {25, 39, 3, 530}, {27, 41, 3, 530}, {28, 42, 6, 530}, {29, 43, 3, 530}, {31, 45, 1, 530}, {32, 46, 3, 530}, {33, 47, 3, 530}, {34, 48, 1, 530}, {22, 37, 1, 531}, {24, 39, 3, 531}, {25, 40, 3, 531}, {27, 42, 3, 531}, {28, 43, 6, 531}, {29, 44, 3, 531}, {31, 46, 1, 531}, {32, 47, 3, 531}, {33, 48, 3, 531}, {34, 49, 1, 531}, {22, 38, 1, 532}, {24, 41, 3, 532}, {25, 42, 3, 532}, {27, 45, 3, 532}, {28, 46, 6, 532}, {29, 47, 3, 532}, {31, 50, 1, 532}, {32, 51, 3, 532}, {33, 52, 3, 532}, {34, 53, 1, 532}, {22, 39, 1, 533}, {24, 42, 3, 533}, {25, 43, 3, 533}, {27, 46, 3, 533}, {28, 47, 6, 533}, {29, 48, 3, 533}, {31, 51, 1, 533}, {32, 52, 3, 533}, {33, 53, 3, 533}, {34, 54, 1, 533}, {22, 40, 1, 534}, {24, 43, 3, 534}, {25, 44, 3, 534}, {27, 47, 3, 534}, {28, 48, 6, 534}, {29, 49, 3, 534}, {31, 52, 1, 534}, {32, 53, 3, 534}, {33, 54, 3, 534}, {34, 55, 1, 534}, {20, 56, 1, 535}, {21, 57, 3, 535}, {22, 58, 3, 535}, {23, 59, 3, 535}, {24, 60, 6, 535}, {25, 61, 3, 535}, {26, 62, 1, 535}, {27, 63, 3, 535}, {28, 64, 3, 535}, {29, 65, 1, 535}, {20, 57, 1, 536}, {21, 59, 3, 536}, {22, 60, 3, 536}, {23, 62, 3, 536}, {24, 63, 6, 536}, {25, 64, 3, 536}, {26, 66, 1, 536}, {27, 67, 3, 536}, {28, 68, 3, 536}, {29, 69, 1, 536}, {20, 58, 1, 537}, {21, 60, 3, 537}, {22, 61, 3, 537}, {23, 63, 3, 537}, {24, 64, 6, 537}, {25, 65, 3, 537}, {26, 67, 1, 537}, {27, 68, 3, 537}, {28, 69, 3, 537}, {29, 70, 1, 537}, {20, 59, 1, 538}, {21, 62, 3, 538}, {22, 63, 3, 538}, {23, 66, 3, 538}, {24, 67, 6, 538}, {25, 68, 3, 538}, {26, 71, 1, 538}, {27, 72, 3, 538}, {28, 73, 3, 538}, {29, 74, 1, 538}, {20, 60, 1, 539}, {21, 63, 3, 539}, {22, 64, 3, 539}, {23, 67, 3, 539}, {24, 68, 6, 539}, {25, 69, 3, 539}, {26, 72, 1, 539}, {27, 73, 3, 539}, {28, 74, 3, 539}, {29, 75, 1, 539}, {20, 61, 1, 540}, {21, 64, 3, 540}, {22, 65, 3, 540}, {23, 68, 3, 540}, {24, 69, 6, 540}, {25, 70, 3, 540}, {26, 73, 1, 540}, {27, 74, 3, 540}, {28, 75, 3, 540}, {29, 76, 1, 540}, {20, 62, 1, 541}, {21, 66, 3, 541}, {22, 67, 3, 541}, {23, 71, 3, 541}, {24, 72, 6, 541}, {25, 73, 3, 541}, {26, 77, 1, 541}, {27, 78, 3, 541}, {28, 79, 3, 541}, {29, 80, 1, 541}, {20, 63, 1, 542}, {21, 67, 3, 542}, {22, 68, 3, 542}, {23, 72, 3, 542}, {24, 73, 6, 542}, {25, 74, 3, 542}, {26, 78, 1, 542}, {27, 79, 3, 542}, {28, 80, 3, 542}, {29, 81, 1, 542}, {20, 64, 1, 543}, {21, 68, 3, 543}, {22, 69, 3, 543}, {23, 73, 3, 543}, {24, 74, 6, 543}, {25, 75, 3, 543}, {26, 79, 1, 543}, {27, 80, 3, 543}, {28, 81, 3, 543}, {29, 82, 1, 543}, {20, 65, 1, 544}, {21, 69, 3, 544}, {22, 70, 3, 544}, {23, 74, 3, 544}, {24, 75, 6, 544}, {25, 76, 3, 544}, {26, 80, 1, 544}, {27, 81, 3, 544}, {28, 82, 3, 544}, {29, 83, 1, 544}, {21, 56, 1, 545}, {23, 57, 3, 545}, {24, 58, 3, 545}, {26, 59, 3, 545}, {27, 60, 6, 545}, {28, 61, 3, 545}, {30, 62, 1, 545}, {31, 63, 3, 545}, {32, 64, 3, 545}, {33, 65, 1, 545}, {21, 57, 1, 546}, {23, 59, 3, 546}, {24, 60, 3, 546}, {26, 62, 3, 546}, {27, 63, 6, 546}, {28, 64, 3, 546}, {30, 66, 1, 546}, {31, 67, 3, 546}, {32, 68, 3, 546}, {33, 69, 1, 546}, {21, 58, 1, 547}, {23, 60, 3, 547}, {24, 61, 3, 547}, {26, 63, 3, 547}, {27, 64, 6, 547}, {28, 65, 3, 547}, {30, 67, 1, 547}, {31, 68, 3, 547}, {32, 69, 3, 547}, {33, 70, 1, 547}, {21, 59, 1, 548}, {23, 62, 3, 548}, {24, 63, 3, 548}, {26, 66, 3, 548}, {27, 67, 6, 548}, {28, 68, 3, 548}, {30, 71, 1, 548}, {31, 72, 3, 548}, {32, 73, 3, 548}, {33, 74, 1, 548}, {21, 60, 1, 549}, {23, 63, 3, 549}, {24, 64, 3, 549}, {26, 67, 3, 549}, {27, 68, 6, 549}, {28, 69, 3, 549}, {30, 72, 1, 549}, {31, 73, 3, 549}, {32, 74, 3, 549}, {33, 75, 1, 549}, {21, 61, 1, 550}, {23, 64, 3, 550}, {24, 65, 3, 550}, {26, 68, 3, 550}, {27, 69, 6, 550}, {28, 70, 3, 550}, {30, 73, 1, 550}, {31, 74, 3, 550}, {32, 75, 3, 550}, {33, 76, 1, 550}, {21, 62, 1, 551}, {23, 66, 3, 551}, {24, 67, 3, 551}, {26, 71, 3, 551}, {27, 72, 6, 551}, {28, 73, 3, 551}, {30, 77, 1, 551}, {31, 78, 3, 551}, {32, 79, 3, 551}, {33, 80, 1, 551}, {21, 63, 1, 552}, {23, 67, 3, 552}, {24, 68, 3, 552}, {26, 72, 3, 552}, {27, 73, 6, 552}, {28, 74, 3, 552}, {30, 78, 1, 552}, {31, 79, 3, 552}, {32, 80, 3, 552}, {33, 81, 1, 552}, {21, 64, 1, 553}, {23, 68, 3, 553}, {24, 69, 3, 553}, {26, 73, 3, 553}, {27, 74, 6, 553}, {28, 75, 3, 553}, {30, 79, 1, 553}, {31, 80, 3, 553}, {32, 81, 3, 553}, {33, 82, 1, 553}, {21, 65, 1, 554}, {23, 69, 3, 554}, {24, 70, 3, 554}, {26, 74, 3, 554}, {27, 75, 6, 554}, {28, 76, 3, 554}, {30, 80, 1, 554}, {31, 81, 3, 554}, {32, 82, 3, 554}, {33, 83, 1, 554}, {22, 56, 1, 555}, {24, 57, 3, 555}, {25, 58, 3, 555}, {27, 59, 3, 555}, {28, 60, 6, 555}, {29, 61, 3, 555}, {31, 62, 1, 555}, {32, 63, 3, 555}, {33, 64, 3, 555}, {34, 65, 1, 555}, {22, 57, 1, 556}, {24, 59, 3, 556}, {25, 60, 3, 556}, {27, 62, 3, 556}, {28, 63, 6, 556}, {29, 64, 3, 556}, {31, 66, 1, 556}, {32, 67, 3, 556}, {33, 68, 3, 556}, {34, 69, 1, 556}, {22, 58, 1, 557}, {24, 60, 3, 557}, {25, 61, 3, 557}, {27, 63, 3, 557}, {28, 64, 6, 557}, {29, 65, 3, 557}, {31, 67, 1, 557}, {32, 68, 3, 557}, {33, 69, 3, 557}, {34, 70, 1, 557}, {22, 59, 1, 558}, {24, 62, 3, 558}, {25, 63, 3, 558}, {27, 66, 3, 558}, {28, 67, 6, 558}, {29, 68, 3, 558}, {31, 71, 1, 558}, {32, 72, 3, 558}, {33, 73, 3, 558}, {34, 74, 1, 558}, {22, 60, 1, 559}, {24, 63, 3, 559}, {25, 64, 3, 559}, {27, 67, 3, 559}, {28, 68, 6, 559}, {29, 69, 3, 559}, {31, 72, 1, 559}, {32, 73, 3, 559}, {33, 74, 3, 559}, {34, 75, 1, 559}, {22, 61, 1, 560}, {24, 64, 3, 560}, {25, 65, 3, 560}, {27, 68, 3, 560}, {28, 69, 6, 560}, {29, 70, 3, 560}, {31, 73, 1, 560}, {32, 74, 3, 560}, {33, 75, 3, 560}, {34, 76, 1, 560}, {22, 62, 1, 561}, {24, 66, 3, 561}, {25, 67, 3, 561}, {27, 71, 3, 561}, {28, 72, 6, 561}, {29, 73, 3, 561}, {31, 77, 1, 561}, {32, 78, 3, 561}, {33, 79, 3, 561}, {34, 80, 1, 561}, {22, 63, 1, 562}, {24, 67, 3, 562}, {25, 68, 3, 562}, {27, 72, 3, 562}, {28, 73, 6, 562}, {29, 74, 3, 562}, {31, 78, 1, 562}, {32, 79, 3, 562}, {33, 80, 3, 562}, {34, 81, 1, 562}, {22, 64, 1, 563}, {24, 68, 3, 563}, {25, 69, 3, 563}, {27, 73, 3, 563}, {28, 74, 6, 563}, {29, 75, 3, 563}, {31, 79, 1, 563}, {32, 80, 3, 563}, {33, 81, 3, 563}, {34, 82, 1, 563}, {22, 65, 1, 564}, {24, 69, 3, 564}, {25, 70, 3, 564}, {27, 74, 3, 564}, {28, 75, 6, 564}, {29, 76, 3, 564}, {31, 80, 1, 564}, {32, 81, 3, 564}, {33, 82, 3, 564}, {34, 83, 1, 564}, {20, 20, 1, 565}, {21, 21, 4, 565}, {22, 22, 4, 565}, {23, 23, 6, 565}, {24, 24, 12, 565}, {25, 25, 6, 565}, {26, 26, 4, 565}, {27, 27, 12, 565}, {28, 28, 12, 565}, {29, 29, 4, 565}, {30, 30, 1, 565}, {31, 31, 4, 565}, {32, 32, 6, 565}, {33, 33, 4, 565}, {34, 34, 1, 565}, {20, 35, 1, 566}, {21, 36, 4, 566}, {22, 37, 4, 566}, {23, 38, 6, 566}, {24, 39, 12, 566}, {25, 40, 6, 566}, {26, 41, 4, 566}, {27, 42, 12, 566}, {28, 43, 12, 566}, {29, 44, 4, 566}, {30, 45, 1, 566}, {31, 46, 4, 566}, {32, 47, 6, 566}, {33, 48, 4, 566}, {34, 49, 1, 566}, {20, 36, 1, 567}, {21, 38, 4, 567}, {22, 39, 4, 567}, {23, 41, 6, 567}, {24, 42, 12, 567}, {25, 43, 6, 567}, {26, 45, 4, 567}, {27, 46, 12, 567}, {28, 47, 12, 567}, {29, 48, 4, 567}, {30, 50, 1, 567}, {31, 51, 4, 567}, {32, 52, 6, 567}, {33, 53, 4, 567}, {34, 54, 1, 567}, {20, 37, 1, 568}, {21, 39, 4, 568}, {22, 40, 4, 568}, {23, 42, 6, 568}, {24, 43, 12, 568}, {25, 44, 6, 568}, {26, 46, 4, 568}, {27, 47, 12, 568}, {28, 48, 12, 568}, {29, 49, 4, 568}, {30, 51, 1, 568}, {31, 52, 4, 568}, {32, 53, 6, 568}, {33, 54, 4, 568}, {34, 55, 1, 568}, {20, 56, 1, 569}, {21, 57, 4, 569}, {22, 58, 4, 569}, {23, 59, 6, 569}, {24, 60, 12, 569}, {25, 61, 6, 569}, {26, 62, 4, 569}, {27, 63, 12, 569}, {28, 64, 12, 569}, {29, 65, 4, 569}, {30, 66, 1, 569}, {31, 67, 4, 569}, {32, 68, 6, 569}, {33, 69, 4, 569}, {34, 70, 1, 569}, {20, 57, 1, 570}, {21, 59, 4, 570}, {22, 60, 4, 570}, {23, 62, 6, 570}, {24, 63, 12, 570}, {25, 64, 6, 570}, {26, 66, 4, 570}, {27, 67, 12, 570}, {28, 68, 12, 570}, {29, 69, 4, 570}, {30, 71, 1, 570}, {31, 72, 4, 570}, {32, 73, 6, 570}, {33, 74, 4, 570}, {34, 75, 1, 570}, {20, 58, 1, 571}, {21, 60, 4, 571}, {22, 61, 4, 571}, {23, 63, 6, 571}, {24, 64, 12, 571}, {25, 65, 6, 571}, {26, 67, 4, 571}, {27, 68, 12, 571}, {28, 69, 12, 571}, {29, 70, 4, 571}, {30, 72, 1, 571}, {31, 73, 4, 571}, {32, 74, 6, 571}, {33, 75, 4, 571}, {34, 76, 1, 571}, {20, 59, 1, 572}, {21, 62, 4, 572}, {22, 63, 4, 572}, {23, 66, 6, 572}, {24, 67, 12, 572}, {25, 68, 6, 572}, {26, 71, 4, 572}, {27, 72, 12, 572}, {28, 73, 12, 572}, {29, 74, 4, 572}, {30, 77, 1, 572}, {31, 78, 4, 572}, {32, 79, 6, 572}, {33, 80, 4, 572}, {34, 81, 1, 572}, {20, 60, 1, 573}, {21, 63, 4, 573}, {22, 64, 4, 573}, {23, 67, 6, 573}, {24, 68, 12, 573}, {25, 69, 6, 573}, {26, 72, 4, 573}, {27, 73, 12, 573}, {28, 74, 12, 573}, {29, 75, 4, 573}, {30, 78, 1, 573}, {31, 79, 4, 573}, {32, 80, 6, 573}, {33, 81, 4, 573}, {34, 82, 1, 573}, {20, 61, 1, 574}, {21, 64, 4, 574}, {22, 65, 4, 574}, {23, 68, 6, 574}, {24, 69, 12, 574}, {25, 70, 6, 574}, {26, 73, 4, 574}, {27, 74, 12, 574}, {28, 75, 12, 574}, {29, 76, 4, 574}, {30, 79, 1, 574}, {31, 80, 4, 574}, {32, 81, 6, 574}, {33, 82, 4, 574}, {34, 83, 1, 574}, {20, 84, 1, 575}, {21, 85, 4, 575}, {22, 86, 4, 575}, {23, 87, 6, 575}, {24, 88, 12, 575}, {25, 89, 6, 575}, {26, 90, 4, 575}, {27, 91, 12, 575}, {28, 92, 12, 575}, {29, 93, 4, 575}, {30, 94, 1, 575}, {31, 95, 4, 575}, {32, 96, 6, 575}, {33, 97, 4, 575}, {34, 98, 1, 575}, {20, 85, 1, 576}, {21, 87, 4, 576}, {22, 88, 4, 576}, {23, 90, 6, 576}, {24, 91, 12, 576}, {25, 92, 6, 576}, {26, 94, 4, 576}, {27, 95, 12, 576}, {28, 96, 12, 576}, {29, 97, 4, 576}, {30, 99, 1, 576}, {31, 100, 4, 576}, {32, 101, 6, 576}, {33, 102, 4, 576}, {34, 103, 1, 576}, {20, 86, 1, 577}, {21, 88, 4, 577}, {22, 89, 4, 577}, {23, 91, 6, 577}, {24, 92, 12, 577}, {25, 93, 6, 577}, {26, 95, 4, 577}, {27, 96, 12, 577}, {28, 97, 12, 577}, {29, 98, 4, 577}, {30, 100, 1, 577}, {31, 101, 4, 577}, {32, 102, 6, 577}, {33, 103, 4, 577}, {34, 104, 1, 577}, {20, 87, 1, 578}, {21, 90, 4, 578}, {22, 91, 4, 578}, {23, 94, 6, 578}, {24, 95, 12, 578}, {25, 96, 6, 578}, {26, 99, 4, 578}, {27, 100, 12, 578}, {28, 101, 12, 578}, {29, 102, 4, 578}, {30, 105, 1, 578}, {31, 106, 4, 578}, {32, 107, 6, 578}, {33, 108, 4, 578}, {34, 109, 1, 578}, {20, 88, 1, 579}, {21, 91, 4, 579}, {22, 92, 4, 579}, {23, 95, 6, 579}, {24, 96, 12, 579}, {25, 97, 6, 579}, {26, 100, 4, 579}, {27, 101, 12, 579}, {28, 102, 12, 579}, {29, 103, 4, 579}, {30, 106, 1, 579}, {31, 107, 4, 579}, {32, 108, 6, 579}, {33, 109, 4, 579}, {34, 110, 1, 579}, {20, 89, 1, 580}, {21, 92, 4, 580}, {22, 93, 4, 580}, {23, 96, 6, 580}, {24, 97, 12, 580}, {25, 98, 6, 580}, {26, 101, 4, 580}, {27, 102, 12, 580}, {28, 103, 12, 580}, {29, 104, 4, 580}, {30, 107, 1, 580}, {31, 108, 4, 580}, {32, 109, 6, 580}, {33, 110, 4, 580}, {34, 111, 1, 580}, {20, 90, 1, 581}, {21, 94, 4, 581}, {22, 95, 4, 581}, {23, 99, 6, 581}, {24, 100, 12, 581}, {25, 101, 6, 581}, {26, 105, 4, 581}, {27, 106, 12, 581}, {28, 107, 12, 581}, {29, 108, 4, 581}, {30, 112, 1, 581}, {31, 113, 4, 581}, {32, 114, 6, 581}, {33, 115, 4, 581}, {34, 116, 1, 581}, {20, 91, 1, 582}, {21, 95, 4, 582}, {22, 96, 4, 582}, {23, 100, 6, 582}, {24, 101, 12, 582}, {25, 102, 6, 582}, {26, 106, 4, 582}, {27, 107, 12, 582}, {28, 108, 12, 582}, {29, 109, 4, 582}, {30, 113, 1, 582}, {31, 114, 4, 582}, {32, 115, 6, 582}, {33, 116, 4, 582}, {34, 117, 1, 582}, {20, 92, 1, 583}, {21, 96, 4, 583}, {22, 97, 4, 583}, {23, 101, 6, 583}, {24, 102, 12, 583}, {25, 103, 6, 583}, {26, 107, 4, 583}, {27, 108, 12, 583}, {28, 109, 12, 583}, {29, 110, 4, 583}, {30, 114, 1, 583}, {31, 115, 4, 583}, {32, 116, 6, 583}, {33, 117, 4, 583}, {34, 118, 1, 583}, {20, 93, 1, 584}, {21, 97, 4, 584}, {22, 98, 4, 584}, {23, 102, 6, 584}, {24, 103, 12, 584}, {25, 104, 6, 584}, {26, 108, 4, 584}, {27, 109, 12, 584}, {28, 110, 12, 584}, {29, 111, 4, 584}, {30, 115, 1, 584}, {31, 116, 4, 584}, {32, 117, 6, 584}, {33, 118, 4, 584}, {34, 119, 1, 584}, {35, 35, 1, 585}, {36, 36, 3, 585}, {37, 37, 3, 585}, {38, 38, 3, 585}, {39, 39, 6, 585}, {40, 40, 3, 585}, {41, 41, 1, 585}, {42, 42, 3, 585}, {43, 43, 3, 585}, {44, 44, 1, 585}, {35, 36, 1, 586}, {36, 38, 3, 586}, {37, 39, 3, 586}, {38, 41, 3, 586}, {39, 42, 6, 586}, {40, 43, 3, 586}, {41, 45, 1, 586}, {42, 46, 3, 586}, {43, 47, 3, 586}, {44, 48, 1, 586}, {35, 37, 1, 587}, {36, 39, 3, 587}, {37, 40, 3, 587}, {38, 42, 3, 587}, {39, 43, 6, 587}, {40, 44, 3, 587}, {41, 46, 1, 587}, {42, 47, 3, 587}, {43, 48, 3, 587}, {44, 49, 1, 587}, {35, 38, 1, 588}, {36, 41, 3, 588}, {37, 42, 3, 588}, {38, 45, 3, 588}, {39, 46, 6, 588}, {40, 47, 3, 588}, {41, 50, 1, 588}, {42, 51, 3, 588}, {43, 52, 3, 588}, {44, 53, 1, 588}, {35, 39, 1, 589}, {36, 42, 3, 589}, {37, 43, 3, 589}, {38, 46, 3, 589}, {39, 47, 6, 589}, {40, 48, 3, 589}, {41, 51, 1, 589}, {42, 52, 3, 589}, {43, 53, 3, 589}, {44, 54, 1, 589}, {35, 40, 1, 590}, {36, 43, 3, 590}, {37, 44, 3, 590}, {38, 47, 3, 590}, {39, 48, 6, 590}, {40, 49, 3, 590}, {41, 52, 1, 590}, {42, 53, 3, 590}, {43, 54, 3, 590}, {44, 55, 1, 590}, {36, 36, 1, 591}, {38, 38, 3, 591}, {39, 39, 3, 591}, {41, 41, 3, 591}, {42, 42, 6, 591}, {43, 43, 3, 591}, {45, 45, 1, 591}, {46, 46, 3, 591}, {47, 47, 3, 591}, {48, 48, 1, 591}, {36, 37, 1, 592}, {38, 39, 3, 592}, {39, 40, 3, 592}, {41, 42, 3, 592}, {42, 43, 6, 592}, {43, 44, 3, 592}, {45, 46, 1, 592}, {46, 47, 3, 592}, {47, 48, 3, 592}, {48, 49, 1, 592}, {36, 38, 1, 593}, {38, 41, 3, 593}, {39, 42, 3, 593}, {41, 45, 3, 593}, {42, 46, 6, 593}, {43, 47, 3, 593}, {45, 50, 1, 593}, {46, 51, 3, 593}, {47, 52, 3, 593}, {48, 53, 1, 593}, {36, 39, 1, 594}, {38, 42, 3, 594}, {39, 43, 3, 594}, {41, 46, 3, 594}, {42, 47, 6, 594}, {43, 48, 3, 594}, {45, 51, 1, 594}, {46, 52, 3, 594}, {47, 53, 3, 594}, {48, 54, 1, 594}, {36, 40, 1, 595}, {38, 43, 3, 595}, {39, 44, 3, 595}, {41, 47, 3, 595}, {42, 48, 6, 595}, {43, 49, 3, 595}, {45, 52, 1, 595}, {46, 53, 3, 595}, {47, 54, 3, 595}, {48, 55, 1, 595}, {37, 37, 1, 596}, {39, 39, 3, 596}, {40, 40, 3, 596}, {42, 42, 3, 596}, {43, 43, 6, 596}, {44, 44, 3, 596}, {46, 46, 1, 596}, {47, 47, 3, 596}, {48, 48, 3, 596}, {49, 49, 1, 596}, {37, 38, 1, 597}, {39, 41, 3, 597}, {40, 42, 3, 597}, {42, 45, 3, 597}, {43, 46, 6, 597}, {44, 47, 3, 597}, {46, 50, 1, 597}, {47, 51, 3, 597}, {48, 52, 3, 597}, {49, 53, 1, 597}, {37, 39, 1, 598}, {39, 42, 3, 598}, {40, 43, 3, 598}, {42, 46, 3, 598}, {43, 47, 6, 598}, {44, 48, 3, 598}, {46, 51, 1, 598}, {47, 52, 3, 598}, {48, 53, 3, 598}, {49, 54, 1, 598}, {37, 40, 1, 599}, {39, 43, 3, 599}, {40, 44, 3, 599}, {42, 47, 3, 599}, {43, 48, 6, 599}, {44, 49, 3, 599}, {46, 52, 1, 599}, {47, 53, 3, 599}, {48, 54, 3, 599}, {49, 55, 1, 599}, {38, 38, 1, 600}, {41, 41, 3, 600}, {42, 42, 3, 600}, {45, 45, 3, 600}, {46, 46, 6, 600}, {47, 47, 3, 600}, {50, 50, 1, 600}, {51, 51, 3, 600}, {52, 52, 3, 600}, {53, 53, 1, 600}, {38, 39, 1, 601}, {41, 42, 3, 601}, {42, 43, 3, 601}, {45, 46, 3, 601}, {46, 47, 6, 601}, {47, 48, 3, 601}, {50, 51, 1, 601}, {51, 52, 3, 601}, {52, 53, 3, 601}, {53, 54, 1, 601}, {38, 40, 1, 602}, {41, 43, 3, 602}, {42, 44, 3, 602}, {45, 47, 3, 602}, {46, 48, 6, 602}, {47, 49, 3, 602}, {50, 52, 1, 602}, {51, 53, 3, 602}, {52, 54, 3, 602}, {53, 55, 1, 602}, {39, 39, 1, 603}, {42, 42, 3, 603}, {43, 43, 3, 603}, {46, 46, 3, 603}, {47, 47, 6, 603}, {48, 48, 3, 603}, {51, 51, 1, 603}, {52, 52, 3, 603}, {53, 53, 3, 603}, {54, 54, 1, 603}, {39, 40, 1, 604}, {42, 43, 3, 604}, {43, 44, 3, 604}, {46, 47, 3, 604}, {47, 48, 6, 604}, {48, 49, 3, 604}, {51, 52, 1, 604}, {52, 53, 3, 604}, {53, 54, 3, 604}, {54, 55, 1, 604}, {40, 40, 1, 605}, {43, 43, 3, 605}, {44, 44, 3, 605}, {47, 47, 3, 605}, {48, 48, 6, 605}, {49, 49, 3, 605}, {52, 52, 1, 605}, {53, 53, 3, 605}, {54, 54, 3, 605}, {55, 55, 1, 605}, {35, 35, 1, 606}, {36, 36, 4, 606}, {37, 37, 4, 606}, {38, 38, 6, 606}, {39, 39, 12, 606}, {40, 40, 6, 606}, {41, 41, 4, 606}, {42, 42, 12, 606}, {43, 43, 12, 606}, {44, 44, 4, 606}, {45, 45, 1, 606}, {46, 46, 4, 606}, {47, 47, 6, 606}, {48, 48, 4, 606}, {49, 49, 1, 606}, {35, 36, 1, 607}, {36, 38, 4, 607}, {37, 39, 4, 607}, {38, 41, 6, 607}, {39, 42, 12, 607}, {40, 43, 6, 607}, {41, 45, 4, 607}, {42, 46, 12, 607}, {43, 47, 12, 607}, {44, 48, 4, 607}, {45, 50, 1, 607}, {46, 51, 4, 607}, {47, 52, 6, 607}, {48, 53, 4, 607}, {49, 54, 1, 607}, {35, 37, 1, 608}, {36, 39, 4, 608}, {37, 40, 4, 608}, {38, 42, 6, 608}, {39, 43, 12, 608}, {40, 44, 6, 608}, {41, 46, 4, 608}, {42, 47, 12, 608}, {43, 48, 12, 608}, {44, 49, 4, 608}, {45, 51, 1, 608}, {46, 52, 4, 608}, {47, 53, 6, 608}, {48, 54, 4, 608}, {49, 55, 1, 608}, {36, 36, 1, 609}, {38, 38, 4, 609}, {39, 39, 4, 609}, {41, 41, 6, 609}, {42, 42, 12, 609}, {43, 43, 6, 609}, {45, 45, 4, 609}, {46, 46, 12, 609}, {47, 47, 12, 609}, {48, 48, 4, 609}, {50, 50, 1, 609}, {51, 51, 4, 609}, {52, 52, 6, 609}, {53, 53, 4, 609}, {54, 54, 1, 609}, {36, 37, 1, 610}, {38, 39, 4, 610}, {39, 40, 4, 610}, {41, 42, 6, 610}, {42, 43, 12, 610}, {43, 44, 6, 610}, {45, 46, 4, 610}, {46, 47, 12, 610}, {47, 48, 12, 610}, {48, 49, 4, 610}, {50, 51, 1, 610}, {51, 52, 4, 610}, {52, 53, 6, 610}, {53, 54, 4, 610}, {54, 55, 1, 610}, {37, 37, 1, 611}, {39, 39, 4, 611}, {40, 40, 4, 611}, {42, 42, 6, 611}, {43, 43, 12, 611}, {44, 44, 6, 611}, {46, 46, 4, 611}, {47, 47, 12, 611}, {48, 48, 12, 611}, {49, 49, 4, 611}, {51, 51, 1, 611}, {52, 52, 4, 611}, {53, 53, 6, 611}, {54, 54, 4, 611}, {55, 55, 1, 611}, {35, 56, 1, 612}, {36, 57, 4, 612}, {37, 58, 4, 612}, {38, 59, 6, 612}, {39, 60, 12, 612}, {40, 61, 6, 612}, {41, 62, 4, 612}, {42, 63, 12, 612}, {43, 64, 12, 612}, {44, 65, 4, 612}, {45, 66, 1, 612}, {46, 67, 4, 612}, {47, 68, 6, 612}, {48, 69, 4, 612}, {49, 70, 1, 612}, {35, 57, 1, 613}, {36, 59, 4, 613}, {37, 60, 4, 613}, {38, 62, 6, 613}, {39, 63, 12, 613}, {40, 64, 6, 613}, {41, 66, 4, 613}, {42, 67, 12, 613}, {43, 68, 12, 613}, {44, 69, 4, 613}, {45, 71, 1, 613}, {46, 72, 4, 613}, {47, 73, 6, 613}, {48, 74, 4, 613}, {49, 75, 1, 613}, {35, 58, 1, 614}, {36, 60, 4, 614}, {37, 61, 4, 614}, {38, 63, 6, 614}, {39, 64, 12, 614}, {40, 65, 6, 614}, {41, 67, 4, 614}, {42, 68, 12, 614}, {43, 69, 12, 614}, {44, 70, 4, 614}, {45, 72, 1, 614}, {46, 73, 4, 614}, {47, 74, 6, 614}, {48, 75, 4, 614}, {49, 76, 1, 614}, {35, 59, 1, 615}, {36, 62, 4, 615}, {37, 63, 4, 615}, {38, 66, 6, 615}, {39, 67, 12, 615}, {40, 68, 6, 615}, {41, 71, 4, 615}, {42, 72, 12, 615}, {43, 73, 12, 615}, {44, 74, 4, 615}, {45, 77, 1, 615}, {46, 78, 4, 615}, {47, 79, 6, 615}, {48, 80, 4, 615}, {49, 81, 1, 615}, {35, 60, 1, 616}, {36, 63, 4, 616}, {37, 64, 4, 616}, {38, 67, 6, 616}, {39, 68, 12, 616}, {40, 69, 6, 616}, {41, 72, 4, 616}, {42, 73, 12, 616}, {43, 74, 12, 616}, {44, 75, 4, 616}, {45, 78, 1, 616}, {46, 79, 4, 616}, {47, 80, 6, 616}, {48, 81, 4, 616}, {49, 82, 1, 616}, {35, 61, 1, 617}, {36, 64, 4, 617}, {37, 65, 4, 617}, {38, 68, 6, 617}, {39, 69, 12, 617}, {40, 70, 6, 617}, {41, 73, 4, 617}, {42, 74, 12, 617}, {43, 75, 12, 617}, {44, 76, 4, 617}, {45, 79, 1, 617}, {46, 80, 4, 617}, {47, 81, 6, 617}, {48, 82, 4, 617}, {49, 83, 1, 617}, {36, 56, 1, 618}, {38, 57, 4, 618}, {39, 58, 4, 618}, {41, 59, 6, 618}, {42, 60, 12, 618}, {43, 61, 6, 618}, {45, 62, 4, 618}, {46, 63, 12, 618}, {47, 64, 12, 618}, {48, 65, 4, 618}, {50, 66, 1, 618}, {51, 67, 4, 618}, {52, 68, 6, 618}, {53, 69, 4, 618}, {54, 70, 1, 618}, {36, 57, 1, 619}, {38, 59, 4, 619}, {39, 60, 4, 619}, {41, 62, 6, 619}, {42, 63, 12, 619}, {43, 64, 6, 619}, {45, 66, 4, 619}, {46, 67, 12, 619}, {47, 68, 12, 619}, {48, 69, 4, 619}, {50, 71, 1, 619}, {51, 72, 4, 619}, {52, 73, 6, 619}, {53, 74, 4, 619}, {54, 75, 1, 619}, {36, 58, 1, 620}, {38, 60, 4, 620}, {39, 61, 4, 620}, {41, 63, 6, 620}, {42, 64, 12, 620}, {43, 65, 6, 620}, {45, 67, 4, 620}, {46, 68, 12, 620}, {47, 69, 12, 620}, {48, 70, 4, 620}, {50, 72, 1, 620}, {51, 73, 4, 620}, {52, 74, 6, 620}, {53, 75, 4, 620}, {54, 76, 1, 620}, {36, 59, 1, 621}, {38, 62, 4, 621}, {39, 63, 4, 621}, {41, 66, 6, 621}, {42, 67, 12, 621}, {43, 68, 6, 621}, {45, 71, 4, 621}, {46, 72, 12, 621}, {47, 73, 12, 621}, {48, 74, 4, 621}, {50, 77, 1, 621}, {51, 78, 4, 621}, {52, 79, 6, 621}, {53, 80, 4, 621}, {54, 81, 1, 621}, {36, 60, 1, 622}, {38, 63, 4, 622}, {39, 64, 4, 622}, {41, 67, 6, 622}, {42, 68, 12, 622}, {43, 69, 6, 622}, {45, 72, 4, 622}, {46, 73, 12, 622}, {47, 74, 12, 622}, {48, 75, 4, 622}, {50, 78, 1, 622}, {51, 79, 4, 622}, {52, 80, 6, 622}, {53, 81, 4, 622}, {54, 82, 1, 622}, {36, 61, 1, 623}, {38, 64, 4, 623}, {39, 65, 4, 623}, {41, 68, 6, 623}, {42, 69, 12, 623}, {43, 70, 6, 623}, {45, 73, 4, 623}, {46, 74, 12, 623}, {47, 75, 12, 623}, {48, 76, 4, 623}, {50, 79, 1, 623}, {51, 80, 4, 623}, {52, 81, 6, 623}, {53, 82, 4, 623}, {54, 83, 1, 623}, {37, 56, 1, 624}, {39, 57, 4, 624}, {40, 58, 4, 624}, {42, 59, 6, 624}, {43, 60, 12, 624}, {44, 61, 6, 624}, {46, 62, 4, 624}, {47, 63, 12, 624}, {48, 64, 12, 624}, {49, 65, 4, 624}, {51, 66, 1, 624}, {52, 67, 4, 624}, {53, 68, 6, 624}, {54, 69, 4, 624}, {55, 70, 1, 624}, {37, 57, 1, 625}, {39, 59, 4, 625}, {40, 60, 4, 625}, {42, 62, 6, 625}, {43, 63, 12, 625}, {44, 64, 6, 625}, {46, 66, 4, 625}, {47, 67, 12, 625}, {48, 68, 12, 625}, {49, 69, 4, 625}, {51, 71, 1, 625}, {52, 72, 4, 625}, {53, 73, 6, 625}, {54, 74, 4, 625}, {55, 75, 1, 625}, {37, 58, 1, 626}, {39, 60, 4, 626}, {40, 61, 4, 626}, {42, 63, 6, 626}, {43, 64, 12, 626}, {44, 65, 6, 626}, {46, 67, 4, 626}, {47, 68, 12, 626}, {48, 69, 12, 626}, {49, 70, 4, 626}, {51, 72, 1, 626}, {52, 73, 4, 626}, {53, 74, 6, 626}, {54, 75, 4, 626}, {55, 76, 1, 626}, {37, 59, 1, 627}, {39, 62, 4, 627}, {40, 63, 4, 627}, {42, 66, 6, 627}, {43, 67, 12, 627}, {44, 68, 6, 627}, {46, 71, 4, 627}, {47, 72, 12, 627}, {48, 73, 12, 627}, {49, 74, 4, 627}, {51, 77, 1, 627}, {52, 78, 4, 627}, {53, 79, 6, 627}, {54, 80, 4, 627}, {55, 81, 1, 627}, {37, 60, 1, 628}, {39, 63, 4, 628}, {40, 64, 4, 628}, {42, 67, 6, 628}, {43, 68, 12, 628}, {44, 69, 6, 628}, {46, 72, 4, 628}, {47, 73, 12, 628}, {48, 74, 12, 628}, {49, 75, 4, 628}, {51, 78, 1, 628}, {52, 79, 4, 628}, {53, 80, 6, 628}, {54, 81, 4, 628}, {55, 82, 1, 628}, {37, 61, 1, 629}, {39, 64, 4, 629}, {40, 65, 4, 629}, {42, 68, 6, 629}, {43, 69, 12, 629}, {44, 70, 6, 629}, {46, 73, 4, 629}, {47, 74, 12, 629}, {48, 75, 12, 629}, {49, 76, 4, 629}, {51, 79, 1, 629}, {52, 80, 4, 629}, {53, 81, 6, 629}, {54, 82, 4, 629}, {55, 83, 1, 629}, {35, 35, 1, 630}, {36, 36, 5, 630}, {37, 37, 5, 630}, {38, 38, 10, 630}, {39, 39, 20, 630}, {40, 40, 10, 630}, {41, 41, 10, 630}, {42, 42, 30, 630}, {43, 43, 30, 630}, {44, 44, 10, 630}, {45, 45, 5, 630}, {46, 46, 20, 630}, {47, 47, 30, 630}, {48, 48, 20, 630}, {49, 49, 5, 630}, {50, 50, 1, 630}, {51, 51, 5, 630}, {52, 52, 10, 630}, {53, 53, 10, 630}, {54, 54, 5, 630}, {55, 55, 1, 630}, {35, 56, 1, 631}, {36, 57, 5, 631}, {37, 58, 5, 631}, {38, 59, 10, 631}, {39, 60, 20, 631}, {40, 61, 10, 631}, {41, 62, 10, 631}, {42, 63, 30, 631}, {43, 64, 30, 631}, {44, 65, 10, 631}, {45, 66, 5, 631}, {46, 67, 20, 631}, {47, 68, 30, 631}, {48, 69, 20, 631}, {49, 70, 5, 631}, {50, 71, 1, 631}, {51, 72, 5, 631}, {52, 73, 10, 631}, {53, 74, 10, 631}, {54, 75, 5, 631}, {55, 76, 1, 631}, {35, 57, 1, 632}, {36, 59, 5, 632}, {37, 60, 5, 632}, {38, 62, 10, 632}, {39, 63, 20, 632}, {40, 64, 10, 632}, {41, 66, 10, 632}, {42, 67, 30, 632}, {43, 68, 30, 632}, {44, 69, 10, 632}, {45, 71, 5, 632}, {46, 72, 20, 632}, {47, 73, 30, 632}, {48, 74, 20, 632}, {49, 75, 5, 632}, {50, 77, 1, 632}, {51, 78, 5, 632}, {52, 79, 10, 632}, {53, 80, 10, 632}, {54, 81, 5, 632}, {55, 82, 1, 632}, {35, 58, 1, 633}, {36, 60, 5, 633}, {37, 61, 5, 633}, {38, 63, 10, 633}, {39, 64, 20, 633}, {40, 65, 10, 633}, {41, 67, 10, 633}, {42, 68, 30, 633}, {43, 69, 30, 633}, {44, 70, 10, 633}, {45, 72, 5, 633}, {46, 73, 20, 633}, {47, 74, 30, 633}, {48, 75, 20, 633}, {49, 76, 5, 633}, {50, 78, 1, 633}, {51, 79, 5, 633}, {52, 80, 10, 633}, {53, 81, 10, 633}, {54, 82, 5, 633}, {55, 83, 1, 633}, {35, 84, 1, 634}, {36, 85, 5, 634}, {37, 86, 5, 634}, {38, 87, 10, 634}, {39, 88, 20, 634}, {40, 89, 10, 634}, {41, 90, 10, 634}, {42, 91, 30, 634}, {43, 92, 30, 634}, {44, 93, 10, 634}, {45, 94, 5, 634}, {46, 95, 20, 634}, {47, 96, 30, 634}, {48, 97, 20, 634}, {49, 98, 5, 634}, {50, 99, 1, 634}, {51, 100, 5, 634}, {52, 101, 10, 634}, {53, 102, 10, 634}, {54, 103, 5, 634}, {55, 104, 1, 634}, {35, 85, 1, 635}, {36, 87, 5, 635}, {37, 88, 5, 635}, {38, 90, 10, 635}, {39, 91, 20, 635}, {40, 92, 10, 635}, {41, 94, 10, 635}, {42, 95, 30, 635}, {43, 96, 30, 635}, {44, 97, 10, 635}, {45, 99, 5, 635}, {46, 100, 20, 635}, {47, 101, 30, 635}, {48, 102, 20, 635}, {49, 103, 5, 635}, {50, 105, 1, 635}, {51, 106, 5, 635}, {52, 107, 10, 635}, {53, 108, 10, 635}, {54, 109, 5, 635}, {55, 110, 1, 635}, {35, 86, 1, 636}, {36, 88, 5, 636}, {37, 89, 5, 636}, {38, 91, 10, 636}, {39, 92, 20, 636}, {40, 93, 10, 636}, {41, 95, 10, 636}, {42, 96, 30, 636}, {43, 97, 30, 636}, {44, 98, 10, 636}, {45, 100, 5, 636}, {46, 101, 20, 636}, {47, 102, 30, 636}, {48, 103, 20, 636}, {49, 104, 5, 636}, {50, 106, 1, 636}, {51, 107, 5, 636}, {52, 108, 10, 636}, {53, 109, 10, 636}, {54, 110, 5, 636}, {55, 111, 1, 636}, {35, 87, 1, 637}, {36, 90, 5, 637}, {37, 91, 5, 637}, {38, 94, 10, 637}, {39, 95, 20, 637}, {40, 96, 10, 637}, {41, 99, 10, 637}, {42, 100, 30, 637}, {43, 101, 30, 637}, {44, 102, 10, 637}, {45, 105, 5, 637}, {46, 106, 20, 637}, {47, 107, 30, 637}, {48, 108, 20, 637}, {49, 109, 5, 637}, {50, 112, 1, 637}, {51, 113, 5, 637}, {52, 114, 10, 637}, {53, 115, 10, 637}, {54, 116, 5, 637}, {55, 117, 1, 637}, {35, 88, 1, 638}, {36, 91, 5, 638}, {37, 92, 5, 638}, {38, 95, 10, 638}, {39, 96, 20, 638}, {40, 97, 10, 638}, {41, 100, 10, 638}, {42, 101, 30, 638}, {43, 102, 30, 638}, {44, 103, 10, 638}, {45, 106, 5, 638}, {46, 107, 20, 638}, {47, 108, 30, 638}, {48, 109, 20, 638}, {49, 110, 5, 638}, {50, 113, 1, 638}, {51, 114, 5, 638}, {52, 115, 10, 638}, {53, 116, 10, 638}, {54, 117, 5, 638}, {55, 118, 1, 638}, {35, 89, 1, 639}, {36, 92, 5, 639}, {37, 93, 5, 639}, {38, 96, 10, 639}, {39, 97, 20, 639}, {40, 98, 10, 639}, {41, 101, 10, 639}, {42, 102, 30, 639}, {43, 103, 30, 639}, {44, 104, 10, 639}, {45, 107, 5, 639}, {46, 108, 20, 639}, {47, 109, 30, 639}, {48, 110, 20, 639}, {49, 111, 5, 639}, {50, 114, 1, 639}, {51, 115, 5, 639}, {52, 116, 10, 639}, {53, 117, 10, 639}, {54, 118, 5, 639}, {55, 119, 1, 639}, {56, 56, 1, 640}, {57, 57, 5, 640}, {58, 58, 5, 640}, {59, 59, 10, 640}, {60, 60, 20, 640}, {61, 61, 10, 640}, {62, 62, 10, 640}, {63, 63, 30, 640}, {64, 64, 30, 640}, {65, 65, 10, 640}, {66, 66, 5, 640}, {67, 67, 20, 640}, {68, 68, 30, 640}, {69, 69, 20, 640}, {70, 70, 5, 640}, {71, 71, 1, 640}, {72, 72, 5, 640}, {73, 73, 10, 640}, {74, 74, 10, 640}, {75, 75, 5, 640}, {76, 76, 1, 640}, {56, 57, 1, 641}, {57, 59, 5, 641}, {58, 60, 5, 641}, {59, 62, 10, 641}, {60, 63, 20, 641}, {61, 64, 10, 641}, {62, 66, 10, 641}, {63, 67, 30, 641}, {64, 68, 30, 641}, {65, 69, 10, 641}, {66, 71, 5, 641}, {67, 72, 20, 641}, {68, 73, 30, 641}, {69, 74, 20, 641}, {70, 75, 5, 641}, {71, 77, 1, 641}, {72, 78, 5, 641}, {73, 79, 10, 641}, {74, 80, 10, 641}, {75, 81, 5, 641}, {76, 82, 1, 641}, {56, 58, 1, 642}, {57, 60, 5, 642}, {58, 61, 5, 642}, {59, 63, 10, 642}, {60, 64, 20, 642}, {61, 65, 10, 642}, {62, 67, 10, 642}, {63, 68, 30, 642}, {64, 69, 30, 642}, {65, 70, 10, 642}, {66, 72, 5, 642}, {67, 73, 20, 642}, {68, 74, 30, 642}, {69, 75, 20, 642}, {70, 76, 5, 642}, {71, 78, 1, 642}, {72, 79, 5, 642}, {73, 80, 10, 642}, {74, 81, 10, 642}, {75, 82, 5, 642}, {76, 83, 1, 642}, {57, 57, 1, 643}, {59, 59, 5, 643}, {60, 60, 5, 643}, {62, 62, 10, 643}, {63, 63, 20, 643}, {64, 64, 10, 643}, {66, 66, 10, 643}, {67, 67, 30, 643}, {68, 68, 30, 643}, {69, 69, 10, 643}, {71, 71, 5, 643}, {72, 72, 20, 643}, {73, 73, 30, 643}, {74, 74, 20, 643}, {75, 75, 5, 643}, {77, 77, 1, 643}, {78, 78, 5, 643}, {79, 79, 10, 643}, {80, 80, 10, 643}, {81, 81, 5, 643}, {82, 82, 1, 643}, {57, 58, 1, 644}, {59, 60, 5, 644}, {60, 61, 5, 644}, {62, 63, 10, 644}, {63, 64, 20, 644}, {64, 65, 10, 644}, {66, 67, 10, 644}, {67, 68, 30, 644}, {68, 69, 30, 644}, {69, 70, 10, 644}, {71, 72, 5, 644}, {72, 73, 20, 644}, {73, 74, 30, 644}, {74, 75, 20, 644}, {75, 76, 5, 644}, {77, 78, 1, 644}, {78, 79, 5, 644}, {79, 80, 10, 644}, {80, 81, 10, 644}, {81, 82, 5, 644}, {82, 83, 1, 644}, {58, 58, 1, 645}, {60, 60, 5, 645}, {61, 61, 5, 645}, {63, 63, 10, 645}, {64, 64, 20, 645}, {65, 65, 10, 645}, {67, 67, 10, 645}, {68, 68, 30, 645}, {69, 69, 30, 645}, {70, 70, 10, 645}, {72, 72, 5, 645}, {73, 73, 20, 645}, {74, 74, 30, 645}, {75, 75, 20, 645}, {76, 76, 5, 645}, {78, 78, 1, 645}, {79, 79, 5, 645}, {80, 80, 10, 645}, {81, 81, 10, 645}, {82, 82, 5, 645}, {83, 83, 1, 645}, {56, 56, 1, 646}, {57, 57, 6, 646}, {58, 58, 6, 646}, {59, 59, 15, 646}, {60, 60, 30, 646}, {61, 61, 15, 646}, {62, 62, 20, 646}, {63, 63, 60, 646}, {64, 64, 60, 646}, {65, 65, 20, 646}, {66, 66, 15, 646}, {67, 67, 60, 646}, {68, 68, 90, 646}, {69, 69, 60, 646}, {70, 70, 15, 646}, {71, 71, 6, 646}, {72, 72, 30, 646}, {73, 73, 60, 646}, {74, 74, 60, 646}, {75, 75, 30, 646}, {76, 76, 6, 646}, {77, 77, 1, 646}, {78, 78, 6, 646}, {79, 79, 15, 646}, {80, 80, 20, 646}, {81, 81, 15, 646}, {82, 82, 6, 646}, {83, 83, 1, 646}, {56, 84, 1, 647}, {57, 85, 6, 647}, {58, 86, 6, 647}, {59, 87, 15, 647}, {60, 88, 30, 647}, {61, 89, 15, 647}, {62, 90, 20, 647}, {63, 91, 60, 647}, {64, 92, 60, 647}, {65, 93, 20, 647}, {66, 94, 15, 647}, {67, 95, 60, 647}, {68, 96, 90, 647}, {69, 97, 60, 647}, {70, 98, 15, 647}, {71, 99, 6, 647}, {72, 100, 30, 647}, {73, 101, 60, 647}, {74, 102, 60, 647}, {75, 103, 30, 647}, {76, 104, 6, 647}, {77, 105, 1, 647}, {78, 106, 6, 647}, {79, 107, 15, 647}, {80, 108, 20, 647}, {81, 109, 15, 647}, {82, 110, 6, 647}, {83, 111, 1, 647}, {56, 85, 1, 648}, {57, 87, 6, 648}, {58, 88, 6, 648}, {59, 90, 15, 648}, {60, 91, 30, 648}, {61, 92, 15, 648}, {62, 94, 20, 648}, {63, 95, 60, 648}, {64, 96, 60, 648}, {65, 97, 20, 648}, {66, 99, 15, 648}, {67, 100, 60, 648}, {68, 101, 90, 648}, {69, 102, 60, 648}, {70, 103, 15, 648}, {71, 105, 6, 648}, {72, 106, 30, 648}, {73, 107, 60, 648}, {74, 108, 60, 648}, {75, 109, 30, 648}, {76, 110, 6, 648}, {77, 112, 1, 648}, {78, 113, 6, 648}, {79, 114, 15, 648}, {80, 115, 20, 648}, {81, 116, 15, 648}, {82, 117, 6, 648}, {83, 118, 1, 648}, {56, 86, 1, 649}, {57, 88, 6, 649}, {58, 89, 6, 649}, {59, 91, 15, 649}, {60, 92, 30, 649}, {61, 93, 15, 649}, {62, 95, 20, 649}, {63, 96, 60, 649}, {64, 97, 60, 649}, {65, 98, 20, 649}, {66, 100, 15, 649}, {67, 101, 60, 649}, {68, 102, 90, 649}, {69, 103, 60, 649}, {70, 104, 15, 649}, {71, 106, 6, 649}, {72, 107, 30, 649}, {73, 108, 60, 649}, {74, 109, 60, 649}, {75, 110, 30, 649}, {76, 111, 6, 649}, {77, 113, 1, 649}, {78, 114, 6, 649}, {79, 115, 15, 649}, {80, 116, 20, 649}, {81, 117, 15, 649}, {82, 118, 6, 649}, {83, 119, 1, 649}, {84, 84, 1, 650}, {85, 85, 7, 650}, {86, 86, 7, 650}, {87, 87, 21, 650}, {88, 88, 42, 650}, {89, 89, 21, 650}, {90, 90, 35, 650}, {91, 91, 105, 650}, {92, 92, 105, 650}, {93, 93, 35, 650}, {94, 94, 35, 650}, {95, 95, 140, 650}, {96, 96, 210, 650}, {97, 97, 140, 650}, {98, 98, 35, 650}, {99, 99, 21, 650}, {100, 100, 105, 650}, {101, 101, 210, 650}, {102, 102, 210, 650}, {103, 103, 105, 650}, {104, 104, 21, 650}, {105, 105, 7, 650}, {106, 106, 42, 650}, {107, 107, 105, 650}, {108, 108, 140, 650}, {109, 109, 105, 650}, {110, 110, 42, 650}, {111, 111, 7, 650}, {112, 112, 1, 650}, {113, 113, 7, 650}, {114, 114, 21, 650}, {115, 115, 35, 650}, {116, 116, 35, 650}, {117, 117, 21, 650}, {118, 118, 7, 650}, {119, 119, 1, 650}, {120, 120, 1, 651}, {121, 121, 8, 651}, {122, 122, 8, 651}, {123, 123, 28, 651}, {124, 124, 56, 651}, {125, 125, 28, 651}, {126, 126, 56, 651}, {127, 127, 168, 651}, {128, 128, 168, 651}, {129, 129, 56, 651}, {130, 130, 70, 651}, {131, 131, 280, 651}, {132, 132, 420, 651}, {133, 133, 280, 651}, {134, 134, 70, 651}, {135, 135, 56, 651}, {136, 136, 280, 651}, {137, 137, 560, 651}, {138, 138, 560, 651}, {139, 139, 280, 651}, {140, 140, 56, 651}, {141, 141, 28, 651}, {142, 142, 168, 651}, {143, 143, 420, 651}, {144, 144, 560, 651}, {145, 145, 420, 651}, {146, 146, 168, 651}, {147, 147, 28, 651}, {148, 148, 8, 651}, {149, 149, 56, 651}, {150, 150, 168, 651}, {151, 151, 280, 651}, {152, 152, 280, 651}, {153, 153, 168, 651}, {154, 154, 56, 651}, {155, 155, 8, 651}, {156, 156, 1, 651}, {157, 157, 8, 651}, {158, 158, 28, 651}, {159, 159, 56, 651}, {160, 160, 70, 651}, {161, 161, 56, 651}, {162, 162, 28, 651}, {163, 163, 8, 651}, {164, 164, 1, 651}, {0, 165, 1, 652}, {1, 166, 1, 653}, {2, 167, 1, 653}, {3, 168, 1, 653}, {1, 169, 1, 654}, {2, 170, 1, 654}, {3, 171, 1, 654}, {1, 170, 1, 655}, {2, 172, 1, 655}, {3, 173, 1, 655}, {1, 171, 1, 656}, {2, 173, 1, 656}, {3, 174, 1, 656}, {1, 175, 1, 657}, {2, 176, 1, 657}, {3, 177, 1, 657}, {1, 176, 1, 658}, {2, 178, 1, 658}, {3, 179, 1, 658}, {1, 177, 1, 659}, {2, 179, 1, 659}, {3, 180, 1, 659}, {1, 178, 1, 660}, {2, 181, 1, 660}, {3, 182, 1, 660}, {1, 179, 1, 661}, {2, 182, 1, 661}, {3, 183, 1, 661}, {1, 180, 1, 662}, {2, 183, 1, 662}, {3, 184, 1, 662}, {4, 166, 1, 663}, {5, 167, 1, 663}, {6, 168, 1, 663}, {5, 166, 1, 664}, {7, 167, 1, 664}, {8, 168, 1, 664}, {6, 166, 1, 665}, {8, 167, 1, 665}, {9, 168, 1, 665}, {4, 169, 1, 666}, {5, 170, 1, 666}, {6, 171, 1, 666}, {4, 170, 1, 667}, {5, 172, 1, 667}, {6, 173, 1, 667}, {4, 171, 1, 668}, {5, 173, 1, 668}, {6, 174, 1, 668}, {5, 169, 1, 669}, {7, 170, 1, 669}, {8, 171, 1, 669}, {5, 170, 1, 670}, {7, 172, 1, 670}, {8, 173, 1, 670}, {5, 171, 1, 671}, {7, 173, 1, 671}, {8, 174, 1, 671}, {6, 169, 1, 672}, {8, 170, 1, 672}, {9, 171, 1, 672}, {6, 170, 1, 673}, {8, 172, 1, 673}, {9, 173, 1, 673}, {6, 171, 1, 674}, {8, 173, 1, 674}, {9, 174, 1, 674}, {4, 175, 1, 675}, {5, 176, 1, 675}, {6, 177, 1, 675}, {4, 176, 1, 676}, {5, 178, 1, 676}, {6, 179, 1, 676}, {4, 177, 1, 677}, {5, 179, 1, 677}, {6, 180, 1, 677}, {4, 178, 1, 678}, {5, 181, 1, 678}, {6, 182, 1, 678}, {4, 179, 1, 679}, {5, 182, 1, 679}, {6, 183, 1, 679}, {4, 180, 1, 680}, {5, 183, 1, 680}, {6, 184, 1, 680}, {5, 175, 1, 681}, {7, 176, 1, 681}, {8, 177, 1, 681}, {5, 176, 1, 682}, {7, 178, 1, 682}, {8, 179, 1, 682}, {5, 177, 1, 683}, {7, 179, 1, 683}, {8, 180, 1, 683}, {5, 178, 1, 684}, {7, 181, 1, 684}, {8, 182, 1, 684}, {5, 179, 1, 685}, {7, 182, 1, 685}, {8, 183, 1, 685}, {5, 180, 1, 686}, {7, 183, 1, 686}, {8, 184, 1, 686}, {6, 175, 1, 687}, {8, 176, 1, 687}, {9, 177, 1, 687}, {6, 176, 1, 688}, {8, 178, 1, 688}, {9, 179, 1, 688}, {6, 177, 1, 689}, {8, 179, 1, 689}, {9, 180, 1, 689}, {6, 178, 1, 690}, {8, 181, 1, 690}, {9, 182, 1, 690}, {6, 179, 1, 691}, {8, 182, 1, 691}, {9, 183, 1, 691}, {6, 180, 1, 692}, {8, 183, 1, 692}, {9, 184, 1, 692}, {4, 169, 1, 693}, {5, 170, 2, 693}, {6, 171, 2, 693}, {7, 172, 1, 693}, {8, 173, 2, 693}, {9, 174, 1, 693}, {4, 175, 1, 694}, {5, 176, 2, 694}, {6, 177, 2, 694}, {7, 178, 1, 694}, {8, 179, 2, 694}, {9, 180, 1, 694}, {4, 176, 1, 695}, {5, 178, 2, 695}, {6, 179, 2, 695}, {7, 181, 1, 695}, {8, 182, 2, 695}, {9, 183, 1, 695}, {4, 177, 1, 696}, {5, 179, 2, 696}, {6, 180, 2, 696}, {7, 182, 1, 696}, {8, 183, 2, 696}, {9, 184, 1, 696}, {4, 185, 1, 697}, {5, 186, 2, 697}, {6, 187, 2, 697}, {7, 188, 1, 697}, {8, 189, 2, 697}, {9, 190, 1, 697}, {4, 186, 1, 698}, {5, 188, 2, 698}, {6, 189, 2, 698}, {7, 191, 1, 698}, {8, 192, 2, 698}, {9, 193, 1, 698}, {4, 187, 1, 699}, {5, 189, 2, 699}, {6, 190, 2, 699}, {7, 192, 1, 699}, {8, 193, 2, 699}, {9, 194, 1, 699}, {4, 188, 1, 700}, {5, 191, 2, 700}, {6, 192, 2, 700}, {7, 195, 1, 700}, {8, 196, 2, 700}, {9, 197, 1, 700}, {4, 189, 1, 701}, {5, 192, 2, 701}, {6, 193, 2, 701}, {7, 196, 1, 701}, {8, 197, 2, 701}, {9, 198, 1, 701}, {4, 190, 1, 702}, {5, 193, 2, 702}, {6, 194, 2, 702}, {7, 197, 1, 702}, {8, 198, 2, 702}, {9, 199, 1, 702}, {10, 166, 1, 703}, {11, 167, 1, 703}, {12, 168, 1, 703}, {11, 166, 1, 704}, {13, 167, 1, 704}, {14, 168, 1, 704}, {12, 166, 1, 705}, {14, 167, 1, 705}, {15, 168, 1, 705}, {13, 166, 1, 706}, {16, 167, 1, 706}, {17, 168, 1, 706}, {14, 166, 1, 707}, {17, 167, 1, 707}, {18, 168, 1, 707}, {15, 166, 1, 708}, {18, 167, 1, 708}, {19, 168, 1, 708}, {10, 169, 1, 709}, {11, 170, 1, 709}, {12, 171, 1, 709}, {10, 170, 1, 710}, {11, 172, 1, 710}, {12, 173, 1, 710}, {10, 171, 1, 711}, {11, 173, 1, 711}, {12, 174, 1, 711}, {11, 169, 1, 712}, {13, 170, 1, 712}, {14, 171, 1, 712}, {11, 170, 1, 713}, {13, 172, 1, 713}, {14, 173, 1, 713}, {11, 171, 1, 714}, {13, 173, 1, 714}, {14, 174, 1, 714}, {12, 169, 1, 715}, {14, 170, 1, 715}, {15, 171, 1, 715}, {12, 170, 1, 716}, {14, 172, 1, 716}, {15, 173, 1, 716}, {12, 171, 1, 717}, {14, 173, 1, 717}, {15, 174, 1, 717}, {13, 169, 1, 718}, {16, 170, 1, 718}, {17, 171, 1, 718}, {13, 170, 1, 719}, {16, 172, 1, 719}, {17, 173, 1, 719}, {13, 171, 1, 720}, {16, 173, 1, 720}, {17, 174, 1, 720}, {14, 169, 1, 721}, {17, 170, 1, 721}, {18, 171, 1, 721}, {14, 170, 1, 722}, {17, 172, 1, 722}, {18, 173, 1, 722}, {14, 171, 1, 723}, {17, 173, 1, 723}, {18, 174, 1, 723}, {15, 169, 1, 724}, {18, 170, 1, 724}, {19, 171, 1, 724}, {15, 170, 1, 725}, {18, 172, 1, 725}, {19, 173, 1, 725}, {15, 171, 1, 726}, {18, 173, 1, 726}, {19, 174, 1, 726}, {10, 169, 1, 727}, {11, 170, 2, 727}, {12, 171, 2, 727}, {13, 172, 1, 727}, {14, 173, 2, 727}, {15, 174, 1, 727}, {11, 169, 1, 728}, {13, 170, 2, 728}, {14, 171, 2, 728}, {16, 172, 1, 728}, {17, 173, 2, 728}, {18, 174, 1, 728}, {12, 169, 1, 729}, {14, 170, 2, 729}, {15, 171, 2, 729}, {17, 172, 1, 729}, {18, 173, 2, 729}, {19, 174, 1, 729}, {10, 175, 1, 730}, {11, 176, 2, 730}, {12, 177, 2, 730}, {13, 178, 1, 730}, {14, 179, 2, 730}, {15, 180, 1, 730}, {10, 176, 1, 731}, {11, 178, 2, 731}, {12, 179, 2, 731}, {13, 181, 1, 731}, {14, 182, 2, 731}, {15, 183, 1, 731}, {10, 177, 1, 732}, {11, 179, 2, 732}, {12, 180, 2, 732}, {13, 182, 1, 732}, {14, 183, 2, 732}, {15, 184, 1, 732}, {11, 175, 1, 733}, {13, 176, 2, 733}, {14, 177, 2, 733}, {16, 178, 1, 733}, {17, 179, 2, 733}, {18, 180, 1, 733}, {11, 176, 1, 734}, {13, 178, 2, 734}, {14, 179, 2, 734}, {16, 181, 1, 734}, {17, 182, 2, 734}, {18, 183, 1, 734}, {11, 177, 1, 735}, {13, 179, 2, 735}, {14, 180, 2, 735}, {16, 182, 1, 735}, {17, 183, 2, 735}, {18, 184, 1, 735}, {12, 175, 1, 736}, {14, 176, 2, 736}, {15, 177, 2, 736}, {17, 178, 1, 736}, {18, 179, 2, 736}, {19, 180, 1, 736}, {12, 176, 1, 737}, {14, 178, 2, 737}, {15, 179, 2, 737}, {17, 181, 1, 737}, {18, 182, 2, 737}, {19, 183, 1, 737}, {12, 177, 1, 738}, {14, 179, 2, 738}, {15, 180, 2, 738}, {17, 182, 1, 738}, {18, 183, 2, 738}, {19, 184, 1, 738}, {10, 185, 1, 739}, {11, 186, 2, 739}, {12, 187, 2, 739}, {13, 188, 1, 739}, {14, 189, 2, 739}, {15, 190, 1, 739}, {10, 186, 1, 740}, {11, 188, 2, 740}, {12, 189, 2, 740}, {13, 191, 1, 740}, {14, 192, 2, 740}, {15, 193, 1, 740}, {10, 187, 1, 741}, {11, 189, 2, 741}, {12, 190, 2, 741}, {13, 192, 1, 741}, {14, 193, 2, 741}, {15, 194, 1, 741}, {10, 188, 1, 742}, {11, 191, 2, 742}, {12, 192, 2, 742}, {13, 195, 1, 742}, {14, 196, 2, 742}, {15, 197, 1, 742}, {10, 189, 1, 743}, {11, 192, 2, 743}, {12, 193, 2, 743}, {13, 196, 1, 743}, {14, 197, 2, 743}, {15, 198, 1, 743}, {10, 190, 1, 744}, {11, 193, 2, 744}, {12, 194, 2, 744}, {13, 197, 1, 744}, {14, 198, 2, 744}, {15, 199, 1, 744}, {11, 185, 1, 745}, {13, 186, 2, 745}, {14, 187, 2, 745}, {16, 188, 1, 745}, {17, 189, 2, 745}, {18, 190, 1, 745}, {11, 186, 1, 746}, {13, 188, 2, 746}, {14, 189, 2, 746}, {16, 191, 1, 746}, {17, 192, 2, 746}, {18, 193, 1, 746}, {11, 187, 1, 747}, {13, 189, 2, 747}, {14, 190, 2, 747}, {16, 192, 1, 747}, {17, 193, 2, 747}, {18, 194, 1, 747}, {11, 188, 1, 748}, {13, 191, 2, 748}, {14, 192, 2, 748}, {16, 195, 1, 748}, {17, 196, 2, 748}, {18, 197, 1, 748}, {11, 189, 1, 749}, {13, 192, 2, 749}, {14, 193, 2, 749}, {16, 196, 1, 749}, {17, 197, 2, 749}, {18, 198, 1, 749}, {11, 190, 1, 750}, {13, 193, 2, 750}, {14, 194, 2, 750}, {16, 197, 1, 750}, {17, 198, 2, 750}, {18, 199, 1, 750}, {12, 185, 1, 751}, {14, 186, 2, 751}, {15, 187, 2, 751}, {17, 188, 1, 751}, {18, 189, 2, 751}, {19, 190, 1, 751}, {12, 186, 1, 752}, {14, 188, 2, 752}, {15, 189, 2, 752}, {17, 191, 1, 752}, {18, 192, 2, 752}, {19, 193, 1, 752}, {12, 187, 1, 753}, {14, 189, 2, 753}, {15, 190, 2, 753}, {17, 192, 1, 753}, {18, 193, 2, 753}, {19, 194, 1, 753}, {12, 188, 1, 754}, {14, 191, 2, 754}, {15, 192, 2, 754}, {17, 195, 1, 754}, {18, 196, 2, 754}, {19, 197, 1, 754}, {12, 189, 1, 755}, {14, 192, 2, 755}, {15, 193, 2, 755}, {17, 196, 1, 755}, {18, 197, 2, 755}, {19, 198, 1, 755}, {12, 190, 1, 756}, {14, 193, 2, 756}, {15, 194, 2, 756}, {17, 197, 1, 756}, {18, 198, 2, 756}, {19, 199, 1, 756}, {10, 175, 1, 757}, {11, 176, 3, 757}, {12, 177, 3, 757}, {13, 178, 3, 757}, {14, 179, 6, 757}, {15, 180, 3, 757}, {16, 181, 1, 757}, {17, 182, 3, 757}, {18, 183, 3, 757}, {19, 184, 1, 757}, {10, 185, 1, 758}, {11, 186, 3, 758}, {12, 187, 3, 758}, {13, 188, 3, 758}, {14, 189, 6, 758}, {15, 190, 3, 758}, {16, 191, 1, 758}, {17, 192, 3, 758}, {18, 193, 3, 758}, {19, 194, 1, 758}, {10, 186, 1, 759}, {11, 188, 3, 759}, {12, 189, 3, 759}, {13, 191, 3, 759}, {14, 192, 6, 759}, {15, 193, 3, 759}, {16, 195, 1, 759}, {17, 196, 3, 759}, {18, 197, 3, 759}, {19, 198, 1, 759}, {10, 187, 1, 760}, {11, 189, 3, 760}, {12, 190, 3, 760}, {13, 192, 3, 760}, {14, 193, 6, 760}, {15, 194, 3, 760}, {16, 196, 1, 760}, {17, 197, 3, 760}, {18, 198, 3, 760}, {19, 199, 1, 760}, {10, 200, 1, 761}, {11, 201, 3, 761}, {12, 202, 3, 761}, {13, 203, 3, 761}, {14, 204, 6, 761}, {15, 205, 3, 761}, {16, 206, 1, 761}, {17, 207, 3, 761}, {18, 208, 3, 761}, {19, 209, 1, 761}, {10, 201, 1, 762}, {11, 203, 3, 762}, {12, 204, 3, 762}, {13, 206, 3, 762}, {14, 207, 6, 762}, {15, 208, 3, 762}, {16, 210, 1, 762}, {17, 211, 3, 762}, {18, 212, 3, 762}, {19, 213, 1, 762}, {10, 202, 1, 763}, {11, 204, 3, 763}, {12, 205, 3, 763}, {13, 207, 3, 763}, {14, 208, 6, 763}, {15, 209, 3, 763}, {16, 211, 1, 763}, {17, 212, 3, 763}, {18, 213, 3, 763}, {19, 214, 1, 763}, {10, 203, 1, 764}, {11, 206, 3, 764}, {12, 207, 3, 764}, {13, 210, 3, 764}, {14, 211, 6, 764}, {15, 212, 3, 764}, {16, 215, 1, 764}, {17, 216, 3, 764}, {18, 217, 3, 764}, {19, 218, 1, 764}, {10, 204, 1, 765}, {11, 207, 3, 765}, {12, 208, 3, 765}, {13, 211, 3, 765}, {14, 212, 6, 765}, {15, 213, 3, 765}, {16, 216, 1, 765}, {17, 217, 3, 765}, {18, 218, 3, 765}, {19, 219, 1, 765}, {10, 205, 1, 766}, {11, 208, 3, 766}, {12, 209, 3, 766}, {13, 212, 3, 766}, {14, 213, 6, 766}, {15, 214, 3, 766}, {16, 217, 1, 766}, {17, 218, 3, 766}, {18, 219, 3, 766}, {19, 220, 1, 766}, {20, 169, 1, 767}, {21, 170, 2, 767}, {22, 171, 2, 767}, {23, 172, 1, 767}, {24, 173, 2, 767}, {25, 174, 1, 767}, {21, 169, 1, 768}, {23, 170, 2, 768}, {24, 171, 2, 768}, {26, 172, 1, 768}, {27, 173, 2, 768}, {28, 174, 1, 768}, {22, 169, 1, 769}, {24, 170, 2, 769}, {25, 171, 2, 769}, {27, 172, 1, 769}, {28, 173, 2, 769}, {29, 174, 1, 769}, {23, 169, 1, 770}, {26, 170, 2, 770}, {27, 171, 2, 770}, {30, 172, 1, 770}, {31, 173, 2, 770}, {32, 174, 1, 770}, {24, 169, 1, 771}, {27, 170, 2, 771}, {28, 171, 2, 771}, {31, 172, 1, 771}, {32, 173, 2, 771}, {33, 174, 1, 771}, {25, 169, 1, 772}, {28, 170, 2, 772}, {29, 171, 2, 772}, {32, 172, 1, 772}, {33, 173, 2, 772}, {34, 174, 1, 772}, {20, 175, 1, 773}, {21, 176, 2, 773}, {22, 177, 2, 773}, {23, 178, 1, 773}, {24, 179, 2, 773}, {25, 180, 1, 773}, {20, 176, 1, 774}, {21, 178, 2, 774}, {22, 179, 2, 774}, {23, 181, 1, 774}, {24, 182, 2, 774}, {25, 183, 1, 774}, {20, 177, 1, 775}, {21, 179, 2, 775}, {22, 180, 2, 775}, {23, 182, 1, 775}, {24, 183, 2, 775}, {25, 184, 1, 775}, {21, 175, 1, 776}, {23, 176, 2, 776}, {24, 177, 2, 776}, {26, 178, 1, 776}, {27, 179, 2, 776}, {28, 180, 1, 776}, {21, 176, 1, 777}, {23, 178, 2, 777}, {24, 179, 2, 777}, {26, 181, 1, 777}, {27, 182, 2, 777}, {28, 183, 1, 777}, {21, 177, 1, 778}, {23, 179, 2, 778}, {24, 180, 2, 778}, {26, 182, 1, 778}, {27, 183, 2, 778}, {28, 184, 1, 778}, {22, 175, 1, 779}, {24, 176, 2, 779}, {25, 177, 2, 779}, {27, 178, 1, 779}, {28, 179, 2, 779}, {29, 180, 1, 779}, {22, 176, 1, 780}, {24, 178, 2, 780}, {25, 179, 2, 780}, {27, 181, 1, 780}, {28, 182, 2, 780}, {29, 183, 1, 780}, {22, 177, 1, 781}, {24, 179, 2, 781}, {25, 180, 2, 781}, {27, 182, 1, 781}, {28, 183, 2, 781}, {29, 184, 1, 781}, {23, 175, 1, 782}, {26, 176, 2, 782}, {27, 177, 2, 782}, {30, 178, 1, 782}, {31, 179, 2, 782}, {32, 180, 1, 782}, {23, 176, 1, 783}, {26, 178, 2, 783}, {27, 179, 2, 783}, {30, 181, 1, 783}, {31, 182, 2, 783}, {32, 183, 1, 783}, {23, 177, 1, 784}, {26, 179, 2, 784}, {27, 180, 2, 784}, {30, 182, 1, 784}, {31, 183, 2, 784}, {32, 184, 1, 784}, {24, 175, 1, 785}, {27, 176, 2, 785}, {28, 177, 2, 785}, {31, 178, 1, 785}, {32, 179, 2, 785}, {33, 180, 1, 785}, {24, 176, 1, 786}, {27, 178, 2, 786}, {28, 179, 2, 786}, {31, 181, 1, 786}, {32, 182, 2, 786}, {33, 183, 1, 786}, {24, 177, 1, 787}, {27, 179, 2, 787}, {28, 180, 2, 787}, {31, 182, 1, 787}, {32, 183, 2, 787}, {33, 184, 1, 787}, {25, 175, 1, 788}, {28, 176, 2, 788}, {29, 177, 2, 788}, {32, 178, 1, 788}, {33, 179, 2, 788}, {34, 180, 1, 788}, {25, 176, 1, 789}, {28, 178, 2, 789}, {29, 179, 2, 789}, {32, 181, 1, 789}, {33, 182, 2, 789}, {34, 183, 1, 789}, {25, 177, 1, 790}, {28, 179, 2, 790}, {29, 180, 2, 790}, {32, 182, 1, 790}, {33, 183, 2, 790}, {34, 184, 1, 790}, {20, 175, 1, 791}, {21, 176, 3, 791}, {22, 177, 3, 791}, {23, 178, 3, 791}, {24, 179, 6, 791}, {25, 180, 3, 791}, {26, 181, 1, 791}, {27, 182, 3, 791}, {28, 183, 3, 791}, {29, 184, 1, 791}, {21, 175, 1, 792}, {23, 176, 3, 792}, {24, 177, 3, 792}, {26, 178, 3, 792}, {27, 179, 6, 792}, {28, 180, 3, 792}, {30, 181, 1, 792}, {31, 182, 3, 792}, {32, 183, 3, 792}, {33, 184, 1, 792}, {22, 175, 1, 793}, {24, 176, 3, 793}, {25, 177, 3, 793}, {27, 178, 3, 793}, {28, 179, 6, 793}, {29, 180, 3, 793}, {31, 181, 1, 793}, {32, 182, 3, 793}, {33, 183, 3, 793}, {34, 184, 1, 793}, {20, 185, 1, 794}, {21, 186, 3, 794}, {22, 187, 3, 794}, {23, 188, 3, 794}, {24, 189, 6, 794}, {25, 190, 3, 794}, {26, 191, 1, 794}, {27, 192, 3, 794}, {28, 193, 3, 794}, {29, 194, 1, 794}, {20, 186, 1, 795}, {21, 188, 3, 795}, {22, 189, 3, 795}, {23, 191, 3, 795}, {24, 192, 6, 795}, {25, 193, 3, 795}, {26, 195, 1, 795}, {27, 196, 3, 795}, {28, 197, 3, 795}, {29, 198, 1, 795}, {20, 187, 1, 796}, {21, 189, 3, 796}, {22, 190, 3, 796}, {23, 192, 3, 796}, {24, 193, 6, 796}, {25, 194, 3, 796}, {26, 196, 1, 796}, {27, 197, 3, 796}, {28, 198, 3, 796}, {29, 199, 1, 796}, {21, 185, 1, 797}, {23, 186, 3, 797}, {24, 187, 3, 797}, {26, 188, 3, 797}, {27, 189, 6, 797}, {28, 190, 3, 797}, {30, 191, 1, 797}, {31, 192, 3, 797}, {32, 193, 3, 797}, {33, 194, 1, 797}, {21, 186, 1, 798}, {23, 188, 3, 798}, {24, 189, 3, 798}, {26, 191, 3, 798}, {27, 192, 6, 798}, {28, 193, 3, 798}, {30, 195, 1, 798}, {31, 196, 3, 798}, {32, 197, 3, 798}, {33, 198, 1, 798}, {21, 187, 1, 799}, {23, 189, 3, 799}, {24, 190, 3, 799}, {26, 192, 3, 799}, {27, 193, 6, 799}, {28, 194, 3, 799}, {30, 196, 1, 799}, {31, 197, 3, 799}, {32, 198, 3, 799}, {33, 199, 1, 799}, {22, 185, 1, 800}, {24, 186, 3, 800}, {25, 187, 3, 800}, {27, 188, 3, 800}, {28, 189, 6, 800}, {29, 190, 3, 800}, {31, 191, 1, 800}, {32, 192, 3, 800}, {33, 193, 3, 800}, {34, 194, 1, 800}, {22, 186, 1, 801}, {24, 188, 3, 801}, {25, 189, 3, 801}, {27, 191, 3, 801}, {28, 192, 6, 801}, {29, 193, 3, 801}, {31, 195, 1, 801}, {32, 196, 3, 801}, {33, 197, 3, 801}, {34, 198, 1, 801}, {22, 187, 1, 802}, {24, 189, 3, 802}, {25, 190, 3, 802}, {27, 192, 3, 802}, {28, 193, 6, 802}, {29, 194, 3, 802}, {31, 196, 1, 802}, {32, 197, 3, 802}, {33, 198, 3, 802}, {34, 199, 1, 802}, {20, 185, 1, 803}, {21, 186, 4, 803}, {22, 187, 4, 803}, {23, 188, 6, 803}, {24, 189, 12, 803}, {25, 190, 6, 803}, {26, 191, 4, 803}, {27, 192, 12, 803}, {28, 193, 12, 803}, {29, 194, 4, 803}, {30, 195, 1, 803}, {31, 196, 4, 803}, {32, 197, 6, 803}, {33, 198, 4, 803}, {34, 199, 1, 803}, {20, 200, 1, 804}, {21, 201, 4, 804}, {22, 202, 4, 804}, {23, 203, 6, 804}, {24, 204, 12, 804}, {25, 205, 6, 804}, {26, 206, 4, 804}, {27, 207, 12, 804}, {28, 208, 12, 804}, {29, 209, 4, 804}, {30, 210, 1, 804}, {31, 211, 4, 804}, {32, 212, 6, 804}, {33, 213, 4, 804}, {34, 214, 1, 804}, {20, 201, 1, 805}, {21, 203, 4, 805}, {22, 204, 4, 805}, {23, 206, 6, 805}, {24, 207, 12, 805}, {25, 208, 6, 805}, {26, 210, 4, 805}, {27, 211, 12, 805}, {28, 212, 12, 805}, {29, 213, 4, 805}, {30, 215, 1, 805}, {31, 216, 4, 805}, {32, 217, 6, 805}, {33, 218, 4, 805}, {34, 219, 1, 805}, {20, 202, 1, 806}, {21, 204, 4, 806}, {22, 205, 4, 806}, {23, 207, 6, 806}, {24, 208, 12, 806}, {25, 209, 6, 806}, {26, 211, 4, 806}, {27, 212, 12, 806}, {28, 213, 12, 806}, {29, 214, 4, 806}, {30, 216, 1, 806}, {31, 217, 4, 806}, {32, 218, 6, 806}, {33, 219, 4, 806}, {34, 220, 1, 806}, {35, 175, 1, 807}, {36, 176, 3, 807}, {37, 177, 3, 807}, {38, 178, 3, 807}, {39, 179, 6, 807}, {40, 180, 3, 807}, {41, 181, 1, 807}, {42, 182, 3, 807}, {43, 183, 3, 807}, {44, 184, 1, 807}, {36, 175, 1, 808}, {38, 176, 3, 808}, {39, 177, 3, 808}, {41, 178, 3, 808}, {42, 179, 6, 808}, {43, 180, 3, 808}, {45, 181, 1, 808}, {46, 182, 3, 808}, {47, 183, 3, 808}, {48, 184, 1, 808}, {37, 175, 1, 809}, {39, 176, 3, 809}, {40, 177, 3, 809}, {42, 178, 3, 809}, {43, 179, 6, 809}, {44, 180, 3, 809}, {46, 181, 1, 809}, {47, 182, 3, 809}, {48, 183, 3, 809}, {49, 184, 1, 809}, {38, 175, 1, 810}, {41, 176, 3, 810}, {42, 177, 3, 810}, {45, 178, 3, 810}, {46, 179, 6, 810}, {47, 180, 3, 810}, {50, 181, 1, 810}, {51, 182, 3, 810}, {52, 183, 3, 810}, {53, 184, 1, 810}, {39, 175, 1, 811}, {42, 176, 3, 811}, {43, 177, 3, 811}, {46, 178, 3, 811}, {47, 179, 6, 811}, {48, 180, 3, 811}, {51, 181, 1, 811}, {52, 182, 3, 811}, {53, 183, 3, 811}, {54, 184, 1, 811}, {40, 175, 1, 812}, {43, 176, 3, 812}, {44, 177, 3, 812}, {47, 178, 3, 812}, {48, 179, 6, 812}, {49, 180, 3, 812}, {52, 181, 1, 812}, {53, 182, 3, 812}, {54, 183, 3, 812}, {55, 184, 1, 812}, {35, 185, 1, 813}, {36, 186, 4, 813}, {37, 187, 4, 813}, {38, 188, 6, 813}, {39, 189, 12, 813}, {40, 190, 6, 813}, {41, 191, 4, 813}, {42, 192, 12, 813}, {43, 193, 12, 813}, {44, 194, 4, 813}, {45, 195, 1, 813}, {46, 196, 4, 813}, {47, 197, 6, 813}, {48, 198, 4, 813}, {49, 199, 1, 813}, {36, 185, 1, 814}, {38, 186, 4, 814}, {39, 187, 4, 814}, {41, 188, 6, 814}, {42, 189, 12, 814}, {43, 190, 6, 814}, {45, 191, 4, 814}, {46, 192, 12, 814}, {47, 193, 12, 814}, {48, 194, 4, 814}, {50, 195, 1, 814}, {51, 196, 4, 814}, {52, 197, 6, 814}, {53, 198, 4, 814}, {54, 199, 1, 814}, {37, 185, 1, 815}, {39, 186, 4, 815}, {40, 187, 4, 815}, {42, 188, 6, 815}, {43, 189, 12, 815}, {44, 190, 6, 815}, {46, 191, 4, 815}, {47, 192, 12, 815}, {48, 193, 12, 815}, {49, 194, 4, 815}, {51, 195, 1, 815}, {52, 196, 4, 815}, {53, 197, 6, 815}, {54, 198, 4, 815}, {55, 199, 1, 815}, {35, 200, 1, 816}, {36, 201, 5, 816}, {37, 202, 5, 816}, {38, 203, 10, 816}, {39, 204, 20, 816}, {40, 205, 10, 816}, {41, 206, 10, 816}, {42, 207, 30, 816}, {43, 208, 30, 816}, {44, 209, 10, 816}, {45, 210, 5, 816}, {46, 211, 20, 816}, {47, 212, 30, 816}, {48, 213, 20, 816}, {49, 214, 5, 816}, {50, 215, 1, 816}, {51, 216, 5, 816}, {52, 217, 10, 816}, {53, 218, 10, 816}, {54, 219, 5, 816}, {55, 220, 1, 816}, {56, 221, 1, 817}, {57, 222, 6, 817}, {58, 223, 6, 817}, {59, 224, 15, 817}, {60, 225, 30, 817}, {61, 226, 15, 817}, {62, 227, 20, 817}, {63, 228, 60, 817}, {64, 229, 60, 817}, {65, 230, 20, 817}, {66, 231, 15, 817}, {67, 232, 60, 817}, {68, 233, 90, 817}, {69, 234, 60, 817}, {70, 235, 15, 817}, {71, 236, 6, 817}, {72, 237, 30, 817}, {73, 238, 60, 817}, {74, 239, 60, 817}, {75, 240, 30, 817}, {76, 241, 6, 817}, {77, 242, 1, 817}, {78, 243, 6, 817}, {79, 244, 15, 817}, {80, 245, 20, 817}, {81, 246, 15, 817}, {82, 247, 6, 817}, {83, 248, 1, 817}, {0, 249, 1, 818}, {1, 250, 1, 819}, {2, 251, 1, 819}, {3, 252, 1, 819}, {1, 253, 1, 820}, {2, 254, 1, 820}, {3, 255, 1, 820}, {1, 254, 1, 821}, {2, 256, 1, 821}, {3, 257, 1, 821}, {1, 255, 1, 822}, {2, 257, 1, 822}, {3, 258, 1, 822}, {4, 250, 1, 823}, {5, 251, 1, 823}, {6, 252, 1, 823}, {5, 250, 1, 824}, {7, 251, 1, 824}, {8, 252, 1, 824}, {6, 250, 1, 825}, {8, 251, 1, 825}, {9, 252, 1, 825}, {4, 253, 1, 826}, {5, 254, 1, 826}, {6, 255, 1, 826}, {4, 254, 1, 827}, {5, 256, 1, 827}, {6, 257, 1, 827}, {4, 255, 1, 828}, {5, 257, 1, 828}, {6, 258, 1, 828}, {5, 253, 1, 829}, {7, 254, 1, 829}, {8, 255, 1, 829}, {5, 254, 1, 830}, {7, 256, 1, 830}, {8, 257, 1, 830}, {5, 255, 1, 831}, {7, 257, 1, 831}, {8, 258, 1, 831}, {6, 253, 1, 832}, {8, 254, 1, 832}, {9, 255, 1, 832}, {6, 254, 1, 833}, {8, 256, 1, 833}, {9, 257, 1, 833}, {6, 255, 1, 834}, {8, 257, 1, 834}, {9, 258, 1, 834}, {4, 253, 1, 835}, {5, 254, 2, 835}, {6, 255, 2, 835}, {7, 256, 1, 835}, {8, 257, 2, 835}, {9, 258, 1, 835}, {4, 259, 1, 836}, {5, 260, 2, 836}, {6, 261, 2, 836}, {7, 262, 1, 836}, {8, 263, 2, 836}, {9, 264, 1, 836}, {4, 260, 1, 837}, {5, 262, 2, 837}, {6, 263, 2, 837}, {7, 265, 1, 837}, {8, 266, 2, 837}, {9, 267, 1, 837}, {4, 261, 1, 838}, {5, 263, 2, 838}, {6, 264, 2, 838}, {7, 266, 1, 838}, {8, 267, 2, 838}, {9, 268, 1, 838}, {10, 253, 1, 839}, {11, 254, 2, 839}, {12, 255, 2, 839}, {13, 256, 1, 839}, {14, 257, 2, 839}, {15, 258, 1, 839}, {11, 253, 1, 840}, {13, 254, 2, 840}, {14, 255, 2, 840}, {16, 256, 1, 840}, {17, 257, 2, 840}, {18, 258, 1, 840}, {12, 253, 1, 841}, {14, 254, 2, 841}, {15, 255, 2, 841}, {17, 256, 1, 841}, {18, 257, 2, 841}, {19, 258, 1, 841}, {10, 259, 1, 842}, {11, 260, 3, 842}, {12, 261, 3, 842}, {13, 262, 3, 842}, {14, 263, 6, 842}, {15, 264, 3, 842}, {16, 265, 1, 842}, {17, 266, 3, 842}, {18, 267, 3, 842}, {19, 268, 1, 842}, {20, 269, 1, 843}, {21, 270, 4, 843}, {22, 271, 4, 843}, {23, 272, 6, 843}, {24, 273, 12, 843}, {25, 274, 6, 843}, {26, 275, 4, 843}, {27, 276, 12, 843}, {28, 277, 12, 843}, {29, 278, 4, 843}, {30, 279, 1, 843}, {31, 280, 4, 843}, {32, 281, 6, 843}, {33, 282, 4, 843}, {34, 283, 1, 843}, {0, 284, 1, 844}, {1, 285, 1, 845}, {2, 286, 1, 845}, {3, 287, 1, 845}, {4, 288, 1, 846}, {5, 289, 2, 846}, {6, 290, 2, 846}, {7, 291, 1, 846}, {8, 292, 2, 846}, {9, 293, 1, 846}, {0, 294, 1, 847}, {165, 165, 1, 848}, {166, 166, 1, 849}, {167, 167, 1, 849}, {168, 168, 1, 849}, {166, 169, 1, 850}, {167, 170, 1, 850}, {168, 171, 1, 850}, {166, 170, 1, 851}, {167, 172, 1, 851}, {168, 173, 1, 851}, {166, 171, 1, 852}, {167, 173, 1, 852}, {168, 174, 1, 852}, {169, 169, 1, 853}, {170, 170, 1, 853}, {171, 171, 1, 853}, {169, 170, 1, 854}, {170, 172, 1, 854}, {171, 173, 1, 854}, {169, 171, 1, 855}, {170, 173, 1, 855}, {171, 174, 1, 855}, {170, 170, 1, 856}, {172, 172, 1, 856}, {173, 173, 1, 856}, {170, 171, 1, 857}, {172, 173, 1, 857}, {173, 174, 1, 857}, {171, 171, 1, 858}, {173, 173, 1, 858}, {174, 174, 1, 858}, {169, 169, 1, 859}, {170, 170, 2, 859}, {171, 171, 2, 859}, {172, 172, 1, 859}, {173, 173, 2, 859}, {174, 174, 1, 859}, {169, 175, 1, 860}, {170, 176, 2, 860}, {171, 177, 2, 860}, {172, 178, 1, 860}, {173, 179, 2, 860}, {174, 180, 1, 860}, {169, 176, 1, 861}, {170, 178, 2, 861}, {171, 179, 2, 861}, {172, 181, 1, 861}, {173, 182, 2, 861}, {174, 183, 1, 861}, {169, 177, 1, 862}, {170, 179, 2, 862}, {171, 180, 2, 862}, {172, 182, 1, 862}, {173, 183, 2, 862}, {174, 184, 1, 862}, {175, 175, 1, 863}, {176, 176, 3, 863}, {177, 177, 3, 863}, {178, 178, 3, 863}, {179, 179, 6, 863}, {180, 180, 3, 863}, {181, 181, 1, 863}, {182, 182, 3, 863}, {183, 183, 3, 863}, {184, 184, 1, 863}, {185, 185, 1, 864}, {186, 186, 4, 864}, {187, 187, 4, 864}, {188, 188, 6, 864}, {189, 189, 12, 864}, {190, 190, 6, 864}, {191, 191, 4, 864}, {192, 192, 12, 864}, {193, 193, 12, 864}, {194, 194, 4, 864}, {195, 195, 1, 864}, {196, 196, 4, 864}, {197, 197, 6, 864}, {198, 198, 4, 864}, {199, 199, 1, 864}, {165, 249, 1, 865}, {166, 250, 1, 866}, {167, 251, 1, 866}, {168, 252, 1, 866}, {169, 253, 1, 867}, {170, 254, 2, 867}, {171, 255, 2, 867}, {172, 256, 1, 867}, {173, 257, 2, 867}, {174, 258, 1, 867}, {165, 284, 1, 868}, {249, 249, 1, 869}, {0, 295, 1, 870}, {0, 296, 1, 871}, {0, 360, 1, 872}, {0, 470, 1, 873}, {0, 565, 1, 874}, {0, 630, 1, 875}, {0, 646, 1, 876}, {0, 650, 1, 877}, {1, 297, 1, 878}, {2, 298, 1, 878}, {3, 299, 1, 878}, {1, 300, 1, 879}, {2, 301, 1, 879}, {3, 302, 1, 879}, {1, 301, 1, 880}, {2, 303, 1, 880}, {3, 304, 1, 880}, {1, 302, 1, 881}, {2, 304, 1, 881}, {3, 305, 1, 881}, {1, 306, 1, 882}, {2, 307, 1, 882}, {3, 308, 1, 882}, {1, 307, 1, 883}, {2, 309, 1, 883}, {3, 310, 1, 883}, {1, 308, 1, 884}, {2, 310, 1, 884}, {3, 311, 1, 884}, {1, 361, 1, 885}, {2, 362, 1, 885}, {3, 363, 1, 885}, {1, 364, 1, 886}, {2, 365, 1, 886}, {3, 366, 1, 886}, {1, 365, 1, 887}, {2, 367, 1, 887}, {3, 368, 1, 887}, {1, 366, 1, 888}, {2, 368, 1, 888}, {3, 369, 1, 888}, {1, 416, 1, 889}, {2, 417, 1, 889}, {3, 418, 1, 889}, {1, 417, 1, 890}, {2, 419, 1, 890}, {3, 420, 1, 890}, {1, 418, 1, 891}, {2, 420, 1, 891}, {3, 421, 1, 891}, {1, 471, 1, 892}, {2, 472, 1, 892}, {3, 473, 1, 892}, {1, 474, 1, 893}, {2, 475, 1, 893}, {3, 476, 1, 893}, {1, 475, 1, 894}, {2, 477, 1, 894}, {3, 478, 1, 894}, {1, 476, 1, 895}, {2, 478, 1, 895}, {3, 479, 1, 895}, {1, 511, 1, 896}, {2, 512, 1, 896}, {3, 513, 1, 896}, {1, 512, 1, 897}, {2, 514, 1, 897}, {3, 515, 1, 897}, {1, 513, 1, 898}, {2, 515, 1, 898}, {3, 516, 1, 898}, {1, 566, 1, 899}, {2, 567, 1, 899}, {3, 568, 1, 899}, {1, 569, 1, 900}, {2, 570, 1, 900}, {3, 571, 1, 900}, {1, 570, 1, 901}, {2, 572, 1, 901}, {3, 573, 1, 901}, {1, 571, 1, 902}, {2, 573, 1, 902}, {3, 574, 1, 902}, {1, 606, 1, 903}, {2, 607, 1, 903}, {3, 608, 1, 903}, {1, 607, 1, 904}, {2, 609, 1, 904}, {3, 610, 1, 904}, {1, 608, 1, 905}, {2, 610, 1, 905}, {3, 611, 1, 905}, {1, 631, 1, 906}, {2, 632, 1, 906}, {3, 633, 1, 906}, {1, 647, 1, 907}, {2, 648, 1, 907}, {3, 649, 1, 907}, {4, 306, 1, 908}, {5, 307, 1, 908}, {6, 308, 1, 908}, {4, 307, 1, 909}, {5, 309, 1, 909}, {6, 310, 1, 909}, {4, 308, 1, 910}, {5, 310, 1, 910}, {6, 311, 1, 910}, {5, 306, 1, 911}, {7, 307, 1, 911}, {8, 308, 1, 911}, {5, 307, 1, 912}, {7, 309, 1, 912}, {8, 310, 1, 912}, {5, 308, 1, 913}, {7, 310, 1, 913}, {8, 311, 1, 913}, {6, 306, 1, 914}, {8, 307, 1, 914}, {9, 308, 1, 914}, {6, 307, 1, 915}, {8, 309, 1, 915}, {9, 310, 1, 915}, {6, 308, 1, 916}, {8, 310, 1, 916}, {9, 311, 1, 916}, {4, 361, 1, 917}, {5, 362, 1, 917}, {6, 363, 1, 917}, {5, 361, 1, 918}, {7, 362, 1, 918}, {8, 363, 1, 918}, {6, 361, 1, 919}, {8, 362, 1, 919}, {9, 363, 1, 919}, {4, 416, 1, 920}, {5, 417, 1, 920}, {6, 418, 1, 920}, {4, 417, 1, 921}, {5, 419, 1, 921}, {6, 420, 1, 921}, {4, 418, 1, 922}, {5, 420, 1, 922}, {6, 421, 1, 922}, {5, 416, 1, 923}, {7, 417, 1, 923}, {8, 418, 1, 923}, {5, 417, 1, 924}, {7, 419, 1, 924}, {8, 420, 1, 924}, {5, 418, 1, 925}, {7, 420, 1, 925}, {8, 421, 1, 925}, {6, 416, 1, 926}, {8, 417, 1, 926}, {9, 418, 1, 926}, {6, 417, 1, 927}, {8, 419, 1, 927}, {9, 420, 1, 927}, {6, 418, 1, 928}, {8, 420, 1, 928}, {9, 421, 1, 928}, {4, 471, 1, 929}, {5, 472, 1, 929}, {6, 473, 1, 929}, {5, 471, 1, 930}, {7, 472, 1, 930}, {8, 473, 1, 930}, {6, 471, 1, 931}, {8, 472, 1, 931}, {9, 473, 1, 931}, {4, 474, 1, 932}, {5, 475, 1, 932}, {6, 476, 1, 932}, {4, 475, 1, 933}, {5, 477, 1, 933}, {6, 478, 1, 933}, {4, 476, 1, 934}, {5, 478, 1, 934}, {6, 479, 1, 934}, {5, 474, 1, 935}, {7, 475, 1, 935}, {8, 476, 1, 935}, {5, 475, 1, 936}, {7, 477, 1, 936}, {8, 478, 1, 936}, {5, 476, 1, 937}, {7, 478, 1, 937}, {8, 479, 1, 937}, {6, 474, 1, 938}, {8, 475, 1, 938}, {9, 476, 1, 938}, {6, 475, 1, 939}, {8, 477, 1, 939}, {9, 478, 1, 939}, {6, 476, 1, 940}, {8, 478, 1, 940}, {9, 479, 1, 940}, {4, 511, 1, 941}, {5, 512, 1, 941}, {6, 513, 1, 941}, {4, 512, 1, 942}, {5, 514, 1, 942}, {6, 515, 1, 942}, {4, 513, 1, 943}, {5, 515, 1, 943}, {6, 516, 1, 943}, {5, 511, 1, 944}, {7, 512, 1, 944}, {8, 513, 1, 944}, {5, 512, 1, 945}, {7, 514, 1, 945}, {8, 515, 1, 945}, {5, 513, 1, 946}, {7, 515, 1, 946}, {8, 516, 1, 946}, {6, 511, 1, 947}, {8, 512, 1, 947}, {9, 513, 1, 947}, {6, 512, 1, 948}, {8, 514, 1, 948}, {9, 515, 1, 948}, {6, 513, 1, 949}, {8, 515, 1, 949}, {9, 516, 1, 949}, {4, 566, 1, 950}, {5, 567, 1, 950}, {6, 568, 1, 950}, {5, 566, 1, 951}, {7, 567, 1, 951}, {8, 568, 1, 951}, {6, 566, 1, 952}, {8, 567, 1, 952}, {9, 568, 1, 952}, {4, 364, 1, 953}, {5, 365, 2, 953}, {6, 366, 2, 953}, {7, 367, 1, 953}, {8, 368, 2, 953}, {9, 369, 1, 953}, {4, 370, 1, 954}, {5, 371, 2, 954}, {6, 372, 2, 954}, {7, 373, 1, 954}, {8, 374, 2, 954}, {9, 375, 1, 954}, {4, 371, 1, 955}, {5, 373, 2, 955}, {6, 374, 2, 955}, {7, 376, 1, 955}, {8, 377, 2, 955}, {9, 378, 1, 955}, {4, 372, 1, 956}, {5, 374, 2, 956}, {6, 375, 2, 956}, {7, 377, 1, 956}, {8, 378, 2, 956}, {9, 379, 1, 956}, {4, 380, 1, 957}, {5, 381, 2, 957}, {6, 382, 2, 957}, {7, 383, 1, 957}, {8, 384, 2, 957}, {9, 385, 1, 957}, {4, 381, 1, 958}, {5, 383, 2, 958}, {6, 384, 2, 958}, {7, 386, 1, 958}, {8, 387, 2, 958}, {9, 388, 1, 958}, {4, 382, 1, 959}, {5, 384, 2, 959}, {6, 385, 2, 959}, {7, 387, 1, 959}, {8, 388, 2, 959}, {9, 389, 1, 959}, {4, 383, 1, 960}, {5, 386, 2, 960}, {6, 387, 2, 960}, {7, 390, 1, 960}, {8, 391, 2, 960}, {9, 392, 1, 960}, {4, 384, 1, 961}, {5, 387, 2, 961}, {6, 388, 2, 961}, {7, 391, 1, 961}, {8, 392, 2, 961}, {9, 393, 1, 961}, {4, 385, 1, 962}, {5, 388, 2, 962}, {6, 389, 2, 962}, {7, 392, 1, 962}, {8, 393, 2, 962}, {9, 394, 1, 962}, {4, 422, 1, 963}, {5, 423, 2, 963}, {6, 424, 2, 963}, {7, 425, 1, 963}, {8, 426, 2, 963}, {9, 427, 1, 963}, {4, 428, 1, 964}, {5, 429, 2, 964}, {6, 430, 2, 964}, {7, 431, 1, 964}, {8, 432, 2, 964}, {9, 433, 1, 964}, {4, 434, 1, 965}, {5, 435, 2, 965}, {6, 436, 2, 965}, {7, 437, 1, 965}, {8, 438, 2, 965}, {9, 439, 1, 965}, {4, 474, 1, 966}, {5, 475, 2, 966}, {6, 476, 2, 966}, {7, 477, 1, 966}, {8, 478, 2, 966}, {9, 479, 1, 966}, {4, 480, 1, 967}, {5, 481, 2, 967}, {6, 482, 2, 967}, {7, 483, 1, 967}, {8, 484, 2, 967}, {9, 485, 1, 967}, {4, 481, 1, 968}, {5, 483, 2, 968}, {6, 484, 2, 968}, {7, 486, 1, 968}, {8, 487, 2, 968}, {9, 488, 1, 968}, {4, 482, 1, 969}, {5, 484, 2, 969}, {6, 485, 2, 969}, {7, 487, 1, 969}, {8, 488, 2, 969}, {9, 489, 1, 969}, {4, 490, 1, 970}, {5, 491, 2, 970}, {6, 492, 2, 970}, {7, 493, 1, 970}, {8, 494, 2, 970}, {9, 495, 1, 970}, {4, 491, 1, 971}, {5, 496, 2, 971}, {6, 497, 2, 971}, {7, 498, 1, 971}, {8, 499, 2, 971}, {9, 500, 1, 971}, {4, 492, 1, 972}, {5, 497, 2, 972}, {6, 501, 2, 972}, {7, 502, 1, 972}, {8, 503, 2, 972}, {9, 504, 1, 972}, {4, 493, 1, 973}, {5, 498, 2, 973}, {6, 502, 2, 973}, {7, 505, 1, 973}, {8, 506, 2, 973}, {9, 507, 1, 973}, {4, 494, 1, 974}, {5, 499, 2, 974}, {6, 503, 2, 974}, {7, 506, 1, 974}, {8, 508, 2, 974}, {9, 509, 1, 974}, {4, 495, 1, 975}, {5, 500, 2, 975}, {6, 504, 2, 975}, {7, 507, 1, 975}, {8, 509, 2, 975}, {9, 510, 1, 975}, {4, 517, 1, 976}, {5, 518, 2, 976}, {6, 519, 2, 976}, {7, 520, 1, 976}, {8, 521, 2, 976}, {9, 522, 1, 976}, {4, 523, 1, 977}, {5, 524, 2, 977}, {6, 525, 2, 977}, {7, 526, 1, 977}, {8, 527, 2, 977}, {9, 528, 1, 977}, {4, 529, 1, 978}, {5, 530, 2, 978}, {6, 531, 2, 978}, {7, 532, 1, 978}, {8, 533, 2, 978}, {9, 534, 1, 978}, {4, 569, 1, 979}, {5, 570, 2, 979}, {6, 571, 2, 979}, {7, 572, 1, 979}, {8, 573, 2, 979}, {9, 574, 1, 979}, {4, 634, 1, 980}, {5, 635, 2, 980}, {6, 636, 2, 980}, {7, 637, 1, 980}, {8, 638, 2, 980}, {9, 639, 1, 980}, {4, 306, 1, 981}, {5, 307, 2, 981}, {6, 308, 2, 981}, {7, 309, 1, 981}, {8, 310, 2, 981}, {9, 311, 1, 981}, {4, 312, 1, 982}, {5, 313, 1, 982}, {5, 318, 1, 982}, {6, 314, 1, 982}, {6, 324, 1, 982}, {7, 319, 1, 982}, {8, 320, 1, 982}, {8, 325, 1, 982}, {9, 326, 1, 982}, {4, 313, 1, 983}, {5, 315, 1, 983}, {5, 319, 1, 983}, {6, 316, 1, 983}, {6, 325, 1, 983}, {7, 321, 1, 983}, {8, 322, 1, 983}, {8, 327, 1, 983}, {9, 328, 1, 983}, {4, 314, 1, 984}, {5, 316, 1, 984}, {5, 320, 1, 984}, {6, 317, 1, 984}, {6, 326, 1, 984}, {7, 322, 1, 984}, {8, 323, 1, 984}, {8, 328, 1, 984}, {9, 329, 1, 984}, {4, 330, 1, 985}, {5, 331, 1, 985}, {5, 340, 1, 985}, {6, 332, 1, 985}, {6, 350, 1, 985}, {7, 341, 1, 985}, {8, 342, 1, 985}, {8, 351, 1, 985}, {9, 352, 1, 985}, {4, 331, 1, 986}, {5, 333, 1, 986}, {5, 341, 1, 986}, {6, 334, 1, 986}, {6, 351, 1, 986}, {7, 343, 1, 986}, {8, 344, 1, 986}, {8, 353, 1, 986}, {9, 354, 1, 986}, {4, 332, 1, 987}, {5, 334, 1, 987}, {5, 342, 1, 987}, {6, 335, 1, 987}, {6, 352, 1, 987}, {7, 344, 1, 987}, {8, 345, 1, 987}, {8, 354, 1, 987}, {9, 355, 1, 987}, {4, 333, 1, 988}, {5, 336, 1, 988}, {5, 343, 1, 988}, {6, 337, 1, 988}, {6, 353, 1, 988}, {7, 346, 1, 988}, {8, 347, 1, 988}, {8, 356, 1, 988}, {9, 357, 1, 988}, {4, 334, 1, 989}, {5, 337, 1, 989}, {5, 344, 1, 989}, {6, 338, 1, 989}, {6, 354, 1, 989}, {7, 347, 1, 989}, {8, 348, 1, 989}, {8, 357, 1, 989}, {9, 358, 1, 989}, {4, 335, 1, 990}, {5, 338, 1, 990}, {5, 345, 1, 990}, {6, 339, 1, 990}, {6, 355, 1, 990}, {7, 348, 1, 990}, {8, 349, 1, 990}, {8, 358, 1, 990}, {9, 359, 1, 990}, {4, 395, 1, 991}, {5, 396, 2, 991}, {6, 397, 2, 991}, {7, 401, 1, 991}, {8, 402, 2, 991}, {9, 406, 1, 991}, {4, 396, 1, 992}, {5, 398, 1, 992}, {5, 401, 1, 992}, {6, 399, 1, 992}, {6, 402, 1, 992}, {7, 403, 1, 992}, {8, 404, 1, 992}, {8, 407, 1, 992}, {9, 408, 1, 992}, {4, 397, 1, 993}, {5, 399, 1, 993}, {5, 402, 1, 993}, {6, 400, 1, 993}, {6, 406, 1, 993}, {7, 404, 1, 993}, {8, 405, 1, 993}, {8, 408, 1, 993}, {9, 409, 1, 993}, {4, 401, 1, 994}, {5, 403, 2, 994}, {6, 404, 2, 994}, {7, 410, 1, 994}, {8, 411, 2, 994}, {9, 413, 1, 994}, {4, 402, 1, 995}, {5, 404, 1, 995}, {5, 407, 1, 995}, {6, 405, 1, 995}, {6, 408, 1, 995}, {7, 411, 1, 995}, {8, 412, 1, 995}, {8, 413, 1, 995}, {9, 414, 1, 995}, {4, 406, 1, 996}, {5, 408, 2, 996}, {6, 409, 2, 996}, {7, 413, 1, 996}, {8, 414, 2, 996}, {9, 415, 1, 996}, {4, 416, 1, 997}, {5, 417, 2, 997}, {6, 418, 2, 997}, {7, 419, 1, 997}, {8, 420, 2, 997}, {9, 421, 1, 997}, {4, 422, 1, 998}, {5, 423, 1, 998}, {5, 428, 1, 998}, {6, 424, 1, 998}, {6, 434, 1, 998}, {7, 429, 1, 998}, {8, 430, 1, 998}, {8, 435, 1, 998}, {9, 436, 1, 998}, {4, 423, 1, 999}, {5, 425, 1, 999}, {5, 429, 1, 999}, {6, 426, 1, 999}, {6, 435, 1, 999}, {7, 431, 1, 999}, {8, 432, 1, 999}, {8, 437, 1, 999}, {9, 438, 1, 999}, {4, 424, 1, 1000}, {5, 426, 1, 1000}, {5, 430, 1, 1000}, {6, 427, 1, 1000}, {6, 436, 1, 1000}, {7, 432, 1, 1000}, {8, 433, 1, 1000}, {8, 438, 1, 1000}, {9, 439, 1, 1000}, {4, 440, 1, 1001}, {5, 441, 1, 1001}, {5, 450, 1, 1001}, {6, 442, 1, 1001}, {6, 460, 1, 1001}, {7, 451, 1, 1001}, {8, 452, 1, 1001}, {8, 461, 1, 1001}, {9, 462, 1, 1001}, {4, 441, 1, 1002}, {5, 443, 1, 1002}, {5, 451, 1, 1002}, {6, 444, 1, 1002}, {6, 461, 1, 1002}, {7, 453, 1, 1002}, {8, 454, 1, 1002}, {8, 463, 1, 1002}, {9, 464, 1, 1002}, {4, 442, 1, 1003}, {5, 444, 1, 1003}, {5, 452, 1, 1003}, {6, 445, 1, 1003}, {6, 462, 1, 1003}, {7, 454, 1, 1003}, {8, 455, 1, 1003}, {8, 464, 1, 1003}, {9, 465, 1, 1003}, {4, 443, 1, 1004}, {5, 446, 1, 1004}, {5, 453, 1, 1004}, {6, 447, 1, 1004}, {6, 463, 1, 1004}, {7, 456, 1, 1004}, {8, 457, 1, 1004}, {8, 466, 1, 1004}, {9, 467, 1, 1004}, {4, 444, 1, 1005}, {5, 447, 1, 1005}, {5, 454, 1, 1005}, {6, 448, 1, 1005}, {6, 464, 1, 1005}, {7, 457, 1, 1005}, {8, 458, 1, 1005}, {8, 467, 1, 1005}, {9, 468, 1, 1005}, {4, 445, 1, 1006}, {5, 448, 1, 1006}, {5, 455, 1, 1006}, {6, 449, 1, 1006}, {6, 465, 1, 1006}, {7, 458, 1, 1006}, {8, 459, 1, 1006}, {8, 468, 1, 1006}, {9, 469, 1, 1006}, {4, 490, 1, 1007}, {5, 491, 2, 1007}, {6, 492, 2, 1007}, {7, 496, 1, 1007}, {8, 497, 2, 1007}, {9, 501, 1, 1007}, {4, 491, 1, 1008}, {5, 493, 1, 1008}, {5, 496, 1, 1008}, {6, 494, 1, 1008}, {6, 497, 1, 1008}, {7, 498, 1, 1008}, {8, 499, 1, 1008}, {8, 502, 1, 1008}, {9, 503, 1, 1008}, {4, 492, 1, 1009}, {5, 494, 1, 1009}, {5, 497, 1, 1009}, {6, 495, 1, 1009}, {6, 501, 1, 1009}, {7, 499, 1, 1009}, {8, 500, 1, 1009}, {8, 503, 1, 1009}, {9, 504, 1, 1009}, {4, 496, 1, 1010}, {5, 498, 2, 1010}, {6, 499, 2, 1010}, {7, 505, 1, 1010}, {8, 506, 2, 1010}, {9, 508, 1, 1010}, {4, 497, 1, 1011}, {5, 499, 1, 1011}, {5, 502, 1, 1011}, {6, 500, 1, 1011}, {6, 503, 1, 1011}, {7, 506, 1, 1011}, {8, 507, 1, 1011}, {8, 508, 1, 1011}, {9, 509, 1, 1011}, {4, 501, 1, 1012}, {5, 503, 2, 1012}, {6, 504, 2, 1012}, {7, 508, 1, 1012}, {8, 509, 2, 1012}, {9, 510, 1, 1012}, {4, 511, 1, 1013}, {5, 512, 2, 1013}, {6, 513, 2, 1013}, {7, 514, 1, 1013}, {8, 515, 2, 1013}, {9, 516, 1, 1013}, {4, 517, 1, 1014}, {5, 518, 1, 1014}, {5, 523, 1, 1014}, {6, 519, 1, 1014}, {6, 529, 1, 1014}, {7, 524, 1, 1014}, {8, 525, 1, 1014}, {8, 530, 1, 1014}, {9, 531, 1, 1014}, {4, 518, 1, 1015}, {5, 520, 1, 1015}, {5, 524, 1, 1015}, {6, 521, 1, 1015}, {6, 530, 1, 1015}, {7, 526, 1, 1015}, {8, 527, 1, 1015}, {8, 532, 1, 1015}, {9, 533, 1, 1015}, {4, 519, 1, 1016}, {5, 521, 1, 1016}, {5, 525, 1, 1016}, {6, 522, 1, 1016}, {6, 531, 1, 1016}, {7, 527, 1, 1016}, {8, 528, 1, 1016}, {8, 533, 1, 1016}, {9, 534, 1, 1016}, {4, 606, 1, 1017}, {5, 607, 2, 1017}, {6, 608, 2, 1017}, {7, 609, 1, 1017}, {8, 610, 2, 1017}, {9, 611, 1, 1017}, {4, 640, 1, 1018}, {5, 641, 2, 1018}, {6, 642, 2, 1018}, {7, 643, 1, 1018}, {8, 644, 2, 1018}, {9, 645, 1, 1018}, {10, 422, 1, 1019}, {11, 423, 2, 1019}, {12, 424, 2, 1019}, {13, 425, 1, 1019}, {14, 426, 2, 1019}, {15, 427, 1, 1019}, {10, 428, 1, 1020}, {11, 429, 2, 1020}, {12, 430, 2, 1020}, {13, 431, 1, 1020}, {14, 432, 2, 1020}, {15, 433, 1, 1020}, {10, 434, 1, 1021}, {11, 435, 2, 1021}, {12, 436, 2, 1021}, {13, 437, 1, 1021}, {14, 438, 2, 1021}, {15, 439, 1, 1021}, {11, 422, 1, 1022}, {13, 423, 2, 1022}, {14, 424, 2, 1022}, {16, 425, 1, 1022}, {17, 426, 2, 1022}, {18, 427, 1, 1022}, {11, 428, 1, 1023}, {13, 429, 2, 1023}, {14, 430, 2, 1023}, {16, 431, 1, 1023}, {17, 432, 2, 1023}, {18, 433, 1, 1023}, {11, 434, 1, 1024}, {13, 435, 2, 1024}, {14, 436, 2, 1024}, {16, 437, 1, 1024}, {17, 438, 2, 1024}, {18, 439, 1, 1024}, {12, 422, 1, 1025}, {14, 423, 2, 1025}, {15, 424, 2, 1025}, {17, 425, 1, 1025}, {18, 426, 2, 1025}, {19, 427, 1, 1025}, {12, 428, 1, 1026}, {14, 429, 2, 1026}, {15, 430, 2, 1026}, {17, 431, 1, 1026}, {18, 432, 2, 1026}, {19, 433, 1, 1026}, {12, 434, 1, 1027}, {14, 435, 2, 1027}, {15, 436, 2, 1027}, {17, 437, 1, 1027}, {18, 438, 2, 1027}, {19, 439, 1, 1027}, {10, 474, 1, 1028}, {11, 475, 2, 1028}, {12, 476, 2, 1028}, {13, 477, 1, 1028}, {14, 478, 2, 1028}, {15, 479, 1, 1028}, {11, 474, 1, 1029}, {13, 475, 2, 1029}, {14, 476, 2, 1029}, {16, 477, 1, 1029}, {17, 478, 2, 1029}, {18, 479, 1, 1029}, {12, 474, 1, 1030}, {14, 475, 2, 1030}, {15, 476, 2, 1030}, {17, 477, 1, 1030}, {18, 478, 2, 1030}, {19, 479, 1, 1030}, {10, 480, 1, 1031}, {11, 481, 3, 1031}, {12, 482, 3, 1031}, {13, 483, 3, 1031}, {14, 484, 6, 1031}, {15, 485, 3, 1031}, {16, 486, 1, 1031}, {17, 487, 3, 1031}, {18, 488, 3, 1031}, {19, 489, 1, 1031}, {10, 575, 1, 1032}, {11, 576, 3, 1032}, {12, 577, 3, 1032}, {13, 578, 3, 1032}, {14, 579, 6, 1032}, {15, 580, 3, 1032}, {16, 581, 1, 1032}, {17, 582, 3, 1032}, {18, 583, 3, 1032}, {19, 584, 1, 1032}, {10, 395, 1, 1033}, {11, 396, 2, 1033}, {12, 397, 2, 1033}, {13, 401, 1, 1033}, {14, 402, 2, 1033}, {15, 406, 1, 1033}, {10, 396, 1, 1034}, {11, 398, 1, 1034}, {11, 401, 1, 1034}, {12, 399, 1, 1034}, {12, 402, 1, 1034}, {13, 403, 1, 1034}, {14, 404, 1, 1034}, {14, 407, 1, 1034}, {15, 408, 1, 1034}, {10, 397, 1, 1035}, {11, 399, 1, 1035}, {11, 402, 1, 1035}, {12, 400, 1, 1035}, {12, 406, 1, 1035}, {13, 404, 1, 1035}, {14, 405, 1, 1035}, {14, 408, 1, 1035}, {15, 409, 1, 1035}, {10, 401, 1, 1036}, {11, 403, 2, 1036}, {12, 404, 2, 1036}, {13, 410, 1, 1036}, {14, 411, 2, 1036}, {15, 413, 1, 1036}, {10, 402, 1, 1037}, {11, 404, 1, 1037}, {11, 407, 1, 1037}, {12, 405, 1, 1037}, {12, 408, 1, 1037}, {13, 411, 1, 1037}, {14, 412, 1, 1037}, {14, 413, 1, 1037}, {15, 414, 1, 1037}, {10, 406, 1, 1038}, {11, 408, 2, 1038}, {12, 409, 2, 1038}, {13, 413, 1, 1038}, {14, 414, 2, 1038}, {15, 415, 1, 1038}, {11, 395, 1, 1039}, {13, 396, 2, 1039}, {14, 397, 2, 1039}, {16, 401, 1, 1039}, {17, 402, 2, 1039}, {18, 406, 1, 1039}, {11, 396, 1, 1040}, {13, 398, 1, 1040}, {13, 401, 1, 1040}, {14, 399, 1, 1040}, {14, 402, 